0.00999054741521481,0.08921035270645097,-0.03976047693409251,0.04998262766409581,0.07987642168556155,0.04041015081805119,0.09056035226075959,-0.029615121026025246,-0.06019570647969248,0.040954989429329514,0.03167177276511424,0.06640606323235418,0.09967218386244722,-0.0031734137502572174,0.06268813840826867,0.03348980249956704,0.03623243640242013,-0.04960862422294661,0.05585610386837356,-0.09617242166636181,-0.04027136834316909,-0.0015673290780968963,-0.08428453113486992,0.05027163056921538,-0.025324531943220305,0.03680276627474466,-0.04635346076438458,-0.0806570944691088,-0.03058151471681643,-0.04788608956397056,0.0824252130939305,0.09322374929843077,-0.02186857604159846,0.05070687856203632,0.01704133611989908,0.09882310843698605,-0.015584236629528611,0.047869184854829216,0.012098397574908243,-0.009706270360044858,-0.0633709237838852,0.09535562885443633,0.09503238752664289,-0.08226031298101782,-0.08976476761793069,0.09459390041922636,-0.08212165121084399,-0.08979477423077123,0.03758515715940075,0.08453922201175978,0.08028585432181665,-0.004242396458584888,-0.06682722721980269,-0.08531994025481399,-0.07204659298373527,0.0069883015707212365,-0.02282216828609948,-0.013993234046497077,-0.042273747680122625,0.09203120156786587,0.04347089629260967,-0.08960431770187692,0.009282078946539096,0.04810623461100433,0.05565169903487863,-0.03923873458078944,0.02400096811300198,0.009017578743672344,0.046295845136297004,0.004862350478764932,-0.028312643958402745,0.06444744131206281,-0.03138271544288636,0.014544723265420778,0.0191146706150139,0.09713255863520057,0.06448955617742944,-0.033645389853227944,0.04762757952429489,-0.06330286237171995,-0.013070583136688185,-0.033588665408410504,0.07071008512414309,0.051572310240194486,-0.08246452286305446,-0.09066354755439354,-0.03270676269478821,-0.06655298774512933,0.0957252916128701,-0.02739332159719554,-0.008221218121635343,0.031276277034034405,0.07922160190792549,0.005586222334820937,0.040453813247325054,0.043593186297806785,-0.043102464681408506,0.007476065248796113,-0.062474103139538655,0.023133274008328916,-0.0761810712245828,0.021937424981968753,-0.017255559320635633,-0.04356902209513709,0.07144535954975176,-0.07215762599051066,-0.07971396346384188,0.0692989234175578,-0.01784060777410619,-0.04951144276867514,-0.09334199224584708,-0.01567708404036039,-0.0630917604580365,0.05042543817663167,0.07226516811864059,-0.067035323182735,0.04916046885838071,0.0890275374488538,0.05553151133680839,0.016764202566189754,-0.06452695617034374,0.049299364316698985,-0.040077721934910174,-0.09296216858942029,0.06301420892024726,0.04621968702601803,-0.011197590588597234,-0.03634961390263505,0.02009633933379032,0.08582214765719226,-0.02306091527416465,0.033831021488865604,0.04190034568634507,0.06442724033785094,0.07358609218653456,0.09860865729622584,0.04685004911194862,0.015859885611932814,-0.0160621491715206,-0.06831300152939565,-0.032152428989276755,-0.06353444871442526,-0.0010766950567006467,-0.09563704160133589,-0.0004840588810461205,0.05240859464537481,-0.019438761257277434,0.08172036703275587,-0.05023805230192094,0.05099573563265877,-0.04382051320320453,-0.06254182537684969,-0.09382317478571388,0.06434719110964823,0.06756385746170276,-0.00828448759076765,-0.02232915421635366,0.050164825316702716,-0.08112573816421112,0.01943076320266228,0.018807433577149354,-0.05089434286922037,0.04836658165960597,-0.02175650933032247,0.0058326725518087486,0.08371102767638583,0.023840797845505773,-0.04987912239214287,0.01201047428850835,-0.06853161082100653,-0.019699479756866367,-0.083913882092894,0.09885954304613673,-0.0054134942162506194,-0.09821848210649858,-0.08442633100038671,0.017524459791025834,-0.06701530155701799,0.046719402178672265,0.0005265019128740944,-0.06320809416789805,0.024492520765835454,-0.02027535693430435,-0.05601573897945727,-0.013431007574450413,-0.06208524261763411,-0.08141856856557793,0.09469451418829924,-0.04318405795467972,-0.007818698045995914,-0.010991842491035797,0.09647916589712816,0.05093428414364362,-0.03890302833728614,-0.010274243983790482,-0.07317528306315607,-0.05620612867027597,0.04063806931634689,0.0288299222483977,-0.05203260861625081,-0.07830698709189832,0.09334463741278692,-0.024921468418888204,0.07906656081792471,-0.0820851287347641,-0.06736941238227456,0.04591003834719501,0.061291770435309506,0.013220284795430956,-0.05653939033971525,0.04039865241200008,0.029734017036049082,-0.011637475521155766,-0.038202351576616826,-0.029013168670268624,-0.07320462217028663,0.0840959101904912,0.08794231436406838,0.005983930612521671,-0.04101548154312476,0.08157572387934933,-0.042926862805476224,-0.07627191054271586,-0.08673645991837645,0.01762832768512594,0.06443754247661215,0.09318432063711349,-0.054543879801069874,-0.04251677117639277,0.06946411544441863,-0.04411162340174982,0.09097267877556914,-0.06418495954594652,-0.03373253328491621,-0.05077607596580887,0.07961022868808137,0.022632637494104574,-0.0013256696096070886,0.03491162200761139,0.05777512689797357,0.07117028616919263,0.008340477054532752,0.005540815844987335,-0.0571886018191157,-0.04461490230878558,0.024117537081899856,0.05713606341735472,0.061695476944651356,-0.05846299396563868,-0.003327285287540588,-0.039827923497182366,-0.001993436762029635,0.0569885990504794,-0.03607100449260174,-0.07951195740121686,0.07725387813441165,-0.05746162569048061,-0.0622135505502478,0.012052061050694007,-0.06055582964007429,0.06369470640810457,0.010974521907765628,0.08364241377628354,-0.01975323325865863,-0.06846397553873396,-0.04550447364827046,-0.08980317435954935,-0.054987561160830145,-0.017335498785819276,-0.06285309820711202,-0.0954078701142056,-0.0731114297478523,0.039315433567684854,-0.09510706770505134,-0.04128215496186996,0.055251124183467254,0.05962018458736165,0.05236596441884697,-0.043873380854115324,-0.02926042747921194,0.07380172263905824,0.053999227817608186,-0.08523937683865,0.012835992920133849,-0.004342431487075582,0.08808614670602849,-0.005630361341398091,-0.059386733108845104,-0.07036275834090762,0.05719450184154176,0.010113338132894611,-0.05710773339261513,0.05262906409957971,0.045254306479803386,-0.011141515337162719,0.08731412623931531,0.024064215265213365,-0.09836947501039228,0.07393711067688222,0.040049988426104105,0.08253747290023467,0.06822882824242729,-0.08730621401142889,-0.06732140955474561,-0.028940787421867856,-0.0562982080539453,0.06987049350446745,0.03848772579187343,-0.04027506412051196,-0.007580344498958058,-0.05272892681030664,0.07584759434589855,-0.014521536817783079,-0.05649216389272038,0.06555622249001511,0.03799100415274975,-0.029262906026911242,-0.014714586892635648,-0.015862057969728546,-0.06269864123536031,-0.07566469859211306,-0.0808857770906996,-0.017475080580345012,0.05274655425899141,-0.04866713318776444,0.012585189724206747,0.0421105295050426,0.0898949369098185,0.00818996866557134,0.07113173413750001,0.06964699944827263,0.08989494046585214,0.0915010031887156,0.044498268410127606,-0.03976077319405629,-0.06502456857123629,0.07315695055308821,0.0811678361707889,0.08634868309529628,0.07415425165097136,0.012397628971712565,-0.056949268663682134,0.0005000478031532418,0.0988039125652416,-0.09668335738246162,0.054124176923428274,0.01898869470929687,-0.029112334305909912,0.08762371776069836,-0.05510384221048337,-0.07178191706110588,-0.03114535238170553,0.04663530980863834,-0.0843077006088663,0.012794114560693765,0.023669184350126743,0.03873346057481136,0.007540833006220188,0.00077790470546521,0.013067869049835895,-0.0660427845594915,0.0967187991469729,-0.005203772723301234,0.06746598086551009,-0.02316266641981135,0.04179097943343352,-0.07893383548028265,0.08174691818414884,0.09840457163078517,0.09889525787956585,-0.023684999358377465,0.03469681742113423,0.0873079727758351,0.046859186974739786,0.043277619412486285,0.021979706779091085,0.09464684219025873,-0.08651975124643743,-0.060294192848350026,-0.016253415879519187,0.09890161993857635,-0.049573976002363955,-0.025448960234481982,-0.04616819637958685,-0.04545937896367833,0.08953393378243837,0.09805946099126256,-0.08724450227911068,0.011450265952351699,-0.09596020919272173,0.036514485688304205,-0.00816772452514443,0.08215656431457971,0.02608100656311671,0.05674570215699434,-0.010788392190296966,0.05445906034834258,0.05100368064021463,-0.09264137548870827,0.037063188298974786,-0.0402194510606035,0.05938654037506805,-0.004616028297091596,-0.05309360671271093,-0.0749659943241676,-0.04011274348299121,-0.09226935402558518,-0.09117313037947168,-0.02635064352761045,0.012699646759290362,-0.07363147147440233,-0.09240143224495963,-0.00857356281498553,-0.02092317391157257,-0.05477547894316055,-0.02328892064994534,-0.004208758422376516,-0.05667859523202743,0.07405698395022112,0.0550548775952939,-0.05614608260457277,-0.00987022408735963,0.07406331776184352,0.09705383533317,-0.0588383408504535,0.06924521385814414,0.09032828384122182,-0.06402904596470652,-0.09792183785511742,0.09917031239265614,0.015866635959626604,0.0933581505291339,0.0405112742039197,0.07208393415434033,0.052170575562203,-0.05467130623253194,0.08133608336476053,-0.002509135528733289,0.037446187202565484,0.04873693077318467,-0.035801292133174276,0.08924360929341277,0.06533832173790774,0.09280978439778323,0.024080986533208074,-0.09207661589669408,0.0310362457672666,-0.03462782519882089,0.010292659280454794,-0.0870211245548662,0.018701777953304105,-0.014744910874510658,0.009998211611585844,-0.06850799802090143,0.0009570620821503645,0.0832986631279079,-0.057382782087868046,-0.02165097215671312,-0.07721959624698674,0.041547827120791275,-0.09612796722912281,0.08581035100056414,0.049381927019171046,0.09058751651601535,0.013970792525296316,-0.08475272460271205,0.033481187912272475,0.08976378326928941,0.04189006775548049,0.07928978471764453,-0.0033933267755026086,-0.009806824578050113,0.07707094561358827,-0.08961985811119573,0.09899735794964931,-0.07878194965141648,0.05462493200384477,-0.042874319138513695,0.040453063585746796,0.08997803547051625,0.0008866337148312892,-0.07081745085163978,0.017256044979301596,0.06629828101104515,0.05597714110265556,-0.0997590723402671,-0.07767206696065627,-0.005287964348495766,0.08620188402569307,0.000360813850694891,-0.054999190053912475,-0.04976544323063608,0.011170444998034476,0.0034048552922740505,-0.059597451953678965,0.059706064709496326,0.04427559570950615,-0.0887022892221556,-0.014530502421518016,0.005546990919736122,-0.05529869506126504,-0.0828274126349155,-0.032158323288952476,0.024413814283102478,0.05715259705556061,0.03170319759283541,-0.0842175918119646,-0.08758295806802739,-0.08559514751317272,0.0005083738397975157,0.09447747091056688,0.07249855601750779,-0.06217101061417277,0.0018622186064327362,0.056015838901011,0.08169962102442985,-0.05702732181090595,-0.0682163838185364,-0.08289587950925165,-0.05187802218328137,0.058072180871126894,-0.09050127207168908,-0.03269119828668143,0.053584074388176806,0.09407339796156755,-0.08904174102991834,-0.010383905872039884,0.009406524745068826,0.03278738790029065,0.005236971112498989,-0.026341353780062346,0.0926804173134109,0.052348862360777876,0.025074057030359226,-0.09958749476210489,-0.020549701726186018,0.017138558820534583,0.033025336701018926,-0.022153651564478932,0.006195120051417785,-0.08237396788217488,-0.08001542057282836,-0.09567805945754995,0.01322331797425999,-0.0104740933635242,0.05304586903815184,-0.08928516980214969,0.034956930245660434,0.056041708603538826,-0.08937792978290521,-0.06022155771818605,-0.05647324868307484,0.09207743761194467,-0.0009561375483934098,0.07443214596239942,-0.04636793507006048,0.08524269169155327,0.08565705888790773,-0.05325233876350308,0.06997366724215456,0.033676259390736346,0.0980309270676098,0.09460451386859839,0.09763150987628566,0.08956521255414931,0.09768076405294743,0.01298787883093347,-0.054658791361703464,-0.0693135059155369,-0.03920872081452842,-0.07580017874584224,-0.056450859521929145,-0.020494321430274104,0.038458417386479926,-0.09796241829581938,-0.0753805911609603,0.06836693608848568,0.011768929878660808,-0.040936580162809655,-0.051464229610063986,-0.026187051167748998,-0.02863537298306014,0.013126923106777849,0.01007736325969244,-0.051002190418663496,0.09403784524942438,-0.07377113795754886,-0.09860652648963804,-0.04760222313854017,0.07889477803014133,0.003641420990114025,0.09241706545751777,-0.026772367028134833,-0.08201186065002225,0.0175556081311965,0.02904469617080596,-0.07069191109849689,-0.015454845195346609,0.07585397756616946,0.057123912923910586,-0.037612379085989446,0.05428179575114658,-0.08273530252568412,0.033787044176527004,-0.0552305551445057,0.044460330606233,-0.03960464284757586,-0.05183265605849155,0.07382980022963806,-0.08202657388195718,-0.00871348268008329,-0.07350176110592549,0.08316164780696211,0.03806569901811449,0.07958453519338105,-0.054585914591716536,0.04403794499908947,-0.0037109643573572104,-0.04170283214182971,-0.05776812898688373,0.040252338338435806,0.062203893633322266,-0.08744077113203674,-0.07248387908497314,-0.07178765042694837,0.04836320196229085,0.0839990503714867,0.07982479292544373,-0.02496105582292532,0.008328011957762074,0.032732767590255396,-0.07387335592723897,-0.0959936706904623,0.024691197113438146,0.049153639613562006,-0.03271377169499215,0.03807502554519901,0.08061108901561781,0.021498019931780715,-0.016887260262942266,0.018521493443099474,-0.007754243332999927,0.09516462719908314,-0.015739733070916584,-0.012377665823045933,-0.08227021295507458,0.07277508335635352,0.0579568964312773,0.08602272536533986,-0.019061709570766222,0.016059173769825616,-0.009369417779541589,-0.09535815206207426,0.022732824936859908,0.09527271399799181,0.09769614384103689,-0.06438858359419047,0.09319070572179097,-0.09189558164730822,-0.032591652504871935,-0.046453886480542605,-0.09771124159730148,0.09036314079742899,0.05859757183389738,-0.018489822837459174,0.07904994000361926,0.05772474577061659,-0.013681629615803395,0.05925440303666721,0.05079610240505686,-0.055373901695134765,0.09375135647555141,0.008564976486596904,0.0694844925652627,-0.021808468591934596,0.030597558056711632,-0.043647255402017776,0.05286040701160627,-0.06244118619464481,0.017614967479622406,-0.04811731401158706,0.01382369179326011,0.05223535594975212,-0.039328988651269596,0.08329875274939383,0.01578647803369357,-0.009605912981258541,-0.01502096734897318,-0.05673545136839129,-0.010598912031511379,0.08459810360576611,0.018022713336876994,-0.011702300157857823,0.08476544052264215,-0.04093028256528859,0.005630905565177827,0.08074336816478456,0.00015780239380949745,-0.0657367039661589,-0.029006620305709593,0.03593817095031121,-0.09454682832881199,0.015473592650826679,-0.01393945859636922,0.008273258304091799,-0.021152929917869365,0.02767274314994514,0.06456534825081256,0.03725339834506544,0.018149584432535587,0.05739496013663367,-0.0415962510013193,-0.0679028295942063,-0.07475308564655254,0.023353535263822667,0.04060496481633591,-0.02200317360547452,-0.06874636507218708,0.02654733993200903,-0.06737168783175125,0.030355251914973236,-0.05384410022253383,0.017187299570253695,-0.06257574959475898,-0.04238890261625934,-0.017916064527718323,-0.058895693815125764,-0.0059968492459215456,-0.005591967818891999,0.06154764756444528,-0.07863711875658715,-0.0819905665627056,-0.02312089095009824,-0.017747014184157806,-0.0725550235772131,0.07815507318271134,-0.07911546774487582,0.08023170467345819,-0.0386938176384855,0.04533727396904877,-0.07373607292780902,0.06648154053408617,-0.0971383374372814,-0.0452440146197223,-0.01903737784900103,0.03290290144145608,-0.024592307891601523,-0.08019105890134459,-0.0343366265722783,0.06093882535677267,0.0015581430090350762,0.06937087526892582,-0.046940266626668885,0.01817043332397876,-0.012799692728088383,-0.010854175702434701,0.03263826504762249,-0.08663547571449226,0.012345228680571904,0.055239980935513716,-0.009101010856576414,0.021987087542616607,-0.050981557756129094,0.06663893315314656,0.03242110046299512,0.018444119772606668,-0.024661765885402948,-0.07753319267138198,0.0011051691678629905,0.0130800662653386,0.08952130875736247,-0.06632944735044524,0.021668554474734675,-0.00011398311828456076,-0.00853870402502957,0.09952368277430049,-0.06978859293894038,-0.07144462243224386,0.07589083532931765,0.04647718704181261,0.028481527762618863,0.00813297857662447,0.08773383435585821,-0.001020464490653225
0.2659406415256362,0.2591576877235898,0.1168824173581764,0.3356100772356827,0.3318340446233157,0.27670012981315634,-0.1674996654054741,0.1202677289895276,-0.06357633404469316,0.04391621282975385
-0.1883225536891756,0.24308597757154604,-0.008199693741436821,-0.1754453128776471,-0.17223332169590477,0.046534832856107114,-0.26178456857234406,0.3846409170739449,-0.2205453358731024,0.30753519049993167
