-0.08496797279104097,-0.022378683972125626,-0.048125927798558565,0.008743444233078324,-0.06069341524463903,0.005570702396129779,-0.03164619558150168,-0.011703954017735899,-0.008533679383284962,-0.023995526582667237
0.028606876116363297,-0.020700357629316823,-0.002219390787214226,0.04647372943137795,0.05840992728887398,-0.015101094732217643,-0.012824512836061591,0.02489626583087956,-0.07376787709981067,-0.08552411208806343
-0.01173916035292423,0.02531055279169539,0.07107778783654786,0.014460188495708307,0.04099257481852822,0.07948068851751935,0.041535288845438445,-0.08273273587344232,0.030822421837810435,-0.07071454668596941
0.07018626353799406,-0.06908786378257545,0.05573966150563173,0.08543802915123011,-0.029987941582116456,-0.048025829477274885,0.05486754973808283,-0.0025846384392335386,-0.06802806845559789,-0.07171888263423401
-0.0352660119087895,0.03404340517656336,-0.06959441626271884,0.06442365896893465,0.04069145125648155,0.05745917798789241,0.018038677770064973,0.059729569296926854,-0.01137073253142655,-0.012714805448452451
0.03056487910347122,0.08261338780210403,-0.022842485936866358,0.007044151421858408,-0.023047605794818224,-0.01735604582428389,0.04903141616836584,0.02677734684092091,0.01625751681084045,-0.000626960511862687
0.079252585416759,-0.026245382311190946,0.05421587536650921,-0.04192946794617837,-0.015693153665361656,0.03137795305159641,0.0594375675905483,0.032191695247706195,-0.0313766250297789,0.007592716157016427
0.07451947820065455,-0.004729889329560602,-0.0030501116350349494,-0.04431556673508031,-0.0828780591649538,-0.050640617618404035,-0.045488286161728904,-0.053107953569902465,-0.05232981471727115,-0.0636510244290348
0.0013019500649085886,-0.01394825256606766,-0.02286493245404811,0.06652934302173139,-0.05295667774160962,0.07741512508784637,-0.001230435858368642,0.07763550582517192,0.06522900798352435,0.06152014941767964
4.374546525542922e-05,-0.06741329399924816,0.05835144718669008,-0.01925329199857219,0.08359648491786639,-0.053742093061640635,-0.08093905239432024,0.06072915590976369,0.009254741588197987,0.07155933638150258
-0.006164277362995366,0.08151833815000878,0.05760535029105787,-0.05772616738516509,0.04246884509491736,-0.04090231131242728,0.07364576296262876,0.020243190192640287,-0.08415740112004934,-0.05925682389291316
0.042688958285030276,0.07306884054307297,-0.06182795102236559,0.05237882816501821,-0.08338304292322701,0.012148762545768785,0.06211228191693938,-0.017100386974351525,0.07178420013451106,0.0695931517430016
0.02653227651310358,-0.05285779549747742,0.043944647604274134,-0.08345870819615361,-0.04657681232951081,-0.06482055047159986,0.008251141113877578,0.08106438560809631,-0.047723224442088284,-0.028577836781555684
-0.025550694201482566,0.06872810610570201,0.048253961355560454,-0.0016191836435440476,0.07045812670210475,-0.029748321286216857,-0.027964563167419916,-0.05545930565487244,-0.0013285819460065462,0.0638215257076272
-0.003359374813452609,-0.03335129549187433,-0.023878799157705202,-0.03596214871523071,0.00448579595529458,0.02072078978104608,0.02924990748361793,-0.018121276979208734,-0.07533525801517763,0.0859649039074126
0.018130577775385126,-0.012112943847717009,-0.032739950685942674,0.03251329671534953,-0.022448590113716554,0.04354371149969122,-0.07440630448440608,0.07702316126808195,0.06197394044841928,0.0790493967807962
-0.05230331807477265,-0.04897446541282851,-0.0041263829673887364,-0.010755615488295123,-0.04580544481636025,-0.020396426963384576,0.06890596101108917,0.06208884679568638,0.0508290004026081,0.07035573371115139
-0.08604481029035091,0.08640882419899037,0.07709714650658,0.050452687331155543,0.05204372117433856,0.0495058592431645,-0.05406456613627128,0.015036421036225253,-0.061074973316262354,0.08654694151856593
-0.06985401769009075,-0.01082004878783209,0.03833767309464925,0.016332961204125335,-0.050105712704888485,0.025918502138244412,-0.004434000118743439,0.0325864498004112,0.0553771705024122,-0.02594120804126772
-0.06753379460547064,0.07446076711391633,0.05258008538088721,0.01932595555768775,0.042932142505687554,-0.028627328408193216,0.06961350690963689,0.0841665164188696,-0.0323417202990862,-0.05041445675090318
0.06000197451518757,0.03209814808669299,-0.04099513866384322,0.08320886397360955,0.06690389804921776,0.056818892377981156,-0.03531393546287469,-0.013015606103417884,0.025355365318589368,-0.01966135799573039
0.015908002828326426,-0.005021260246738893,0.042904121601508444,0.038532188053640476,-0.013468973601365924,0.05243118759806742,-0.019184613713005588,0.032045722340587,0.06962928355735287,-0.08225372727511007
0.05682753322778514,-0.013537329678779048,0.05456095219086324,-0.03161479774432089,0.0013785848007333429,-0.07858207934324875,0.031164321585252244,0.013326217648197483,-0.05400289498382906,-0.0516742796563324
-0.06303884120647596,-0.007259050920889215,0.021365553950108238,0.08078947735532518,-0.022429815839834402,0.08591600669477259,-0.06860815104270135,-0.08312944895095409,0.04811701514837266,-0.03192462299872723
0.02791961330899269,0.03267391981398228,-0.06520098401499665,-0.06227567225865928,-0.08084894256939194,0.06606362383588993,-0.04231956922840367,-0.07914122359996598,0.0032177601062993305,-0.07226038784016209
0.007287996383911102,-0.008791474313969122,-0.04563320786534744,0.08030805782103545,-0.013281017277813945,-0.07372516008469077,0.08119096744034643,-0.007710868949287311,-0.0346417552103892,-0.023813449071337173
-0.08521408904991554,-0.06379033496074524,-0.013156222927691252,-0.035125768141144494,0.025470731683999714,-0.016266104004548324,0.004767567426814015,0.012686203212434619,0.0752924947964326,0.04961477925887131
0.07826303524965875,0.06424210916961098,-0.01571943980995906,-0.03779190576041208,-0.038256602374213765,-0.05064829293181044,-0.08647520470039302,0.01774809258295036,0.06340170843391066,0.012739317673501435
0.04725513933498923,0.03617140145355527,-0.04250197756146321,0.04160740946775068,-0.06282467491750472,0.029873761629446105,0.039070022775991003,-0.03331793319133332,0.04221940676099126,0.021628135823078
-0.0073104011747748415,-0.016816315923495556,0.06461482367805149,0.05077745671718642,-0.004870885846409503,0.013712018908640045,-0.03401990189932716,-0.06439444169564652,-0.051116277662566406,-0.014745419293902884
-0.08010174911123963,-0.07332965856877875,-0.0730431835634596,0.05036950280886135,-0.06494278867884923,-0.03327161040462644,0.07285309168628185,0.084591582122513,0.023265400710896486,0.025027112163285167
0.009262068319232458,-0.037246928348855055,-0.08052234357697052,0.06064150045862657,0.07161198919228629,-0.031559906843448476,-0.08333530064281043,0.025453300034751478,0.0641433530263284,-0.061093748811877735
-0.006190128947001092,-0.07447061999728309,0.026815999750946146,-0.021317013534379578,-0.055766770161642304,0.030837997641640455,-0.005694017317622771,-0.04898087607536127,-0.04336398260040482,0.0660365674119058
0.003605491681108172,0.0010655528669482744,0.02121319461258056,0.05536814212006394,-0.08422545389999404,-0.028311542741720437,0.07588109222269812,-0.05670511474012224,-0.06268972234798763,-0.05263367374289666
0.0698688444603184,-0.0626951405911295,-0.060081054699436844,-0.04381626253252563,-0.04601794349864812,0.026521251644083806,-0.07098047619712497,-0.03576850944046681,-0.01572757460269131,0.049733663245222055
0.041577271725893816,0.04849358268586853,-0.043285949570166266,0.0749349049425051,-0.010200245683858475,0.08026751795205038,0.04470949337559966,-0.07859894342774841,0.0790487081555831,-0.03877732755292262
0.005340553574336034,0.07824087339691169,0.05063828639566253,-0.06385990805354018,-0.07330789705341838,-0.04609197570622472,0.0774075475705344,-0.05136310124138681,-0.022895584164793453,-0.051179698580027584
-0.03962448067472437,0.0012532516160309057,0.011306770215217919,-0.017968639713390473,0.018015228453083003,-0.014234022910814128,0.04751081338904386,0.06637446881954248,0.01714331970392907,-0.026248491383031623
0.05136939990246,-0.03781289312626099,0.056430391392261255,-0.0134755300447446,0.007459990699573377,0.0869443947286752,-0.08283752227776996,-0.056006081720007206,-0.06370615020798343,0.07551065046780968
0.05265491129767455,-0.07322112317376256,0.08774283244057744,-0.014627508022558666,0.05743893668010076,0.04627233039195739,-0.0818383946847212,-0.03697816994441082,-0.03839437764199375,0.027120797047150435
0.07131691034198066,0.05753884923321074,-0.07798262906905731,-0.056872909410919326,0.0567773184997151,-0.040218840408960205,-0.038328404201177495,-0.05632515840256743,0.05073983799980634,0.047827333090105104
0.06559432641843252,-0.07048801097582122,0.03527555001722683,0.025146795868294453,0.051235679529841975,-0.04940072966989742,-0.03545278073351775,-0.07676703199325766,0.08378418271042075,-0.030844184362776726
-0.06746686801249202,0.013308996398675643,-0.05260404605975402,-0.007388634395081938,0.01679031276563091,-0.008580866917285832,-0.07882682935597127,-0.07782295961682724,0.010646893617416386,-0.02357195385742364
-0.004363396308933548,-0.04428327347752913,-0.028350086507521795,-0.02190628625286138,-0.061257531801947845,0.034708778170971386,0.007899677819824336,-0.012925080860840571,-0.07931787079495994,-0.009724923031860755
-0.07060581630886043,0.04643333632970865,-0.01562585685862992,-0.050410903478582944,0.08630668291489924,-0.01713921261003592,0.0780548127501561,0.08546368084178241,-0.04102282037038566,-0.0569193103417025
0.03306787870559977,0.06745818452238378,0.0834505157006467,-0.037237864627691526,0.07551512888319753,0.011559181720351157,0.04759880434877936,-0.05307525345969932,-0.03661105565619859,-0.008966820247172887
0.0806798702062851,-0.0804526527218358,0.05565789277872912,0.06605042041410475,0.04186589436489483,-0.0025435213650975546,0.009165700083093605,0.003140318271295875,-0.050762119651956136,0.07918631304342244
-0.0836525508818682,-0.03656310355923559,0.030758254952472367,-0.020081854465200014,-0.08076215193618946,0.033234390675470814,0.009912870064639605,0.06323144478894135,-0.048153161801348654,-0.048225020927443525
0.05051744055682093,0.042836667448948436,0.08192771071778152,0.0772940063984471,-0.0492287518025559,0.051205092379858486,-0.08512180387080448,0.07092399879088195,0.07069672469198877,0.03708671618252178
-0.08633858110313292,-0.019740098761270787,0.020885476683578024,0.06688468140655635,0.06180276972273132,0.0325448444465484,-0.0702091491798803,-0.030565030864133036,-0.019419868591022276,0.025760282330761275
-0.06936683367009333,0.07297176865630009,0.019048106555669672,0.03284972517238485,-0.026566486712184527,-0.01656630949834835,-0.05363564576507889,0.07526543364128221,-0.0638245939812971,0.04164421465492896
0.04925975213780573,-0.02367701879263015,0.04298598947555837,-0.014747213724477376,0.0180953657524459,0.0809937251772396,0.0020125799485511686,0.01993114352479365,-0.021825390857107302,0.07367326490899545
0.03458741633288871,-0.007468487570458565,0.021494826960436544,-0.07617598902004241,0.013107644746825298,0.08275152359280155,-0.014516304166111701,-0.0534963158542402,-0.008816124210531393,0.05004073306084453
-0.06047308710227767,0.06353266740257013,-0.002128424918234756,0.025141311605312244,-0.046640626437743124,-0.033426175405096355,-0.023828831837627087,0.023719077303644878,-0.039044308666544056,0.06594404232880632
-0.03750564024141867,0.012277119238775808,0.07959916666813718,0.06822157076817165,-0.04077755208797853,0.001031356941343875,0.044951218255938175,-0.07487692749710073,0.016766260593783944,-0.07907585844737802
0.045167166465334585,0.06364471824056928,0.05716782464841036,0.0819964355435854,0.08536278667672323,-0.05345178610493382,0.022359312192256273,0.06169042461205532,0.06557974664018168,-0.03230063699688963
-0.01562351693473038,0.05554000221075023,-0.07360879289977582,-0.043998347843411,0.03058256286958691,0.03637486580053202,-0.04347163446640073,-0.0721208178844383,0.08622041272179279,0.0678703756744822
-0.07335160053071621,-0.06958968145092001,-0.023774378287578085,0.006773601591150882,-0.06942672521984118,-0.032682459973351015,0.033564145978634524,0.012397442041620785,0.01040698356708604,0.07440460317836461
-0.04125324967218301,-0.033304426660287524,-0.021224369261772555,0.05363137478593297,-0.04123739495088201,-0.04273372108479015,-0.03108911673573063,0.008143203197604199,0.04995568676957135,0.06136385694135377
-0.08438015993546562,0.015982805316720413,0.0558677533948037,0.049375448626865416,0.054983083580828464,-0.0083371754752816,-0.08545525914166922,0.08348239701839716,0.07360510301907713,-0.0384914751532902
-0.01758945504310372,-0.07326134818364188,0.006361021035945641,0.03267490161299801,-0.051528725041302265,-0.061941371719153614,-0.0010730308319132477,-0.08657121697580408,0.048377248542323566,0.03817390792017986
0.019527527421152935,0.005633811705953396,0.03062653782179496,0.03387314745398985,0.055459545311366244,0.0753037888917749,0.01932775963250501,-0.05769401642879073,0.08279817040294442,0.019398806532428706
-0.004246576691719321,-0.0022606980799965036,0.014715913024878648,0.03461144890024083,-0.006570357706583477,0.006000135597818293,-0.06097906740587855,-0.0576290531053618,-0.02343951750479901,-0.004503491094779142
0.01853077326874129,0.021720095264809544,-0.03743850514410034,-0.049502696186112645,-0.029601140473581002,-0.012848375917138477,0.017764470599081407,0.0647650186611941,0.03863551449176148,0.07546810509763392
0.04505461382956397,-0.06304998826405989,0.037599134450404505,-0.02682370348529118,-0.08511250722946656,0.013873404093420296,-0.059545795129459775,-0.06232118613277483,0.04649012874992316,0.06340710845665656
0.026499084140369455,0.004919478563028836,-0.021653890724507664,0.019586593301091075,-0.034624146772157686,0.0393213077400304,-0.016704232941899964,-0.061189201455169456,0.026233294633055376,0.07049901836063291
0.04495532973648337,0.025095949739969953,0.022564585799567532,0.014854583548972934,-0.06304328730623307,-0.01232604549985228,-0.04784820028867115,0.0007416254943033952,-0.06743472516546992,-0.08480256754077481
0.00014742075878089068,0.007770053142822411,0.0210164541676355,0.051210584158093396,-0.08478554021113816,0.11264927522178413,-0.0646158909392114,0.028932406937256298,0.0781395254346207,0.04983297086685507
-0.06675252933988256,-0.06947099839412277,0.046614378274518406,-0.05623257216199768,0.010928694974746389,0.07629864295719885,-0.012578987861937526,-0.0020000676755235988,-0.06859158612366337,-0.08134809844215242
-0.037815153017200405,0.004533220400343786,0.0793581283543864,-0.05624206457103614,-0.00686722736828306,-0.00019593082186216795,0.08076324125672278,-0.05507540791253955,0.03661378961108932,-0.02510644972897539
-0.0627318225767439,-0.03498065678326936,0.015032102446546607,0.020484668802087613,-0.064126609969168,0.07557580038938032,0.0566455752893164,-0.06263812323664461,-0.051735649097367734,0.04905549012021259
0.052643900960361374,0.028464805296178626,0.010111578460143312,-0.07865887723387954,0.040617956072646046,0.0791743897592043,0.051616796095390445,-0.05489883931744633,0.09552654774454786,-0.06458696833556378
0.11044785845188163,-0.08130024752983156,0.05568031275889928,0.08812270189341341,0.03610332489734829,0.02786787398485961,0.08148487863830524,-0.09161909971066111,0.005578808934966421,0.03170646407564985
0.02915783662650081,-0.07311055864034337,0.05388838753264762,-0.04726841198235746,0.011824544391122198,0.11507775510790838,-0.07967444580911667,-0.023364792153900353,-0.008673108506945937,0.006232674756934703
0.06780987536798322,-0.07753802597672305,0.08671567850313032,-0.033850894538365775,0.05010441534115633,-0.00464077883109321,-0.009287893318348624,0.059216208995527916,0.01343031923925784,-0.013534544004075022
-0.011857935324854298,-0.07481084911129253,0.07776862072208866,-0.004435397121932985,0.008832085125305332,0.09855066885444835,-0.08391477353594343,-0.02664541011412569,0.09271676812242445,0.048562026225469984
0.11810242052028229,0.02980976268105471,0.04705391921687449,0.05993007696881084,0.07279128878570339,0.0446275254847222,-0.040808119862376896,0.010849264980093481,0.02623685291062743,-0.0201807342526124
0.06402148077480334,-0.09033292889928436,-0.03683495170486525,0.07627110813445506,-0.035460801928096336,-0.020241164228036616,0.06072997125262145,0.047337437564009176,0.07132158433692724,0.06125116679797509
-0.021507962580770885,0.02389225749013338,-0.03729008394145789,-0.0832340205386333,0.0774809741012549,0.06892120381283216,0.037469377129274624,-0.07355622835249118,0.0795588967471039,-0.07299422689399265
0.0466790904321492,-0.08308011605801005,0.08693724395439692,0.0433104202192145,-0.08452285660197376,0.055841512021729565,-0.044964445056596115,0.03599170506267622,-0.040411861261684924,-0.014058403547385948
0.054570009578420564,0.04813282864728337,0.07474361846194565,0.061187745010387276,0.015335775581419365,0.009796921646927238,-0.028521666260015042,0.08793232385995545,0.08296635728719266,-0.04220235252621274
0.005146833996941763,0.013440336444523308,0.019078775145156202,0.04329776240781158,-0.030358967745457342,0.0464501959348348,0.02321392196446497,-0.06003810070118828,-0.015375698881851994,-0.010176031480285648
-0.06853186444233644,-0.03901266043781048,-0.006737620713314463,-0.00089967810133737,-0.010957338339141962,0.06928298366410235,-0.03068944188213555,0.006024889379124709,0.031511998189820575,-0.022051920089997235
-0.05795675194705996,0.017084451114808663,-0.07734855934945274,0.0406797613807586,-0.060195747157555005,-0.01109311152106636,0.058063063281403926,0.08154610129088849,-0.0713585185502264,0.009437022447217364
-0.01284845036870387,-0.048069665416892435,-0.050969985114705234,-0.006790629795245293,-0.08159530438361237,0.0738354093698654,0.07676997041759487,0.05854883742967065,0.04513666929556914,-0.05797881939533362
0.029078228771958328,0.04397285973634843,0.003139346852203642,0.055494094133086896,0.024515218162826674,0.03146967204521031,0.022612782327392847,-0.0674703285828101,0.0844724340578194,-0.028705532686685242
-0.012969325900286197,-0.029270977952441636,0.06634545443858011,0.06672820301805155,-0.040742683437240454,-0.01926806284991596,-0.04295278930918611,0.04828991354084003,-0.026045086798261202,0.06318422163713622
-0.01479594240138993,-0.028395266724720727,0.01008200549833975,-0.045370582172091556,-0.06611477433522801,0.011643720192441242,0.07262754124280218,0.07207899311461274,-0.049201955581598934,0.057111867429291314
-0.00032965849083206594,0.024035711225536188,-0.0414871335008225,0.08514518516922173,-0.07072842621716947,0.08559207348986145,0.030041223650745293,-0.059394024393724175,-0.05793429694060939,-0.08641523780314493
0.06522271477579143,0.025600687732124098,-0.05833310927569508,-0.03555332844406362,-0.0023799703215312087,-0.08050577577364842,-0.039640450088422326,-0.06696076790784185,-0.054899826912377166,0.04696065955513485
0.06182660188136935,-0.01010509898509794,0.0051471786706388,-0.059154450483806846,-0.021293901628877072,-0.061427874373784865,0.07612032359527193,-0.06804967801194019,0.0778700906751439,0.0032915251921651774
-0.07535125589443872,-0.03168952923798542,0.08095911081965146,0.03134752858947636,0.03914783108939062,0.014225430077529544,-0.07770566562306101,0.04326488172381865,-0.04442132650530724,-0.07753862221387511
0.07171226505292505,-0.021492074518215866,0.019644122646228154,-0.0022644193486140245,-0.06389594635515815,0.0033831562373873706,0.03187906363336483,0.06634955322338638,-0.03633383565589836,-0.06489125424330161
-0.0875525207093562,0.0545241523961056,-0.00044160583586989074,-0.09063658091512648,0.015676337408532446,0.05897174978109723,0.0036186249805928066,0.05545582536802758,-0.03135070648802988,-0.09834457354814334
-0.019637885161249067,0.032150775099431726,0.034101883423485684,0.046543757984074556,-0.06229935118588717,0.1017227161574237,-0.025586770817447983,0.025399037320693048,0.04529260903207368,0.06315879941480414
-0.029218901306353986,-0.010381205069125205,0.07231404470991462,-0.04008103244787576,-0.03908302361293007,0.10359941011150056,0.07299102815687677,0.025991026033096627,-0.025371135382099858,-0.017418197664579582
0.022603097619269517,-0.06435465568637111,0.052095545134535896,-0.05320831346773309,0.10700486985793421,0.02538429585219685,-0.06415648182002813,0.007809561214903571,-0.016337460683950398,0.020784990387667054
-0.007995577324052141,0.015347192496431196,0.0363347099477475,0.049800708309506295,0.018294306575634616,0.08462401446808787,0.07283887758595912,0.021529632716992948,-0.09274036918729649,0.024593971602580363
0.028712369394639056,-0.11869579111996569,0.025881812390279483,-0.06506397616889555,-0.043155298519357295,0.13519317229339284,-0.02168221127223314,0.01695206230272234,-0.02301347026167769,-0.020824154737688214
-0.00890281991424026,-0.07222903770765886,-0.015086193497135518,0.014158110372655852,0.07217317448458019,0.1834288607366423,-0.05675516986405494,0.09237287379615718,0.01864216396671386,-0.09854562243313837
0.039686295733343396,0.016368041504664033,0.07550876120891652,-0.010406462469093993,0.018438034776154376,0.18123104762788622,0.03990798040345117,0.10576510005381493,0.08788657389069039,-0.030331390467891618
0.017779749219111216,0.016167982651036857,-0.03725117899432021,0.07592311732213852,-0.030284955087428726,0.0744523236843872,-0.01967500989523368,0.08942359583842698,0.0005366293063002604,-0.024310362699507277
0.09388403340801747,0.0037181702569775528,0.015653848943423657,-0.009164545968157016,-0.03959911793250421,0.11946525366083424,-0.017407326740900352,-0.09046232809309396,0.080729725627362,-0.06515759741117311
0.02889529318241125,0.015015633662754598,0.09359677438552241,0.10353425556083318,-0.10174898175210981,0.0778491772919522,-0.07737008275734379,-0.0248093817564024,0.012852252496589212,-0.10731934964055409
0.059929057059179676,-0.06448834258225696,0.03481807376672642,0.016249877615131803,0.0008817269238669071,-0.018952491519356244,-0.06423589398113344,0.05378906523938963,0.02562195668437542,-0.02076231033953117
-0.03500608213257255,-0.05365113763775547,-0.019916747601835646,0.06766305705429183,0.08198716265817094,-0.03416324898874021,0.055676669530467106,-0.06707934151342598,0.06322722649123,-0.06826097449067137
0.003032502505512905,0.08424066342184088,-0.03678453125211057,0.07739735693832883,-0.07240322217430964,0.020521907017484277,-0.044324469668914936,0.030322703226422873,0.07578674559109384,-0.02397487120833244
-0.009823056054599792,-0.07915613840636244,-0.05042372725029302,-0.03287970976010392,-0.039291145606331616,-0.05323873220913812,0.009167895280486208,0.06958973830211712,-0.04061341838738938,-0.05544627698344223
-0.05604663627433895,0.059528502577721805,0.07780122939518626,0.07991637636822742,-0.07624617000525777,-0.07144201585762967,-0.03874125260508038,-0.009123682518897577,-0.02320685997759271,-0.09324999476954067
0.06106647004206883,0.04579418613623466,-0.03833015946088221,0.03739247826690904,0.05135453449986157,-0.029758248207695095,0.008525141352965816,-0.032789896610176616,0.06919603326845541,-0.05583125223111477
-0.06263648807894055,-0.03234026662166519,0.016823374494037428,0.07601768458686543,-0.02809618976417186,0.04890959832527104,-0.074446162831261,0.0868459362579602,-0.04026827851419177,-0.04531418612869877
0.07366341128837961,0.002023174808083103,-0.07204605112342263,-0.08305419120470185,-0.055853570122574345,0.007077370613137693,0.02326818995295034,-0.05194417960915367,0.04801727472228298,-0.07348418126297895
-0.044194214954504846,0.0008799705436585287,0.05058698513197343,0.06457299261374652,0.07630924904064271,0.060324155374684635,-0.04942279131538752,0.06049811379704992,-0.005533973482247392,0.06759339239025072
0.05344707731656103,0.021067983197523045,0.02769551604064049,0.07608496784521206,-0.02951066000950474,0.03340628893196514,0.0754454431945943,-0.057037561715330067,-0.08233434395817954,-0.04438674771916474
-0.08646243327904252,-0.001638178713228956,-0.060986509528145334,0.07037753182362881,-0.06700656860518645,0.03979506670140557,-0.03365604852558874,-0.04153032913852008,0.03345344765032312,0.0634771922633976
0.08096855321071258,0.0732550814536831,0.048702581360352194,0.040372770293940034,-0.042380756494836094,0.035214005834084336,-0.004435876365732349,0.007237842882306027,-0.08336894661768825,-0.01649418292034583
-0.030367686044246958,-0.022827655331654408,-0.05966200936879519,-0.059876636993502416,-0.04590802699905762,0.009230240061888205,0.03585689493842917,0.027325012964991072,-0.015853761334156564,-0.0697715894236995
0.0762235356278583,0.05881990454916731,0.03951983652966381,-0.048915193989668884,-0.011928877858197283,0.07098195116705998,0.02794845607628038,-0.06398968792219327,-0.04862215645260308,-0.03435729919954689
0.0772465538907586,-0.08530475362738756,-0.05748301470101577,0.030982438700068973,0.019304955823706192,0.06922016324667155,-0.009383365064900912,0.0938182025831185,-0.0010579345788372383,0.04990343390144532
0.03920063396005719,-0.03211719339205342,0.11188312092789929,-0.006539625910756775,-0.01584531471721809,-0.029747167902882996,-0.029260030617457956,0.1149797552023237,0.018530715006347377,-0.03483454808968909
-0.06424710964430554,-0.05733917606328626,0.04854239827471971,-0.11449429485263223,0.03647314643063213,0.07796074929595341,-0.008678660147406423,0.09364983477392728,0.013724208068833291,-0.0015371662942390936
0.02005552245940262,0.012912284158183525,0.13698637195174979,0.029002981798603483,-0.04836808140563806,0.08615343204918889,0.02510060235430482,0.06256732265904276,0.009873929922521412,0.02385341976123999
0.035414732014893674,-0.01767125507324259,0.05591923944626349,0.0018517733177467958,-0.02424372868714982,0.17057878402887436,-0.003949155486931656,0.07037048093368992,-0.07281059642079411,-0.06642943595359752
-0.04502469908310104,-0.11506980462412872,0.13883983935704933,-0.03727425800946401,0.06382031623304191,0.1603621116572012,0.023890804832186245,0.09747348701050866,-0.027023724253646724,-0.06323680525200669
-0.07065733939030448,-0.07444774530119883,0.05241047608479845,-0.062401695973328855,0.060810887559479304,0.03617409221271995,0.15406292654232898,0.19476143548895064,-0.026918306402224167,-0.08202012028257254
-0.08184649570044558,-0.1554587758212632,0.026168878602421286,-0.028053814917522516,0.10685354675444654,0.07551329960744742,0.0755722190473222,0.2208650031526761,-0.013259057138948939,-0.11286204707127219
-0.049101708989624133,-0.17283026615176164,0.030005994177700807,0.0023329389176524697,0.041155486459575126,-0.006262206553586389,0.08962303499555545,0.18625223544174394,-0.014899462052530607,-0.026627347036020047
-0.04391949266099464,-0.06426089587173459,0.07739358401585762,0.022144309907824174,0.08340559181460291,0.011050032402451884,0.12605390121900947,-0.02333686081633995,-0.018154572037431566,-0.040490392469837336
0.020189008929818893,-0.11605305023850641,0.04385713260021632,0.012729595263703425,0.07264547133999012,0.1055336823804229,0.04548207664246065,0.09546625788832223,0.02624939723494573,-0.05350664800521936
0.07020223322872289,-0.09727031395858803,0.08388705911393983,0.11554520636550425,0.1289521228691976,-0.0242711998914351,0.10792710957381219,-0.08489325416729604,0.029476020792669932,0.04287454243161975
0.03241068685352961,-0.05409195963464971,0.00016656571680020697,0.057822990829835476,0.07019930239630522,0.030621280772108028,0.0673472687173632,0.05430708159857475,-0.03578415105844865,-0.05225643256774045
0.11149339079613603,-0.07241439710482236,0.060558673304224056,0.1193083245646863,0.014160163511938249,0.043386303744551186,-0.04159378118702346,0.009289412643913385,0.037862652073898946,-0.11018109425848266
0.08672889192505752,0.018095202128037554,0.013337197091325683,0.04497687879161538,-0.05927997703157487,0.029929171135974,-0.03864180402734027,-0.10560724399078751,0.11314464510215257,-0.03738420296055713
-0.009850741078377818,0.033514401038154985,0.03414973771422242,0.13717947064152616,0.018855474230835348,0.11744445928582581,-0.04827878976850257,-0.03545013360933319,0.0002974292605521378,-0.0882338444864895
0.02236469858653149,-0.029001354025759575,0.03387974771038547,0.05382053637508729,-0.08056091776848713,-0.00124964396794743,0.005574572100198098,-0.12401650597934437,0.1198448101454282,-0.005829179749688153
0.01567409513556756,-0.05271892891550498,0.06817859214265785,0.018510239822974638,-0.019220423721765086,0.02007261597727965,-0.02526961268292639,-0.004691196729145454,0.037539513150380566,0.025990191771762827
0.023599277572870354,0.0179111640905926,0.05085647724227756,-0.026041583485697968,0.08469309410462648,-0.04790695287787012,0.026040638873051695,0.015645220462696584,-0.04648940285683775,0.005827959611675247
0.03414283597227309,0.024739533526530615,-0.03220262630747132,-0.07174852099794019,-0.07459962855108364,-0.05909332205679506,0.04944416167341657,0.004382904978603096,0.033523878119292125,0.0003222969567122074
0.06540037466333229,-0.06637914166787072,0.025504799417670615,-0.05453322571706266,-0.06819913566075289,0.015232787054642394,0.06294319274965159,0.041039791557456906,-0.008942341809870014,0.07542881956046357
-0.07820649409778084,0.0793974577668662,0.07594716582663338,0.07661423501790784,-0.007546487473131515,-0.07619075983134778,0.005142211186243357,0.07979422817378563,-0.030794526498063576,-0.06433135741865656
-0.07147946523131754,0.06661114924410405,-0.010800917925604656,-0.07545822811223506,-0.04323068168440925,0.010624373632938472,0.028916636207360485,-0.03954536715975524,-0.05050602750308075,0.0842198281485273
-0.06139225682984117,0.050315593114230645,-0.056259771442969286,-0.06335266514865423,0.016099969326431512,-0.07632398442415576,-0.035433956237036844,0.049241895905504596,0.0861777273833883,-0.027867996190208494
0.009476321657041159,0.06441167254116652,-0.06392599745301789,0.07359596235707243,-0.059902388324157944,-0.016186443717965196,0.023023871500953502,-0.008684659757025556,-0.0177584611160879,0.06022396493451858
-0.006517024929813951,-0.07306376136012731,0.0790927986598414,0.02075744095428942,0.018581277971328823,-0.009725725874045356,-0.05096791636115633,-0.05140815843973632,-0.060639088208757214,-0.050321687521272855
0.04417030478080642,0.08098991466026545,0.078163567987739,-0.05181908549135409,0.06856870476573365,-0.08975469368733067,-0.08653076941820873,0.06561324863034304,0.0326357037757728,0.04336545323446719
0.05499020070038443,-0.006543392694656344,-0.012359643830868417,-0.005106620876747005,0.05135819886729205,0.07541155799673398,-0.01679272497727386,0.04056566348555724,-0.07116237951545445,-0.07740965104113488
0.09764365816656712,-0.05039198619681388,-0.0327583015690177,0.0028565810119142664,0.10860857836580967,0.05017034662478685,-0.04312270359092733,0.00879810140306312,-0.09897095324020762,0.012171599817498987
0.051645556961163554,0.059227603092237305,0.09827576536291688,0.0461261547830057,0.06073204056492862,-0.008398867601735433,0.026489929946358962,0.09636067335199462,0.004780168288379758,-0.035158738890667666
0.1312971867147253,0.02912478859458274,0.06025818353101275,0.02782102786308198,-0.012703919656117314,0.09648201442898754,0.006014402895531447,-0.007654419681678594,-0.09450401835821412,0.05810152438145181
-0.05320480486928526,0.013913678987936983,0.13449802758387172,-0.00033371641141187924,0.05533074089940428,0.11703495615652279,-0.08279178337453678,0.15616140981127907,-0.04404089681987594,-0.018938985686398856
0.06262841302378691,-0.056456286271616266,0.1871682864564754,0.023962251005374687,0.08674559587285147,0.0001456634392521925,0.011227305433377584,0.04050063049650927,-0.0262346513671082,-0.04806479389527054
-0.01904285133598342,-0.06663963832293125,0.05680729788533389,0.02571391266375431,0.07712060097324709,-0.09101687682772085,0.06582130900045795,0.11849468532097028,-0.005537033851094857,0.09294815262270212
0.04799658260491715,-0.03732568437916729,0.11568400860461206,-0.11983501195321422,0.06377772600315956,0.013990037707991239,0.06119258398605111,0.029500632863671668,0.04907790741970938,0.07695963311350026
-0.1291529247960601,0.028740618647878566,0.15806325088687992,0.0012128439416763575,0.002038521473004168,0.006019503368981013,0.1061448742850969,0.09865236153371637,-0.03804644782233465,-0.004483042928490531
-0.1057521323492791,-0.04692451765912669,0.25736435020364307,0.014205503833368837,0.09743301703260761,-0.04486921123522255,0.27342180224062457,-0.021774544758831484,-0.003981363990393093,0.0037673684404724043
-0.03426449056992882,-0.055560090590595926,0.20942353624420504,-0.08020185122001244,0.14574755401263456,-0.09060841491273734,0.22268534157802825,0.1172245790110553,0.07393994274998221,-0.05184368806575851
-0.07293855412326096,-0.10120448195272803,0.19629524225377867,0.05787629875233243,0.05805302800176065,-0.021926227337289158,0.15697933243074688,-0.015143744915296855,-0.0602778418078071,0.03071357466275032
-0.0048483043814217495,-0.03348184768325617,0.22028999974390248,0.09891373713276246,0.06905267509403416,-0.06345209727309412,0.04259475698980329,-0.002257032445757967,-0.023437192739428157,0.057134166026271783
0.08266761467494434,-0.027705385668169585,0.1753570343719778,0.15612309881254616,0.07456724082285948,-0.02717020351891164,0.07128654292835279,-0.02879876199110282,0.010123233705359589,-0.05021443688174131
0.026571203249129677,0.05262431181191419,0.11003401393448853,-0.0016829121941968439,-0.030148840335801026,0.016752926388660553,0.1258513859612031,-0.11718657896717767,-0.06268684010756315,-0.08764951370377302
-0.01724353020338457,-0.07660416210146685,0.06596706486254814,0.09159859759569275,0.011285214417119726,0.06251717232005995,0.14108544291932246,-0.03139805288784815,0.05364308103756624,-0.02231092266420946
0.09151497273098748,0.0065540029960951636,0.0952403702446841,0.21965914340240117,0.04212490751704367,0.060090125432381174,0.06373076535840282,-0.13789842727456364,0.05284731450481623,-0.06828482813604111
0.00926649522128232,0.008915963124522865,-0.02923434917054721,0.16717109434887853,0.07304267171889786,-0.017996913686913536,0.034424569783948235,-0.125145648154052,0.02601189515526047,-0.017679144580808506
-0.022868759837340498,0.052254826491697014,0.08900519360682448,0.06012861724596692,-0.05882967601476152,-0.005606669672566872,0.005329332663038935,-0.00010847230245863995,0.06918045058287016,-0.082295510375616
0.0517539222416931,0.07199909973454431,-0.05041068581385691,0.07724959957217695,-0.01912198847487979,-0.054608964490916165,-0.07630986771809505,0.037489946277178374,-0.043755203991786625,-0.09677725956260007
0.07212789419743941,0.025542291895684268,-0.02157023501353858,0.02318806810564886,0.07643880301386166,-0.0984875278598669,-0.08852570681764196,0.07232103578423714,0.08071583033902535,-0.008017224667753153
0.07725918178044514,0.0476845206627525,-0.04627240486550549,-0.03513215220195046,-0.0027676585657852248,-0.08261798497660748,0.0598164454986189,0.005879037647484412,0.07102239922662298,-0.07386792798896502
-0.05428055368047086,-0.07174477765622624,0.01647262921435,-0.006403228283969636,-0.003182083063639346,0.05237309637894691,-0.005366122124359107,-0.04061636258297076,-0.005370704659842379,-0.0016660753576476228
0.028591066611972,-0.08493663079486949,0.011838009938336252,-0.04778666937345209,-0.02384276234678051,0.05948471904652222,-0.06599937008439236,-0.001963615861229978,0.08334453561001787,0.034324431873209965
0.06448340633349911,0.004884594549729157,0.07655666097542319,0.07086095137087503,0.04333643550433208,-0.03372192436339195,0.05478169133787039,0.038940965659886695,-0.056793073563978544,-0.055931863026648945
0.040101497753655686,-0.011520260974490902,0.00820334345851944,0.0299760544069009,-0.020507886600923775,-0.07331095027636042,0.05956115232634853,-0.004604161316357102,0.05848946076054899,-0.04344624895931751
-0.01684642532083698,-0.05853009212899627,0.06879347036220083,-0.029444299945807023,-0.05785043678481607,-0.057589487329440574,-0.01939016512082744,0.07339028797611079,-0.07177915901616236,0.07586735129667821
0.043094058514742815,0.011338754965085629,0.03906353809642704,-0.10554581034919559,0.05928863098996611,-0.041593101779254245,0.03203583802008866,0.06717101634166849,-0.04939892054957663,-0.0053889596638408924
0.05790016774834673,-0.03601736364064723,-0.06890156930313428,-0.07814959406137895,-0.045025131898286865,-0.0201759624357252,0.03154465653805535,0.05522656217378839,-0.06802677981277581,-0.03530730307202113
0.08314378784411643,0.0388585401875427,0.050157617417690786,-0.08030404718731189,-0.028965218120785004,0.053033652877954515,-0.027907462584385773,0.01634335408247854,-0.12177075083528413,0.0319066137800601
-0.03948012806043909,-0.061551076050440114,0.1583460921571926,-0.01499384598925599,0.0222172808633667,0.030847860862807722,-0.0713280298813782,0.05111851312328882,-0.0998259998298595,0.06399983564317367
0.1324389593462079,-0.12325808230562314,0.160611976364872,-0.01892759408460299,0.003100907832735432,-0.03035927372438656,-0.018962683673141523,-0.002100678022710236,-0.013310468297632544,-0.06631276372848045
0.07643007570256934,-0.09365756234559709,0.07418716157578478,0.02307484661170109,-0.0423412225231099,0.019217603089494023,-0.028310119641519894,0.06565145784746171,-0.11596589350140285,0.10335059980451984
-0.031080302610696376,-0.08464944613342684,0.09686590005702903,0.027678781187631164,0.06315890625261451,0.07891354108668647,0.07824392351717639,0.17505220410688382,-0.05827488372355437,0.17678941910143137
-0.09783927574952338,-0.07780489968512497,-0.008335545571931927,0.07579351978258077,-0.03585921723623389,0.00034336775253711424,0.020933788533259147,0.0873946671062359,0.0210777178022758,0.16003454499875777
0.017235826864114217,-0.09136566418059218,0.08307602755863448,-0.03590730842275627,-0.05132803744732171,-0.008959576224255774,-0.016596972529202832,0.193593417065787,0.024002861401016446,0.14968225557246265
-0.08778543146200951,0.05444527623643103,-0.006893370731001142,-0.1433174406145482,0.0881444749139063,-0.06742231500219989,0.016891239056252512,0.16042226459586317,0.11502155205354861,0.08214973567890554
-0.13586798208323475,-0.06710128655081751,-0.027112474214074242,-0.03301488137882235,0.12499830098983304,0.0003560935365283152,0.060446168289983365,0.12131693319285884,0.13267083954079006,0.10341614294274408
-0.06088320107021106,-0.06428243888929874,0.04987205301609919,-0.09180920123420028,-0.002846435375752227,0.04339620531991992,-0.027427792850983835,0.15211535313192104,0.1278072319386,0.11687532683588339
-0.08845434418348294,-0.04610779737532127,0.0960955537558219,-0.13475681765720693,0.07253558844600337,-0.10326105042582423,0.04149950346105791,0.08449533965649188,0.12771539760817316,0.019411738310040994
-0.05087194640324291,-0.16069348075172216,0.06916714914372173,-0.11089376325182568,0.09780592526097896,-0.011263593113177452,-0.060968914651136887,0.07449838287217589,0.14387691177754305,0.035696418046364094
-0.12409593457384581,0.03355196838446363,-0.009937575438919946,-0.021465523496455786,0.15060596342432894,0.023446152910445012,0.08029402970260845,-0.0004441421345862852,-0.07727852593957792,0.05823588025078904
-0.08524830511846887,-0.017948958330437217,0.02569217021994237,-0.007552851572944065,0.011273403505893606,-0.00013486391620458473,-0.022199622344675464,0.04513052299644991,0.025489272963836584,0.02183629748418361
-0.029241756724606133,0.02202892215539876,0.003042114201713654,0.17111586283824873,-0.016303592663108494,0.016695033659345555,0.0818125251644616,0.048367300327928325,-0.04008698323991611,-0.07552220049633732
0.03803910951482101,0.10427896591346761,-0.0378531315251212,0.09617780480909463,0.06634725961211395,-0.06309469424490419,0.06838098548242193,-0.03686366244433376,-0.0005567085961625212,0.05105864772688807
-0.02260322888054434,0.13693083648046664,0.051880299982911736,0.10119598752244513,-0.0014718587615488493,0.012433692281867992,0.0724884572053085,-0.08976409996762762,0.022493453755175582,0.028221059121660425
-0.007655975018529793,0.03508335289679797,0.12163134217270248,0.3027514106662795,0.06970835693165721,-0.13722652969301408,0.01640599072587932,-0.08614017959904435,-0.011458651803838552,-0.044384564497290314
-0.003811048145961584,0.041242643491833195,0.07494786123946452,0.10450013355512272,0.015387092181248101,-0.03470320885097627,-0.03434977798928893,-0.047871714348860894,0.10677475909760867,0.014078625826821149
0.04728703471119205,0.04465276911853364,0.05633874801051777,0.05493386958272354,0.0016225025358887672,-0.01196971450237646,0.06617605387555768,0.09217766200284297,0.004358230144834509,-0.08015557023432383
-0.07225210263353476,0.04547833767332455,0.031453206239574316,-0.005546489035853358,0.05676291222181453,0.026197035434493098,-0.012629399549920907,-0.03295961854602444,0.0577666629325825,0.06187966687906291
0.017896411094574283,0.05665494715377653,-0.04756214686359171,0.020655254902049232,0.035138801046261686,-0.01785084900580612,-0.05633822864642572,-0.04352040715054528,0.0486436567605097,-0.0510627843598405
-0.06521170687733666,-0.008980110863454417,-0.05117875554015487,-0.028508343140155504,-0.08044748559098518,0.015981274423789105,-0.015723982186366735,0.036596674602751074,0.03247608293562826,0.08605123833504312
-0.04377346064803664,-0.015708509813945837,-0.027000596492215378,-0.021741424835885387,-0.08293054214145451,0.08200054570367,-0.017020321889291833,-0.05572579263170089,-0.030362139343654494,0.014045355570700352
-0.03186355233664803,0.011426680548655243,-0.0014669900647227617,-0.0564139710117246,0.0748921940992409,0.049149050972149146,-0.040384660268660486,0.019034478290512725,0.049615416419745095,-0.0764375336477468
0.04369731872527175,-0.07780274233056123,0.05814305385897589,0.06033665268908015,-0.03892622153863184,0.09210720211635534,0.04553820266618047,0.05387700878308601,0.03927501119124458,-0.02210417636995863
0.10935958518093056,-0.08957030221678355,-0.01206952661771187,-0.007138688048400858,0.024500916468645002,0.021373491122121408,0.007447117704568552,0.09290073726830514,-0.1317233009494268,0.06499173034161608
0.10860636864270992,-0.06149195172685562,0.08662603994869715,0.011479494663412013,0.05577721351997443,0.07070129469544675,0.011448283378381633,0.14233743389851816,-0.08781273815948881,0.08664952248480491
0.10297264491852523,-0.037568225909879065,0.1137100340640435,0.018662457787116705,-0.0551170959713383,0.07484380549964482,0.05507813190998786,0.014977171917118854,-0.07088051045788919,0.015947408643091587
0.050059269248264954,-0.12612186995117355,0.039996794275186966,-0.03643645441192237,0.02390185448405434,-0.009029119267693293,0.08803205761981957,-0.02057468807869024,-0.11852242425092996,0.08356303988468675
0.04420292874001648,-0.109186025217485,0.021915931157358338,0.07170150916605339,-0.0459189879893521,-0.052341204771312815,0.017085628186746155,0.07793808044084294,0.02769378447205573,0.1361226447801528
-0.00718420738829998,-0.10675776417985781,0.10546438833499179,0.12074372041798061,-0.08310451092871524,0.06710575370394979,0.021968984151442536,0.12606436115537858,-0.003978484701746075,0.18072804172623214
0.09000618578442757,0.043813037042731706,-0.044474605297805156,0.1399134949709796,-0.012268169840170814,-0.03429170717800331,-0.0629272281084246,0.13228921232084817,0.04445578334174839,0.25227633209008765
-0.031940724450280296,-0.008295239534135586,-0.04215002469367414,0.08133076625049018,0.04889017653341829,0.1395983592029089,-0.006821639683310664,0.0006397497748493622,0.0019490183500765052,0.2072741645068474
-0.1099908704693825,-0.07926942928816105,-0.12791826294674793,-0.009428532064624405,-0.010290819852759803,0.0780700243536901,0.02850122749604689,0.12858589613679952,0.062701220195501,0.23633666445074364
-0.06867564505083654,-0.005225003533185346,-0.07664724732956028,-0.058344016996505134,0.01570878991302155,0.08510758690495773,-0.10472862908086765,0.1541279495270538,0.17263490385695923,0.12012614448164756
-0.11606385874380751,0.012500709787197693,-0.11412359320882202,-0.18967103366830604,0.1654129593285121,0.14672936847868956,-0.18050496104869748,0.14740145571889435,0.20867004949788429,0.12320876294913226
-0.09181001380257565,-0.0435170089139174,-0.17468961767929453,-0.15696689827851606,0.07084529984720749,0.12100059076930192,-0.05819928278660851,0.12414717496993254,0.19815849730778398,0.17107739531623284
-0.08129738501583618,-0.11186115342680522,-0.11672280213170598,-0.23994306561985088,-0.008605587112224592,-0.019153649466268366,-0.06805894379428627,0.1756509785149057,0.2596918038123032,0.08481001182215106
-0.04069467733327411,0.018947339274919105,-0.08233914061600597,-0.0996733123530162,0.08114714927714546,-0.07184323372768235,-0.05688051761269391,0.018253519089858124,0.03859788790089205,0.19140073073166441
-0.08381721579412445,0.05920354891897886,-0.04792476767171149,0.003973428907683755,0.0054307285312929915,-0.12210392616651944,-0.09527090505389002,0.03154170381699917,0.00529676046692332,0.16837230004324324
-0.05348397534121472,-0.015964335887151602,-0.1350689916398019,-0.005456549094107275,-0.03861872937478441,-0.05156824529416224,-0.02463537889835814,0.025936840444209578,-0.015762010683416983,0.079116514292011
0.011608899886573107,-0.002452781373697888,-0.040992958403154416,0.04604119255131006,0.047624149634474935,-0.1026070005428939,-0.024723498446497655,0.015407570834158852,-0.11345323183484171,0.12547911764868805
-0.015824538542058883,0.0872875773488886,0.08953671782050475,0.10584023048302423,-0.028556707461949653,-0.026432656081870825,0.04871942471443341,0.08241014394385514,-0.09841310261997716,0.119601764695803
0.08384037593841871,0.06191135096846933,0.0019952917784301872,0.11105191113142715,0.056992215009781536,-0.09574787654367602,-0.037505464084541695,-0.0369645158996949,-0.12206680086516754,0.11163875764858917
-0.07098927188270102,0.09028832963418026,-0.05247881792737669,0.29635550246063297,0.02332901479637067,-0.10336964821803965,-0.03183954959240847,0.07210011511854501,0.057278049322783325,0.04449702763467618
-0.0633621880114112,0.0003874367948005222,0.025709571543963812,0.24060832209906702,0.09498303469577751,0.01524396956506959,-0.0368115932834882,0.08111758236496067,0.062422226744985175,-0.1077899695642894
0.04259777705789232,-0.05393425357269597,0.010840062469279016,0.10341247167569204,0.08120530000702095,-0.08603249764025789,-0.004985173060074339,0.06699269315680043,0.007150322503452624,-0.0945400814059513
0.07021044500229223,0.05225504021508215,-0.08291562700559872,0.044211572877525175,-0.04303243427472019,-0.016625631919579165,-0.04722391462616938,-0.04943479263973869,-0.038880829895366516,-0.034360827055795816
-0.062187437032076645,-0.024936105929038922,0.04825900406571619,-0.04566879893153562,0.039814134027404816,0.059208109405762856,0.0824714181160342,-0.04944270657752775,-0.07098959847581049,0.005745076693037534
-0.08172607378291948,-0.0392062197824945,-0.07424315504788612,0.04506280090788181,-0.05843701894471243,-0.07543601951901555,-0.048121112541547884,0.021573889836158922,-0.06511643906176413,-0.041362006133312756
0.04966443085360012,0.06457446383836161,0.043434563471260824,0.029231732030486117,0.06972174950169377,0.055310369046102335,0.06989229384335627,0.058024022478964224,-0.047474321549609115,0.006004401253569059
-0.07409499998165082,-0.0005641844764978524,-0.049725898167952864,0.0012500963737495938,-0.07135331022465889,-0.017497775761120205,-0.01480732789424829,-0.0738253344701875,0.025225746505314874,0.06461945912677221
0.009832186289772447,-0.07580498384165833,-0.06695107406146615,0.059448960842531706,-0.026633235224212532,0.012766561694940299,-0.014444761826299644,0.09070920835801533,-0.0061741477509544415,-0.048608721543887685
0.08217049259034229,-0.08143246974299514,-0.08179246670459107,-0.12454770854686224,0.021832444398869572,0.06389216416734371,0.04128491260952259,0.08757148728602099,-0.09677175434828884,0.006202075437441526
0.040581390318556336,-0.06645665397329337,0.029913833177321714,-0.10355982840847174,0.05988475328311644,0.01919749163949947,0.03075564406267507,0.1352679247550434,-0.060642233429813806,0.050911920435452784
0.022150732439282332,-0.13952006531164185,0.05978408266648168,0.033320024495242656,0.011271878340515917,-0.11232795250683317,0.08444524252879018,-0.021824235341818734,-0.0719098963134092,0.14078949264239032
0.034894605573650955,0.01966713679456031,0.05588318981117044,-0.006954957806561753,-0.17152131603696352,0.06923511083506462,0.10961667356275936,0.07031581970073977,-0.12154787144064017,0.07251862207995455
0.07744859067478402,-0.09563044879244348,0.02127964161095643,0.13792111135330146,-0.10041419029170136,0.01402163370475795,0.04495755095249385,0.11469775097268396,-0.007016851444058359,0.12505813504283433
-0.013347064760548158,-0.03507868456683567,0.029402647388246137,0.07672834419931708,-0.08063189081575448,0.045543284275435414,-0.051441026519593515,-0.007494128579305649,-0.002405298269701523,0.23329015516160206
0.0006222274215585363,0.009552515202936871,-0.02205428048385501,0.08169596202486078,-0.06357823680286212,0.04975924900935944,0.01626999727507037,0.028473601995577826,-0.0011948630917965795,0.16290920993918462
-0.048441380183251274,-0.13137205495820722,0.03406178300017431,0.042817181237048654,-0.043583480395458576,0.11542051851227708,0.04456616659134055,0.11101394991623523,-0.015070943133534824,0.21147765056896783
-0.12789171483698406,-0.1344312775887867,-0.018396209091569256,0.01065267238194499,-0.02819151041229774,0.13347702489488822,-0.03599055392848181,0.0586649451719642,0.010984599716785205,0.19048861179505194
0.01779915698705234,0.05438687798651871,-0.11730667685280322,-0.029593204143027765,0.03484365572711827,-0.03965469340026705,-0.029865503475708054,0.0824213044184227,0.028869401046631656,0.2008207924848776
-0.06794192745981173,0.01141803253671839,-0.028739189146035706,-0.12492337312798206,0.12544154566291785,0.10132436827507985,-0.04540391245889898,0.17321683147084138,0.09379649360747852,0.19755435712727606
-0.10622511830537967,-0.05838417552737991,-0.04629493462668226,-0.10804182508490194,0.20030840158288707,0.07234645907880823,-0.11692994974379682,0.13356162696410798,0.19404512778775443,0.1311816658407928
-0.10289292514802728,-0.03740262204317589,-0.06409359871580803,-0.053213451888021276,0.017131403289804795,0.043677428159106545,-0.0709169068791372,0.11952589165472804,0.03684579092386271,0.23434396448798037
-0.07839063518629646,-0.10590166384053848,-0.07534398007921804,-0.0422300937919848,0.04140472156706768,-0.032097510194156104,-0.044628414298024575,0.071418455773883,0.01331349812688245,0.16047091638199332
0.012473640145959346,-0.05994673867212289,-0.1550488422167045,-0.07518548875402357,0.05777442991959344,-0.13927934937860587,-0.0008671118311715967,0.04954920301366043,-0.051818570196379136,0.21616693879927207
-0.10548199024867894,0.045948628637846003,-0.007622225096988337,-0.048663171728354944,-0.0775786507595732,-0.19558162860166065,-0.028445858324450228,0.13019852195855952,-0.13966335523754608,0.13171257551162302
-0.045845468532350886,0.020852257931309216,-0.0377842249234415,0.08974181082926733,0.03765694844007971,-0.07686106662118124,-0.032636395181212224,0.08797668730317494,-0.022660285929557475,0.17811242829961227
-0.10022679435713518,0.04147620331035895,0.03503851656933255,0.06475435214557033,-0.04386943149491034,-0.13126208486046462,0.030414791733385446,0.060199447667996196,-0.04721279572387281,0.10528483207066804
0.02934897839723801,-0.018225771384516382,0.0954983097224255,0.17518084441628057,-0.0041687966284311975,-0.036385031516473924,0.03439962325871137,0.0508553837880114,-0.11369177234967355,0.16246552741737275
-0.04782893899568472,-0.05982323232839839,0.010094155285528218,0.2702178874059316,0.147036091646024,-0.11566238335015029,-0.04123826339608656,-0.041848705711020916,-0.0637087962784962,0.14348961905634267
-0.09706052653530733,0.015699533949717768,0.0391579495095065,0.3920866892118042,0.008999504592011407,-0.023410633850152934,-0.12214346312106586,0.08272580010621838,0.008399704000151059,-0.04800905743429346
0.013281241219386408,-0.051373607316705074,0.03247039078065239,0.22636533590226599,0.02977972447631291,0.016577204215831153,-0.049912230696208794,0.022036870200223133,0.10877632127419,-0.012579650447296378
0.008326716800428995,-0.01719965009575813,-0.02067263531546557,0.07131851376545621,-0.05375321628225179,-0.014791089077533598,0.005867277827733448,0.09491812803905099,0.0560598503530544,-0.06152219012527827
0.02556143552650165,-0.03244690677116646,-0.06631544385332999,0.03698267469703371,0.010477595374547281,0.06272277596948236,-0.07761737724083326,-0.03191235680078116,0.018279514039698675,-0.08528188564811477
-0.005620035467334947,0.07616567049007861,-0.043751121006127665,0.047891811896476594,0.045950700871681016,0.08100717164822155,0.06266549132222814,-0.049941554289392356,-0.05212825759137578,0.0235650971006496
0.00027204128647504344,0.040280063502877,-0.03223255834835412,0.011676724546982487,0.0041608855761220784,0.053942081386264995,-0.0862812691288872,-0.08223172949942147,0.060018791208739236,0.01200974708662418
0.06803776593886951,0.03339433415488904,-0.05705146611681589,-0.07703350503551715,-0.03083872358489917,0.04678388828364477,0.04033153062377378,-0.07242506992049275,0.039264568516360614,0.00428494741230714
-0.034048849292476015,-0.0186063538423081,-0.08296389852384721,0.007399437179074952,-0.0022902566418065607,-0.07725296801882893,-0.05357650623414646,0.07673351781540307,-0.0010094729108637416,-0.0029974686932952126
0.0315723523064524,0.007151965726321373,-0.08390905154466087,-0.08974866002802441,-0.04963890310160166,0.017542580372582172,-0.004745443494248507,0.07053703720821501,-0.11428320115416553,0.05201662611772197
0.014662390284149807,0.008628515281583827,-0.0961683860256757,-0.024177748466571655,0.013567046136153173,-0.014476940086153033,-0.00820423097859746,0.08602531881479188,-0.03789558700510712,0.03361522299597857
0.04821834755224508,-0.045984348673666554,-0.12456944345971083,0.014265198917624136,-0.04860999166024302,-0.010360442270854595,0.01572326829097695,0.013306392137596762,-0.040753791675073356,0.04673115013820606
0.06630923628514317,-0.03297586667828769,0.010241511878175293,0.06013996566565526,-0.037189274939959306,0.006335326994764068,0.02886707652467919,0.008538919623590832,0.03478169124936808,0.0997561721341584
-0.05022025533133687,-0.030290628074157586,0.009171063574907296,0.11643212185532432,-0.025426615943408212,0.07419872092994763,-0.025017150902978742,0.09229221610143688,0.14239471438707635,0.10792424845117567
-0.056720530533268206,-0.08188693769531091,-0.0024398253736307557,0.17136408596548655,-0.04467919829575941,0.08352103227541195,-0.0283551335825289,0.0756989969357181,0.11258344109835106,0.14321450954553597
0.009877543462634522,0.02665123952137713,0.06642549859182431,0.16767479392161902,-0.06419932976000409,0.02206280271155874,0.03114536104870552,0.04825088864426277,-0.0372698580330346,0.1920685030407144
-0.04219733827325207,-0.07343719060515344,-0.08811285998754398,0.18521748729502374,-0.025486105224324318,-0.007263585561426939,-0.024233481945495662,0.08594180506796101,0.02538558516356164,0.12048331107972592
-0.1086573618400175,-0.08017179201088014,-0.010143805244599671,0.14618579849049457,0.024992271151172474,0.024273857746734948,0.07018256655128381,-0.0363017631330554,0.09549121423570381,0.17600980761720572
-0.004272369015049061,-0.11565915625057568,-0.05730555953594168,-0.014189228443415346,0.09845912819207854,0.013528693610665945,0.07195245133834813,-0.02509193221999651,-0.004215684154893329,0.1704908062493717
-0.07954932216456806,-0.0636121777425056,-0.1044808075432905,-0.2709063142810083,0.15283119345580717,0.09771086361382803,0.021652546428836787,0.14000581062294656,0.05835070348433579,0.1351154210055458
0.07169989812940585,-0.026491520617191892,-0.20430902150077726,-0.2463954679263077,0.14654727051424452,0.1422396381354792,0.025196039860883094,0.04382642844010973,0.02754539984635662,0.09186689585890126
0.1400442872167223,-0.04842907928785659,-0.06205810944405909,-0.04762953619958358,0.01223121029128425,-0.05131156625010981,-0.05283099141053056,0.03728812539078176,-0.1366406660769531,0.11308249304171272
-0.059468294652651806,0.014846686927923104,-0.053914572337810156,-0.11319333289498701,-0.05810917105524742,-0.19658939030243994,-0.060137832637458054,0.014737181499761425,-0.21513758470182429,0.194158438695345
-0.07891732310450807,0.0475055968463105,-0.04269080144687182,0.038368925359231594,-0.034641597190822056,-0.17199812939122391,0.018751325663116672,0.10914346764537197,-0.10125567534402653,0.1853913207284361
0.0316607961122334,-0.04940861866717526,0.004795483685138323,0.09276193547280981,0.0006343224483873061,-0.14960052685321207,0.016904038935607282,0.1175880343488187,-0.157753109578578,0.12615227024670056
0.04153158036220554,-0.018817097788436897,0.058513751093326724,0.020053048573166362,0.05969068256019942,-0.1940773094650058,-0.12075542037373427,0.10710523936600892,-0.07353666497050163,0.20473887606061317
0.04834137274289122,-0.038677993178817566,0.05761520363023604,0.013397084581304933,0.014304142113458526,-0.07844695023594565,0.07063756123881847,0.13490245591484348,-0.03063076015083949,0.028681707671938908
-0.13255474823001773,-0.0625048677287111,0.06525648973823153,0.1361879744375085,0.00668412603685385,-0.22683878107718458,0.07978683723225487,0.09866903085390276,0.004948731137974555,0.08841419529694622
-0.0059587338073144236,0.01747903705184767,-0.06953985101905971,0.2997532975170119,0.08200168237657089,-0.10301982263040577,-0.08065490202241692,-0.051441059388207776,0.03921822456044076,0.20670309309900511
-0.11342723622242293,-0.02592022911379107,-0.07564849846051361,0.2681841465313849,0.028993631732516907,-0.1820480264123878,0.01085940383047238,-0.005151751177629015,0.07533428515896413,0.028611306440806738
-0.010692200860943636,-0.01797224945882278,-0.02726323718350001,0.1664000371095145,0.0670761631742691,-0.008855148191657222,0.008602091605113413,0.0548896569631763,0.05366117467023127,-0.07997636474994012
-0.0344269592398255,0.06177833106396028,-0.040861806758362436,0.009496098065044018,0.009732592249600195,-0.06263504413097908,0.07211606275831696,0.05430551704034313,-0.033722421594256806,-0.05489547525430281
-0.05562015344631106,-0.06204589607438051,0.05461585293624881,0.022305770200536933,-0.0551403879697732,-0.03807177552288661,-0.074512894259661,0.08262890767090864,0.07252347251286874,-0.06207575951127217
-0.017517639102637473,0.02368270891710161,0.06709647282657033,-0.08468378255405583,0.04979430522983824,-0.02183953240299982,-0.02874878316180647,-0.0483132013838112,-0.05066099579811035,-0.053094061976645936
-0.023045513169415936,0.00026777116608896315,0.012988912032846103,-0.02884370385775051,0.048083105681848474,-0.011682074234808925,-0.08291614046014895,-0.03331063784890601,-0.034213315368371355,-0.03277113703929312
0.02238963767845278,-0.0055260577469418305,-0.038113307241067575,-0.05005744740981318,-0.006306371911111514,-0.048032057445471024,0.01005656643827391,-0.07350364869489398,-0.022019345771517602,0.04013553552043308
-0.031587743072891306,-0.0029752174010226158,0.06726314018107196,-0.013746791030811214,0.08670393254922297,-0.06122365357377624,-0.009655846224262112,0.09436106341140946,-0.11809140237000895,0.06608026415644917
-0.00915708237341312,0.014645290026874041,0.002204592942564413,0.03350119795776497,0.0645461684581274,-0.02366419433024136,0.08962366083642462,-0.034766232907248014,-0.10269033024658368,0.043776002719057
0.10862113161472263,-0.10346312256243537,-0.08062535107122992,-0.033123147876445665,-0.03916473375902858,-0.0301189325592031,0.030094245380373513,0.024997671672157364,-0.1345488580020421,0.1390522057587592
0.005770245761466442,0.01681829318620287,-0.014012833053222106,0.02655164346952324,-0.04274308511462473,-0.04904676116275083,0.0317476903431733,0.005050606646007294,0.06279648472736743,0.06794460121356742
0.1320548383261799,-0.0515691702778098,-0.06153048841274132,0.10907411431825403,-0.1418781205088496,-0.08954071253323855,0.02051304899352615,-0.0513113185838528,0.06650891143378718,0.08665225716562622
-0.0026778091373848,-0.022403439555103172,0.02806994306700792,0.16142297325574367,-0.08886480182653378,-0.10071186985202052,0.12007248076430929,-0.15652677228139042,0.06355988175267796,0.12676965706315085
0.003002323665536198,0.12318334954675109,-0.021167679584928104,0.08928496031142816,-0.09893870504308121,-0.07626442466994385,-0.004251789366503976,-0.09916770941951707,0.10355355031097783,0.09238165926543077
0.06603578225653152,0.059512654608162185,-0.10527083699511611,0.14187968770713985,-0.03405628203667844,-0.11439709877989457,0.0011397520668827118,-0.14603516681027237,0.15684577371728559,0.12388810280181652
0.047568912140119206,0.1364303416773476,-0.10087039351812538,0.11147882391096364,0.015074426934478354,-0.03050425862412104,0.044092797385851756,-0.10318093004284422,0.10684924432406086,0.17026900169609732
-0.06749737309901774,0.10016700659359193,-0.04624858394353264,0.16578191255711322,0.03187565391361531,-0.1378235408511143,-0.03652075302048178,-0.14111287297327577,0.13304542122600568,0.06413213637695388
0.019591674737257377,-0.06331841711727629,-0.12458728660308409,0.07340616754020007,0.19789648085534525,-0.07428239628322494,-0.007332158976122772,-0.09261107632641843,0.0019501173577524957,0.12231571276506091
0.04478333093540315,-0.05938343253592494,-0.22747126266544693,-0.08383993446947587,0.23077733440630285,-0.03631194092299241,0.11497885427935743,0.11163399696979694,0.021672719983269393,-0.05726689022129526
0.04139944476781577,-0.05204969786235765,-0.10215467925428451,-0.1236990274817241,0.1892206481573503,-0.049220383732707707,0.14629697738586256,0.04111101540224191,-0.16407236870860026,0.08515361889662408
0.1531879132841164,-0.005137852819369332,-0.10570010166552493,-0.1263203700583225,0.07136696815869736,-0.10894112118609851,-0.03294268604155951,0.06247701462096198,-0.13815595933232078,0.03616000857309523
0.016904056103342016,0.05852554253778105,0.05192278974497695,-0.053681665827746215,0.010248470190520623,-0.05352825873278738,-0.046037966683002154,0.11707334781436197,-0.20714893274351315,0.09094972680515816
0.06778796634950444,-0.007205740292337468,0.06497994411152659,-0.16749070666709967,0.012420431634707236,-0.1139407773622344,-0.10209694936634267,0.07805020258087883,-0.09514949398969753,0.22128417806306222
0.01709700881155095,-0.08385422047112613,-0.05901062220179979,-0.08908665582681265,-0.001316874629010775,-0.18354476080188664,-0.033992848500169745,0.044174781009216645,-0.11293612220669727,0.18849948937954805
-0.05469217615406561,-0.09079181594634347,-0.06547174105124881,-0.014563463587251139,-0.04900221158799833,-0.06277997908836691,-0.08416235275897226,0.13872932865960863,-0.09345924202922008,0.1202504742163784
-0.008331631344772869,-0.15014523332840748,0.04470891004213068,-0.06703611971044705,0.04444651324845904,-0.1760002651350222,0.021270200246107807,0.05262078573198758,-0.07657199634186028,0.06563524756941246
0.009297742999257837,-0.020290334698423635,-0.04844363453053429,0.004627737719066432,0.0876669569104762,-0.13734598645361384,0.004432024526458241,-0.11643670455494917,-0.0059600952681582026,0.17482628067778178
-0.16614359179551863,-0.1721370257288411,-0.06514452330717854,0.03268277187388603,0.047587136680323404,-0.06467532546478469,-0.017391447301553623,0.018906875126468888,0.021856279022013387,0.14903025521771612
-0.09319005238550387,-0.10169076111795611,-0.12173296520537667,0.18274324853205998,0.05397957609975048,-0.015322200163594642,0.050910292965115275,-0.05649222366370634,0.09908143758672773,0.05531201808120908
-0.11774316036325705,-0.028862785594670877,0.025546084614744943,0.10380269378947085,0.12381764762934303,0.03016415791294816,-0.06005180576496811,0.1115021880007859,0.13518335366985282,-0.04353022172581
-0.036796151093906854,-0.08065258864164487,-0.06720275395495787,-0.02902320672706224,-0.0009288038008460608,-0.005946551511238552,-0.06953482553603323,0.08657965433323302,-0.06620163724655444,-0.06313548564317882
-0.0330298425196349,-0.027566085446769823,-0.0025177162222102967,-0.025983343671336336,0.06467634507936512,-0.06370420250807368,0.02811789148887486,0.03786349097105552,-0.054600088455990986,-0.0028005567686463745
-0.003598702504301853,-0.03972251502209778,0.04805552777710563,-0.004569487539877205,0.004748569228012551,0.009255485742882463,-0.01398866135251646,-0.06745998752156608,0.06305074372673676,-0.06338533090647083
0.01344957320066143,0.006443689550490959,-0.06643836166034786,-0.06555130224262598,0.07404765268995846,-0.0386653169038026,-0.028363037226661423,0.08280766095978467,-0.017852518593027465,0.039831929250556175
-0.012418670843018988,0.028717534661562735,-0.03327963585369017,0.04428794121225391,0.02792054899402576,-0.034202913166192096,-0.03160735515611915,0.08904391998184587,-0.0922127309645431,0.06368454902459392
0.04798971534745818,-0.08492956710012929,0.03447311462162653,0.022200084861662372,0.05098343857582202,-0.05919961833189685,-0.048716662899163855,0.0783653730102411,-0.09011390112075306,0.09619254915297194
0.0741329745899688,-0.10137641969797115,-0.03287731916224542,0.040754227280254976,0.058213023136814666,-0.13520729765290054,0.06423453419182325,0.09589585535488858,-0.07572194885217094,0.12778235593192486
-0.008431170979671885,-0.04083957845674068,-0.13604738679507666,-0.0023645621237572243,-0.12015937139594131,-0.16434018245310134,-0.03945251251615483,0.006661286522498046,0.026140423929989536,-0.01350740821348606
0.03324315018583013,0.0722154076468084,-0.08558137603016559,0.07644908164400148,0.03403230062169751,-0.06688892838678467,-0.0854842127353939,0.009463702932260424,0.2234737651639421,-0.020304094500991413
0.1485025842005086,-0.024426148070763692,-0.015789137030186206,-0.004841779197034428,0.03447437134004531,-0.10407866619988591,-0.00428235688164186,-0.08653349519548252,0.2145091918858255,0.05165001694181113
-0.0016141534265810872,0.15953124649908637,-0.06145595788429658,0.0003351910176161362,-0.047008177810256555,-0.027387502373642104,0.02575799137716625,-0.10759179356712024,0.20086863173668248,0.15112202919655815
0.12678497828500143,0.1665881151979719,-0.05270986841398513,0.16276823307852892,0.05509868659793147,-0.06970914299334788,0.08813165991002456,-0.17285850281329918,0.16770609384395319,0.1136568521473775
0.08955399184904243,0.17714232962280627,-0.05074987793176715,0.12952463852126553,0.025279586557958166,-0.13924340084890455,-0.07954394775736222,-0.17827454557195252,0.23691483918993375,0.028055941351328308
0.182860131362103,0.16965572308957586,-0.0441327319195757,0.16106207767916994,0.07090005198459534,-0.11985586935690236,-0.01945486573972767,-0.166000723836286,0.12605192932496212,0.008711480022126
0.04778613431433562,0.1671513772770767,-0.09019516001347812,0.2328169238153511,0.022917957483284564,-0.28209915205815206,-0.011585399326511241,-0.12977850367729976,0.13342345187133453,-0.005185786599764129
0.10854345217506878,-0.06604626841819021,-0.22128076721416934,0.19904440067221155,0.16300043295876834,-0.1603370952907022,0.1358317271762493,0.03431931006662419,0.14661073767787328,0.018727526276297233
0.05371640998506132,-0.034982364593804355,-0.2680654046581123,0.05201097316672285,0.17061959644331032,-0.10432422803296751,0.2054469523143155,0.22628090903389883,0.07007990789548131,-0.026263263698398754
0.10296005263623648,0.04477093376935266,-0.15723108561651217,-0.030731029452624313,-0.01157440520855423,-0.07585958835196407,0.09069442125393169,0.11667559021765286,-0.11182642361732639,-0.13987213249498018
0.1002505997628563,0.19939750302564552,-0.042944276110341725,-0.07541589333269615,-0.14950596543044753,-0.05776814533632732,0.05696416011535205,0.09467747276113654,-0.16763491802540642,0.06834672501757191
0.17679282572528715,0.03586315794983239,-0.10463069558877168,-0.15601356084929863,-0.13454376731765094,-0.0997293482200727,-0.040833311250360514,0.1413872195851016,-0.07188667787956479,0.11650739089778357
0.1540891045385937,0.005204760229757063,0.05458390710048454,-0.10085542896670549,-0.03603196668176212,-0.08327189525554013,-0.057998100565347314,0.14271811985857583,-0.06355553170520577,0.07095743215628506
0.027841651150326985,-0.06651593794402386,0.030354427188889734,-0.23957822362782064,-0.06053429729327839,-0.21079370357776483,-0.018244897672318454,0.033610129225429365,0.06491634793357415,0.12371569413447028
0.11104074477860465,-0.05949200557349933,-0.029489491515875075,-0.20004245609297788,-0.10754628631051616,-0.15384074954557794,-0.027728979664312047,-0.02544070388451645,0.0899235447329477,0.11130267094633992
-0.02122234152353378,-0.039452451193734306,0.055733666495833445,-0.13928043555224667,-0.025528392595148098,-0.06480849252864244,0.07123680874354738,-0.13567120746338726,-0.010608457775216762,0.09651488983736893
0.08462155436524492,-0.04847044029341954,-0.00964488176793398,-0.10490351822550745,-0.10409942557089465,-0.08903927289323398,0.015552532227171815,-0.06934627033860448,-0.01997157487064094,0.11937855552047599
-0.025974134327697476,-0.08962752669716487,0.005155813605073399,-0.043737997843345186,0.04450975629890991,-0.0934302887244411,0.0024223763188593044,-0.10554185968861625,-0.010158960081571584,0.047656266783795705
0.000994153910216908,-0.05009297316526728,0.042984319728498956,-0.01639710172766602,0.0641869325173183,-0.0548594211229631,0.07261704165137647,-0.09190310034420168,0.11830194461204639,-0.0030257964986611673
-0.09534355110623088,0.029378057435332623,-0.0874900790608217,0.00304530642547972,-0.02545966527149974,-0.01711036056120977,0.03444451655092698,-0.06659623592774531,-0.042807190329917214,-0.0028168604000952265
0.05604903009214765,-0.08699287332485094,0.0026754145113814863,-0.03745080773810756,-0.05554456963046869,0.009325435239911566,-0.0072477209792713585,0.08930194599893107,-0.08055867433595078,0.011033527403723207
0.07219069488780308,0.07579922573994914,0.07157957641937565,0.022772755753874354,-0.06419546685420457,0.05658797893105646,0.0017072825171759534,-0.04889436775020731,0.06364779186201415,0.06928223312380413
0.06774753898705854,0.055623754100607964,-0.0775291589592367,0.0011717944178333828,-0.05844798639511187,-0.03646041230255928,0.028569111067378597,-0.013465717260279009,0.025157771132569243,-0.030732736630281962
0.08092765643230417,0.0015931125225231897,-0.06549951298517105,-0.06501630646723272,0.0846094015404953,0.07536267441099277,-0.043326564376936286,-0.04392507959089238,-0.08488150654994883,-0.061969728422168836
0.0765132875866318,0.06720911247913133,-0.07931869832015553,-0.08866511322902729,0.009218883766078266,0.015325014445837852,0.014226898254671253,-0.07893444507417136,0.006950478498865262,-0.007979402119480459
0.0705676066915249,0.025771855321304375,0.010342595181982722,0.06252353263599462,-0.058834781034601304,0.01617892499716197,0.06796472354825465,-0.03250402016272423,0.06369804204419709,0.04845651881127903
-0.0009451902418449819,-0.02467754235514838,0.004990945614465555,0.04621776049495609,-0.0451788421914759,-0.12555815431182185,-0.043420530465938745,-0.049750661724986114,0.07347143927638707,-0.0384919798663462
-0.01952237092602094,0.12292912556628964,-0.08812403995589492,0.09382836629075665,-0.015167757136920363,-0.23541198417663797,-0.035101831386249664,-0.031210682510958675,0.04162151732177943,-0.025497785918159325
0.058479572793576025,0.13860483350382297,-0.034522768018092745,0.026170331571482398,-0.05789049454685231,-0.219338070664553,-0.061136428387621844,-0.07937856630221268,0.20084075295186438,-0.016229790959922188
0.11024639431494428,0.17868273915528643,-0.0895273707612462,0.13011207983296427,-0.03290295204094761,-0.135508940200199,-0.0018903004558287495,-0.11406571111363882,0.22679318840993823,-0.003239014458453121
0.22130301206914207,0.14480055858247806,0.025594118274930248,0.14777639919670557,0.09079034691598593,-0.16731710742684613,-0.06618498013338105,-0.06977854831710142,0.07189982786675074,0.03202929632017596
0.11245848676631962,0.2645245492848704,-0.03468608754716517,0.10477768044741695,0.07902000053776151,-0.24343193595694057,-0.02032374139988718,-0.03658272148247117,0.16324428555242293,0.07224707698188208
0.08078228282199844,0.19919408188046522,0.06338258527278064,0.20612798754344364,0.12033982881831388,-0.1994157232271154,-0.08641150180017619,-0.05338739607202669,0.0841864239055334,0.01390431071291644
0.1279273551646724,0.13064557784655895,0.08551096689440008,0.24315512643204915,0.13529661655546515,-0.24890204856881895,-0.08561039058818505,-0.02702165587490463,0.04714368618236202,-0.055768416863439606
0.051722961291567504,0.05484743618061061,0.07545757767615106,0.17880716381245693,0.19302161231964612,-0.21610582520830518,0.05366275430511565,-0.05729945360745199,0.16056090407285678,-0.09974827919804835
-0.037198077632424685,-0.038283007821885914,-0.0535163133030139,0.12582773932636995,0.07733769929380763,-0.20441445355055324,0.14414677324380476,0.1432663204246599,0.1884344692921834,-0.16735696283428061
-0.021047347324953166,0.12260243820850582,-0.21877029949202784,0.0215044777725298,-0.014730240762901513,-0.1357077762459539,0.21552907648123126,0.23650756650229773,0.0037758564552144037,-0.1287572041721287
0.17516060430517338,0.20242623446053012,-0.2053966190911191,-0.1684851622771477,-0.14922701890460885,-0.054369925889930164,0.19016494606176515,0.18995749956479735,0.09720958087306349,-0.16307345061173278
0.3209563294792884,0.16890398242294608,-0.04807180814402932,-0.1444061676893876,-0.15506885257360764,-0.03966906129014325,-0.06444990601995378,0.12457443038507561,-0.05591220395166668,-0.034038529022460774
0.11212226305147366,0.14017618511131463,-0.051087889035770516,-0.06567506450997158,-0.13424494597364678,-0.10672124056342991,-0.07498266899012229,0.00896273351462286,0.02810448444150831,0.10525424325640949
0.07982014952250228,0.010326779049465681,-0.03370390986311421,-0.22884414855356766,-0.12315878589986828,-0.0887205082528469,-0.11303722683952121,0.0858661577847638,0.06339127833571813,0.09157825750320911
-0.09059387531729961,0.017075631763966682,-0.032737783346341226,-0.2677254163998354,-0.04750121977840031,-0.14926567976540675,-0.0048355929396846,0.01768389362878374,0.03892538750406751,0.10115281792327105
-0.04854503719878108,0.02298939930777226,-0.08326639395946558,-0.2616364748695733,-0.060751843859895883,-0.006239114933152868,0.09764527473979029,-0.14332651531735893,0.20586127112367889,0.07152046072466507
0.03733030956011885,0.014389278621983224,-0.007856466406574366,-0.22724304371189724,-0.08912566715305473,-0.041125849512850934,0.011059272100452284,-0.13863702981417256,0.18463543008070515,0.11085243645993006
0.014599714832999407,0.009572655486284368,-0.036016030047661046,-0.033703154178514126,-0.05472651584761034,-0.09965598536286407,0.022573729958257006,-0.241535413974688,0.10158873847456601,0.15793102020587788
0.04330391541998108,0.012259515566609707,-0.031376261243807185,-0.028319428584707908,0.02454431335367462,-0.05227807329690853,-0.02640374875700734,-0.19551476457608383,0.1479973402447898,0.14022293862327773
0.0035571237516600677,-0.07031634839178762,0.04681977452287013,0.034446472217596905,-0.04174371188810168,-0.0012324698138717178,0.028373811637284762,-0.06520816710309393,-0.07266421272670051,-0.018049374020553628
0.054302670635811796,-0.0931435992391564,-0.07408020087410574,-0.05399126292287213,-0.017551306240639906,-0.01129968254478756,0.07335206945829661,0.02545504708186276,-0.06014556841366661,-0.03470738353833048
-0.014475425113634895,0.0807029862603964,-0.0742328145817033,-0.0767445941464511,0.06681514407424001,0.02157157199845974,0.04823266214512019,-0.07900224039999804,-0.060044071058088795,0.025013621267856508
-0.03511061023744461,0.07801568802827194,0.06487791333898166,-0.06804942626551004,-0.02284770505271337,0.07879589098992251,0.05042972142335844,-0.00018343303090894968,-0.029051361735243197,-0.0010659655289932636
-0.05463880997469387,0.05217000826905896,0.06661540014009731,0.07275975069890445,-0.0001613655305566647,-0.03304452652998784,-0.06749471421450313,0.015992199901329468,-0.00021345986254618643,0.062010675476250554
0.04873685203731299,0.07222573568725778,-0.08697763540288718,-0.04098746412769681,-0.07262667052359995,-0.004549277474736106,0.056350937026833976,-0.02873368286306893,-0.032594596246698686,0.047384527584257735
0.08291536492296613,-0.0668313613666097,-0.04444474466650711,0.04778953657565722,-0.028747912605788593,0.051476767627236186,0.03881539768182617,0.002437262793964323,-0.03252703042791489,0.014518661798263489
0.09898073763398434,-0.03878757125300459,-0.014208809249601021,-0.0422621133600114,-0.06267515674124702,0.02882337823240128,0.02098303390179944,-0.056751079678814695,0.01038003553864828,-0.01382677216070294
0.03833685460888572,0.06120717289784484,-0.14364125829330235,0.025640202178825223,-0.027584054666523052,-0.05653352097592824,-0.016981319929559133,-0.00793646279911401,-0.0120372192726614,-0.023505259584189118
0.07064432491405118,0.17992597607556754,-0.05806948784360146,0.06432233090152693,0.07393173480656547,-0.15165473163998108,-0.09425528655303388,-0.1251308983957728,0.11009653866861738,0.03878710200320312
0.15775870945864928,0.20674330192906445,-0.015555994086507409,0.030347932298192326,0.12718645614500715,-0.12315620971016286,-0.023296320494224528,-0.11757012593303809,0.16108345354786643,0.04229793356708435
0.030638152212770588,0.1772830913752013,0.026300927198278146,0.10878461137420056,0.11408817491697108,-0.1738477810800951,-0.037068433759189015,-0.20592705337411002,0.2406043450056492,0.025267168100652677
0.0708853630781338,0.1640803273832244,0.07259875468992259,0.12433284859523339,0.1754145956137561,-0.036810963165308505,-0.03331289671787699,-0.14083027084944147,0.07284357559111326,0.04328866723769121
0.003287846953589632,0.2404023608768114,0.04751659301469669,0.16791812906978942,0.050954402663751626,-0.18138598719062662,-0.08748848825456405,-0.07099940970817509,0.12024008455729533,-0.007961840155700175
-0.031628024752264824,0.18809003756268772,0.22821572566453366,0.020235595935741323,0.14214587995261863,-0.10162009135523782,-0.1288546817177536,-0.10529014252833069,0.1682662499726271,0.039415416544947755
0.048763210604416234,0.22688674482645346,0.3061620176639811,0.22220010595285547,0.16211537345426968,-0.08913065323622377,0.056430915567768435,-0.05173342219328344,0.16210933000286867,-0.02426058698339398
0.008032554840234693,0.0736001191485643,0.26941173844142385,0.19340179443944389,0.06541760103957085,-0.09132027258082256,0.03154311782067589,0.06462960344501716,0.21770745545257122,-0.17691439965685882
-0.04882970448639465,-0.021584772596126532,-0.044301513209510986,0.07932042674447481,0.013236332001584571,-0.07405823923654914,0.21118877717149595,0.1408288924047409,0.19007521314933332,-0.258108894097045
0.026535588396269877,0.09721704120850387,-0.1130526051347433,0.0005764762602801011,-0.04780284681672228,0.02062439532881524,0.20839903610279115,0.23899218510675216,0.13852237989220395,-0.16931178077944564
0.19066569560615526,0.20870764816332518,-0.07134293365020883,-0.03576027054685027,-0.13866487504105218,0.02789843340446839,0.22639146314039588,0.10611284669285374,0.08040368326604076,-0.19650041908165572
0.3048778285649316,0.24099770550087163,-0.06020020271429812,-0.18120372956059552,-0.17562152024192504,-0.02675224953900284,0.048627673015565545,0.12465316027650718,0.11831158547126355,-0.07043163258537954
0.15255975823257886,0.18451739772941675,-0.04176588369916212,-0.09265685889335955,-0.15125163357940422,0.021016138420254276,-0.040051204427105,0.1475974972023665,0.04659631007993947,0.025422622289868448
0.10272247710048836,0.11437569931862265,-0.004225043834866524,-0.008720713325419805,-0.004405569481635314,-0.05531501335919239,-0.0920594110317432,0.08312584177506255,0.06470109398200931,0.022169850091583804
0.06077552575559524,0.12930749733591004,-0.011053264374919903,-0.059248810459949564,-0.16255263400774866,-0.023464421936067653,0.05388510612166809,-0.004217550046849932,0.07681366792200653,0.026208477577761787
0.05979682860525823,0.02208125578110991,-0.0971048918613895,-0.163866601858522,-0.08488483682388512,-0.026041377892828062,0.021010815411692665,-0.11850737470604898,0.06542238447872813,-0.009574121669414938
0.14710139704196143,-0.0076817509759583725,0.027845528133671832,-0.060787379197190475,-0.0063904027137092825,0.015827909573034565,0.051073745749120485,-0.20496223634655192,0.05522445092884156,0.12886065417122444
0.09690123636629246,-0.058425787571303324,0.029507319308972144,-0.07538061931878211,0.05080402928062658,-0.018851990598781832,-0.018383643871552557,-0.17562700737264064,0.06792338100302872,0.030562188316606616
-0.025326122424167558,-0.03659388898284357,0.0010021709085365103,-0.03586508586658647,-0.008082380194150016,-0.04261396797863485,-0.07338314794289696,-0.231796210345271,0.029766740882915137,0.14679906131880593
0.09199196096906645,0.046159571677481866,0.03381079105979456,0.011208982143031775,0.0009135332844935521,0.025872393198949926,-0.05662515316474649,-0.13098467606454614,0.039149604727075626,0.09593589641432126
-0.02545543037906151,0.007192717788287388,0.08416604864339342,-0.09956107502840159,-0.004642201710344108,-0.054286427732676015,-0.009389424368434951,-0.04909056195811587,0.012565688499669648,0.08507994853504414
-0.03616107492990309,-0.0037331817515704902,0.08295635099491414,0.048520159931842534,0.08136413570695838,-0.07856473614910928,0.04547231966563177,0.06640109174621157,0.06503324512812837,0.07711240018941029
0.028596443218003982,-0.07103249409023057,-0.04181490295204246,-0.02314667746805253,-0.08105657993141345,-0.013437741872808702,-0.05121163894139204,0.0712123889497266,-0.07203218212570564,-0.03112584163588071
-0.015067320138581475,0.003015828398277423,0.06551645863674108,-0.04759555773610205,0.012049349844773696,-0.08303195205378651,-0.06834047764177241,-0.024007842230179308,-0.014628409323106176,0.06410639061972989
0.024858002808316137,-0.05839154472020989,-0.023924400425755707,-0.008187368344801407,0.07065337809702367,0.006885955339767756,-0.08650747077279414,0.0189473833837482,0.030268509308090767,0.03717329534969932
0.028950829950179554,-0.04547981524476222,-0.05438207481406839,0.052334263820223124,0.05109462901852424,-0.025144310575469796,-0.030453659298988484,-0.0634699304755908,0.04298056398522498,0.03352062267152884
0.07447988053862031,0.08424261799998398,0.06090882355310232,-0.048727198619426225,0.05769034302965159,0.02783381081204599,-0.07977808934396241,-0.025800268343928637,-0.05421436239068775,-0.06143977609632674
-0.007617374220830697,0.038447192385225426,-0.10846702211892432,0.03004868361843047,-0.02778902393778238,-0.16071796334942073,0.04677011559595553,-0.03296647126618557,0.07802501103137052,0.006268804455404716
0.033823371415128874,0.15122275519106312,-0.04543429400416906,-0.003083660176570567,0.039411213872938014,-0.12573270711775783,-0.11639716970252564,-0.02621279145566838,0.14831329438690416,-0.0014572807591472553
0.01815789647782952,0.05820350077738001,-0.02997326158020886,-0.04691984313135954,0.03880849594330433,-0.1762526769619646,-0.037757209051755704,-0.04310037377242314,0.04144065678162021,0.10892101625203134
0.13311231509833274,0.21023494886515715,0.04150981490245072,-0.032827943480185195,0.14514513070406007,-0.024469733480320645,-0.10211646094500251,-0.17460419212400333,0.0656665598424048,0.0346351432432697
0.07070260724990304,0.2519633058630507,0.20578530014223026,0.0736371345684465,0.0853166695582536,-0.00984989103538026,-0.16886849471177476,-0.07404036499587195,0.05070147075248028,-0.0136265182713759
0.007547412806436993,0.0658265287140484,0.22049028827689635,0.05871689562095633,0.2541474376374501,-0.01761536990780932,-0.09924966066707874,-0.041413426013086715,0.025281989023834012,0.053777190708049774
-0.09378735020394605,0.06489866096355004,0.20710974364140347,0.1261386177141717,0.14267223850575722,0.009635121931471015,-0.08910568208080359,0.005654123124737368,0.13755064398758934,0.03168074711388141
0.029903518180464675,0.08468153237557152,0.3123863722413571,0.187424441270594,-0.044945259667858714,0.04864150863109103,-0.08921650108139446,-0.03607997326970721,0.10606739595556969,-0.02312284875101883
-0.08812158392714635,0.08784683212863893,0.17230663394857998,0.0649167347227568,-0.0941095503034686,-0.0169741190578983,0.07885978481494081,0.029655585786927532,0.039395018589238204,-0.04157743615616141
-0.11738645003919396,0.15963322457323903,0.01304926362308527,0.0009027266578645032,-0.1181224428238506,0.02608508957193924,0.1478824807294156,0.23618226995522282,0.08558593989986962,-0.15888253250180126
-0.043747427576054834,0.1507003776619771,-0.024776158200198677,0.01584553734456805,-0.12258990013602196,0.19834165513384566,0.3430323362483837,0.29457077997551906,0.03781273978172335,-0.17857595780296823
0.18709840373381942,0.16520120327076848,-0.10102347582446021,-0.052043312704820724,-0.1998182857607745,0.166076665528392,0.22963319238640054,0.13580861503110428,0.04577739184966536,-0.18580905713714563
0.11418353508121303,0.1657971630467022,0.05930694570082693,-0.08742194093949485,-0.25040039464967345,-0.014863073625614774,0.014760018748091477,0.11386769442268897,0.04461126461481054,0.019809534703535497
0.13254094528351562,0.202515217757447,0.04113058982024528,0.006943364897989564,-0.06036607627249924,-0.04811685833708877,-0.13344777553040052,0.026005734609169464,-0.01468368256165724,0.1900564312203136
0.10144671772573141,0.14648816155676941,0.03028935482651298,0.0310281168005127,-0.07186810352286858,-0.0305578138410976,-0.07390661478524996,-0.019433471790621323,-0.009226678705575184,0.13610696072496417
0.20985495927544923,0.137813034014561,0.011015453561329457,-0.007646566094173978,-0.08847441342867625,-0.049825944200473635,-0.12691781454027268,-0.01828011276149968,-0.011784357873640596,0.043028992218822545
0.10566612407735618,0.06869424429601668,0.0854057754633716,-0.04623165937541013,-0.012005385834159003,-0.033409763625297434,-0.07730875833011779,0.04157416065346123,0.03080065639451579,0.027544661862385387
0.16300249902581432,-0.036524357271850764,0.110727658871761,0.014655594411380674,0.09179250775321378,0.014757868026282022,-0.02242436030760546,-0.013336096826035834,0.06706656365083485,0.10054139905258523
0.19756324699574826,-0.06744897932918904,0.1381852728227687,-0.11334796416413817,-0.024994718582073416,0.0777240753276173,-0.0903478589578693,-0.07164664177559078,-0.007689029966277857,-0.01013322899244431
0.04117032851580747,-0.10665948911551605,0.10173353332830247,-0.045973071773993325,0.01759126673630028,0.04663864385962158,0.010003438788888142,-0.22043862908281972,0.004231676272743692,0.170891934668337
-0.0240834608701246,-0.08707800352815055,0.020467400574778742,0.033035725379556326,0.07672607354732344,0.03643545402757268,-0.018376161034522498,-0.1424149772577428,-0.015344991385090531,0.0973338446650623
-0.01995106453647497,0.057245733365616426,-0.04392005588036143,-0.07530886609600602,-0.04118418796693775,0.07803549901152039,0.024258196061531394,-0.07222416574379535,-0.10160269650766565,0.0737135039424705
-0.036130203039355886,0.042536761328428846,-0.053021781578775136,0.06890185145232505,-0.022111195012729627,-0.08084180180306058,0.024477470374427972,-0.04805186897820533,-0.06270727929172039,0.08853506256287323
-0.023718885666297013,0.054093930824062164,0.007159255386722296,0.047244322446420184,-0.04000545692845419,0.014936324277625687,0.08563118245776338,0.04065228355853648,-0.07030881400957825,0.03903032379382115
0.005570111204984907,-0.08231221535542577,-0.03965894244409191,0.05541899436880418,-0.002582153780132393,0.06800662091586859,-0.05655559783432644,-0.05543632515468167,0.0586516709382304,0.0672720682453159
-0.03980312289320996,-0.055886705503690015,-0.04718398601834393,0.028062511568566692,-0.0841020615313645,0.08090928457029095,-0.051690796206857,0.04448587378702046,-0.08539424907747346,0.0828153290855024
0.07710555209213128,0.00030531868337298483,0.048061147126456684,0.06771619082673609,-0.07624298712853775,0.047308008626276994,-0.038615300333371017,0.015245285542283094,-0.04605210597213178,-0.03955647897090871
-0.02927123574886,-0.07378281780570364,-0.030477333790174217,-0.0696803011887758,0.06191368536546698,-0.04386062595605862,0.025998234322122886,0.006747602914707587,0.04898693134588516,0.004791612246191192
0.04694093532679475,-0.0051956700955962856,0.07461488918934357,-0.10182122458917228,0.04450909664888924,-0.022202781221240083,-0.04222138200156935,-0.07367139290230015,0.06232059224577275,-0.022256126569210194
-0.08785347919393119,0.09631672866420506,0.10064397405990287,0.026966841988049245,0.1135384079617326,-0.01625008047140509,-0.06353912444941855,-0.13245230446518202,0.11374247095696535,0.0742731796418734
0.03945188428234157,0.13249054169055408,0.09963101288953055,0.08107407530180949,0.13607604839708667,-0.05403734812858839,-0.03292105851653319,-0.10839655630838832,-0.04250499770249292,0.039942753964753094
0.06428430170150749,0.08215219461891775,0.2220038883215492,-0.02235820855692688,0.13656056955710952,0.09507692729648395,-0.0768434463092616,-0.1582019155699824,0.05311712235156517,-0.023771590572626733
-0.028478971249174877,0.21345048307939363,0.1482475530027664,0.1109129598953427,0.10233231167597884,0.09639144074707026,-0.11190831447659894,-0.12397041553122036,0.08429778149066729,0.10999444434011427
0.0743006189623988,0.09203192343016063,0.15486835884889683,0.12381110767211287,0.008558560522931441,0.02391943439650652,-0.13530422228754416,0.006009414679778032,0.08404582004152053,0.13272770453729665
0.009577654507893635,0.05052642174664098,0.17914514701790643,0.0731966420970856,-0.00994705154487069,0.09419478914316323,-0.07565938842365355,-0.06670292520479737,0.088153570656983,0.039311188390873136
0.0397152747849733,0.03246523033164156,0.1673399393279798,0.06735406731562961,-0.13714370240815174,0.027270073010056958,-0.039029982063346125,0.08326321597954628,0.011704254856295383,-0.08675954975730987
-0.06538230214587275,-0.0053762250057323244,0.19795494753072523,0.09279959362831859,-0.10394173550908545,0.002099931015927263,0.04820389802087722,0.12011887688946778,0.11349129859158462,-0.15374943373117123
-0.059985897115409505,-0.011497030184817254,0.12596384227260105,-0.030509818125373442,-0.1521728762083841,0.057384671221385276,0.4213981084075363,0.2823751901569148,-0.015831567302416333,-0.16609123340981882
0.12454879567322986,0.08850195038499156,0.05406177461388402,0.06442215602184402,-0.10698835959388692,0.14445471855443354,0.4629572476110712,0.14774147169749763,0.013043183573804974,-0.17633674525839935
0.06698816227137783,0.17295344171034335,0.12090717027517105,-0.0058085529147909225,-0.22556868635297941,0.11869056702184971,0.17665550203604605,0.06526023712338298,-0.009775520081886736,-0.08881570788258063
0.11463586684129193,0.20732870924266944,0.04661972599864813,-0.08047688188204012,-0.17830619116083776,-0.01877194840042247,-0.05580243845374048,-0.04318833084390653,0.06016153139491891,0.07648640662112763
0.2222270593325764,0.13851851687891809,0.1159672968467314,-0.026345336964759464,-0.035244340591247106,-0.04047429678763955,-0.08744034983091788,-0.021070836994368677,0.0017514057335302198,0.2110420994097866
0.24267761545640584,0.15684148874172124,-0.06696552681219971,-0.020433748232548905,-0.07040090789790086,0.034927588593755346,-0.057278910578904746,0.10747690762885168,0.021907052663212686,0.192110206474418
0.1661742229898907,0.13174688604359214,-0.024157651129151615,-0.0761545148282644,-0.004618288276836634,-0.004059562845911693,-0.16066821051279143,0.11395724844720329,-0.10117623251213564,0.08186719409425731
0.2449647557947831,-0.07550433624519617,0.11179453035501477,-0.07355564838889599,0.15980329793500167,-0.07623874862536313,-0.08653530285457106,0.014073891661905615,-0.050867169705418665,0.03022204502471302
0.24229970304335235,-0.013517116024252951,0.10698323698071982,0.04125541708677063,0.12947735663575227,0.02191540841350854,-0.02651022122204752,0.05265941651626631,0.0031279324684787713,0.07698403767685862
0.14579013678113792,-0.04650295949153709,0.10476475551164355,-0.07225698269917188,0.09881814641984188,0.04432999187876849,-0.07584057816533743,-0.0902198279795824,-0.04431291901828722,0.031476787865622566
0.06688465794552942,-0.024061550831681384,0.08479422914420714,0.051388054001389315,0.11930042399428696,0.043344068799979346,0.014304619319558285,0.012329376922117613,-0.12241902845948135,0.08679735425570839
0.032489012866011545,-0.019764069989264485,0.12914591654850996,-0.03979897602650112,0.11098164029663453,0.07849570197305807,-0.030111764257458404,-0.03058039157117748,-0.09602701654596489,0.132718749051929
-0.07119020791955,-0.05899216651242468,0.004196987596246762,-0.05583894055348409,0.01114391608495148,0.04969777103693037,-0.04859431918044498,-0.05140127693201169,-0.02573904277003256,-0.023619826465844335
0.020626165631486348,-0.07179613300362395,-0.021200907056300903,-0.04133937765931427,-0.013501592001685603,-0.01874618385430596,-0.0013552610887394999,-0.07802612149856657,-0.11339228996746725,-0.0606856400961239
-0.013938826945129447,0.06796912770324504,-0.06362811041754618,0.053365630252964764,-0.06844970165158201,0.041213207970237746,0.022429968017937132,-0.044880422370023626,-0.0588886332148299,0.06553656962571497
0.07008634592801982,0.018205060135247822,-0.041687121236035324,0.013092078060695789,-0.03233282023832061,-0.03882868679903935,0.02454735042189443,-0.0832237034732644,0.021735922266834073,0.05492475322016585
0.05264710278766059,-0.06928559389616225,-0.013553113039042266,0.02981721169879459,0.07605526588943823,0.017255508748568422,0.04102648489872151,-0.011630733146202053,0.06921332883804415,0.06257205339007288
0.06998387654427882,-0.04930456154614201,-0.009681141409119586,0.026051231657375013,-0.01800104508659048,-0.0790759628012463,-0.05822505840627481,-0.07383420792938117,-0.07501325192917586,-0.019176971608975687
0.019399745263369204,-0.092173529538823,0.006754665053103693,-0.07357412781614273,-0.0250141119380883,0.05826693194513699,0.06957907978544602,-0.0070365405014396155,-0.043463101744621126,0.026163492154832137
-0.1259332990342911,0.08827521333171044,-0.01990025364437684,-0.005466951886505546,-0.03593127201033184,-0.02690667382914139,0.06898199699649943,0.031597228832491255,-0.08116162626264442,-0.043642650182434774
-0.008777569594830595,0.006400780452526079,0.014954869523819381,-0.0646842291272381,0.04109295096045093,0.07799117856518428,-0.09631502515094002,-0.0864720064881597,-0.06392734729922776,-0.01068808693039568
-0.022680908054395536,-0.011478158681484076,0.09665289368313461,-0.08018731525763619,-0.010472336824865138,-0.042819454346853816,-0.07614466445545975,-0.07565516579511003,0.071991177438747,0.11049048679097952
0.08358492076208823,0.019992563662261317,0.11166150371634026,-0.0028035978945749537,0.005262752049844999,0.10683840468562003,-0.055283804710505674,-0.1748280265176121,-0.015101103422776662,0.002148697604778062
0.11871962836802802,0.15335525144359544,0.1459200821282875,-0.05254927961684374,-0.02842254047351083,-0.12448999536589182,-0.06120167286570534,-0.2225626594142059,0.07425471029428389,0.015189706891538951
-0.02898751538940464,-0.017484627479279008,0.21887036342680058,0.03391717946734088,-0.11330817563386446,0.049940499880046146,0.005392739565143579,-0.19196763686738894,0.09796075108724664,0.09033101774694413
0.03250345499036979,-0.06629794043147888,0.05881358052137785,0.0016562117680259513,-0.007831383716054982,0.0632339974579315,0.06659678622507488,-0.10745992828634317,0.13173307959241942,0.07664103020828467
-0.041921694929247355,-0.007931187887948039,0.14646299372054342,-0.07964627959573833,-0.09858643337533383,0.1746469154405132,-0.007319492525363333,-0.08394350700590925,0.1735721962621965,-0.1081612157773207
-0.005077231853405613,0.03909042450827957,0.17606545498751655,0.10079172344315494,-0.13907248903728694,0.09817339157633823,0.18477654099528687,0.038234278513802115,0.1226994576242991,-0.06785734391452183
0.02656724486041287,0.11795552284627019,-0.004266610992589046,-0.015197704889034106,-0.21553400991789015,0.15324060152788607,0.3315468083089909,0.15748821591198103,-0.03544672471555677,-0.1435722649629295
0.15290805576198035,0.1919182783090888,0.008197311415785512,0.08961509520070739,-0.1532119781736045,0.13533376780945794,0.456709162773421,0.03142673913946005,-0.03928263253520735,-0.1153257725379306
0.2065964202515079,0.2393707633177584,0.0848037089308146,-0.0016200722486616422,-0.08351499796115361,0.11927318023823746,0.04652188359854372,0.011424360905919447,-0.059834269058207025,-0.06313071304289064
0.021884054593444825,0.2669986837950037,0.07420182961957246,-0.06767015124951455,-0.11813822598217733,-0.06318095954781877,-0.04188823925922659,-0.046444572654745164,-0.06739126554081855,0.1475752517022439
0.15108283090348737,0.18709045206628483,0.13228044720366644,-0.02361532500088238,-0.1412605355904671,0.04027201277530144,-0.0902814218827739,0.060116636630074605,-0.044639080788245286,0.11803042087134769
0.19645035425323235,0.034639367280145175,0.08538486625337215,-0.018043910233025963,0.06459055225893687,-0.03762598651441931,-0.14472102404159917,0.06013929492246471,-0.005884285823545859,0.09265008982486765
0.1096714979017464,-0.029298359673074356,0.14267858468280423,0.06465998806530994,0.07208547872128078,0.15189936087373565,-0.0834943400802874,0.07281559600815314,-0.07775128025502685,0.1215684095689963
0.1240151650828172,-0.05329624370436343,0.12585184643045258,-0.001182307968469119,0.13765820072160218,0.06999512115413754,-0.13276967433659154,0.08025084082608669,-0.006129199537295684,0.09210203972476083
0.17147935209194023,-0.0632330930438169,0.08206260145345269,0.05209590821679122,-0.01027948394187741,-0.006976477933641356,0.05010072385875173,0.05901081107474876,-0.13504686098508573,-0.0002868519746702306
0.02286978904579556,0.025144622596132846,0.07142010865791057,0.0403643403564697,0.06919990358908777,0.010283956841756134,-0.07582962645808589,-0.001760765947151186,-0.046408555047557906,0.029407120909178432
0.054413785827587983,-0.1457607865439909,0.09492646527656433,-0.0073904413326001716,0.026752187128566782,0.07368666545714013,-0.06792825980480961,0.07343734878219393,-0.07137988774858796,0.10052584584244699
-0.10806133314848702,-0.006576443452920514,0.13214992074192275,0.01721005710168724,-0.020171736005083145,0.0944357693743086,0.031737940286837706,0.07445356505194554,-0.02586975247041372,0.08143668886542497
0.005308286549952372,0.0630940440528931,0.12476362463024511,0.021228180001341714,0.04486173165724422,0.06697858498554979,0.021505408973832914,0.08854539572206524,0.02386848017617962,0.10864087562865804
0.018364379902659572,-0.010247383588089725,0.09575348573129341,0.014660567834800542,0.03069297243162527,0.04882992009992905,0.06087462925867932,0.0008970351622805051,-0.004930785965765527,0.005467645284636103
0.02585274910612307,-0.06824581289748081,-0.05406304588766883,-0.003668465877244061,0.07065542583730201,-0.07875274656622548,-0.004197278053095637,0.06529716256099422,0.0032218478309093534,0.032268877008079073
-0.010543326189313182,0.04860806863797365,-0.07146310129421019,-0.050656463332193695,0.05313050607622413,-0.057556304828762395,0.018249269379398414,-0.06649617109452866,0.0062178368213528235,-0.06252258058591245
-0.03221266282299,0.0813283366707169,0.02083191279990313,-0.011416445013871818,0.0803501030096617,0.014997232894297226,0.0469433936319802,-0.06086980726872901,-0.021946862287030404,0.07434549606208457
-0.056589555420198445,0.024031731519687235,-0.008200023980722473,-0.05215858086709959,-0.0618270132010492,-0.05605887580037779,0.005777250533605931,0.0464573478461282,0.07829211433267783,-0.03483596549797383
-0.019647367620161046,-0.08758914844794365,-0.01236932897109864,-0.06810415515077312,0.05804250973679244,0.026421289511817495,0.041501619736517906,0.10806832756292695,-0.011484360952027267,-0.0973744528510561
-0.047157267480364154,0.01899807875335409,0.004248672505895443,-0.06301308036078847,0.003145050016363192,0.022818637248549545,-0.02298083949332337,0.00131539697580317,-0.07152251710753346,-0.011530245631069119
-0.048905061054501056,0.008195677497347599,0.1206143867548978,-0.050306527819167564,0.060580422163281446,0.0006245390314609225,-0.03077822131724801,0.09730508112085814,-0.1181096291332646,0.1233961048308923
-0.07356444971384805,0.03953677262073603,0.18011243951567293,0.02836295798860862,0.05211087725782102,0.05441733188778315,-0.08046654017308766,-0.12264850242521919,-0.02157366147241294,-0.0062747135993940824
