-0.08496797279104097,-0.022378683972125626,-0.048125927798558565,0.008743444233078324,-0.06069341524463903,0.005570702396129779,-0.03164619558150168,-0.011703954017735899,-0.008533679383284962,-0.023995526582667237
0.028606876116363297,-0.020700357629316823,-0.002219390787214226,0.04647372943137795,0.05840992728887398,-0.015101094732217643,-0.012824512836061591,0.02489626583087956,-0.07376787709981067,-0.08552411208806343
-0.01173916035292423,0.02531055279169539,0.07107778783654786,0.014460188495708307,0.04099257481852822,0.07948068851751935,0.041535288845438445,-0.08273273587344232,0.030822421837810435,-0.07071454668596941
0.07018626353799406,-0.06908786378257545,0.05573966150563173,0.08543802915123011,-0.029987941582116456,-0.048025829477274885,0.05486754973808283,-0.0025846384392335386,-0.06802806845559789,-0.07171888263423401
-0.0352660119087895,0.03404340517656336,-0.06959441626271884,0.06442365896893465,0.04069145125648155,0.05745917798789241,0.018038677770064973,0.059729569296926854,-0.01137073253142655,-0.012714805448452451
0.03056487910347122,0.08261338780210403,-0.022842485936866358,0.007044151421858408,-0.023047605794818224,-0.01735604582428389,0.04903141616836584,0.02677734684092091,0.01625751681084045,-0.000626960511862687
0.079252585416759,-0.026245382311190946,0.05421587536650921,-0.04192946794617837,-0.015693153665361656,0.03137795305159641,0.0594375675905483,0.032191695247706195,-0.0313766250297789,0.007592716157016427
0.07451947820065455,-0.004729889329560602,-0.0030501116350349494,-0.04431556673508031,-0.0828780591649538,-0.050640617618404035,-0.045488286161728904,-0.053107953569902465,-0.05232981471727115,-0.0636510244290348
0.0013019500649085886,-0.01394825256606766,-0.02286493245404811,0.06652934302173139,-0.05295667774160962,0.07741512508784637,-0.001230435858368642,0.07763550582517192,0.06522900798352435,0.06152014941767964
4.374546525542922e-05,-0.06741329399924816,0.05835144718669008,-0.01925329199857219,0.08359648491786639,-0.053742093061640635,-0.08093905239432024,0.06072915590976369,0.009254741588197987,0.07155933638150258
-0.006164277362995366,0.08151833815000878,0.05760535029105787,-0.05772616738516509,0.04246884509491736,-0.04090231131242728,0.07364576296262876,0.020243190192640287,-0.08415740112004934,-0.05925682389291316
0.042688958285030276,0.07306884054307297,-0.06182795102236559,0.05237882816501821,-0.08338304292322701,0.012148762545768785,0.06211228191693938,-0.017100386974351525,0.07178420013451106,0.0695931517430016
0.02653227651310358,-0.05285779549747742,0.043944647604274134,-0.08345870819615361,-0.04657681232951081,-0.06482055047159986,0.008251141113877578,0.08106438560809631,-0.047723224442088284,-0.028577836781555684
-0.025550694201482566,0.06872810610570201,0.048253961355560454,-0.0016191836435440476,0.07045812670210475,-0.029748321286216857,-0.027964563167419916,-0.05545930565487244,-0.0013285819460065462,0.0638215257076272
-0.003359374813452609,-0.03335129549187433,-0.023878799157705202,-0.03596214871523071,0.00448579595529458,0.02072078978104608,0.02924990748361793,-0.018121276979208734,-0.07533525801517763,0.0859649039074126
0.018130577775385126,-0.012112943847717009,-0.032739950685942674,0.03251329671534953,-0.022448590113716554,0.04354371149969122,-0.07440630448440608,0.07702316126808195,0.06197394044841928,0.0790493967807962
-0.05230331807477265,-0.04897446541282851,-0.0041263829673887364,-0.010755615488295123,-0.04580544481636025,-0.020396426963384576,0.06890596101108917,0.06208884679568638,0.0508290004026081,0.07035573371115139
-0.08604481029035091,0.08640882419899037,0.07709714650658,0.050452687331155543,0.05204372117433856,0.0495058592431645,-0.05406456613627128,0.015036421036225253,-0.061074973316262354,0.08654694151856593
-0.06985401769009075,-0.01082004878783209,0.03833767309464925,0.016332961204125335,-0.050105712704888485,0.025918502138244412,-0.004434000118743439,0.0325864498004112,0.0553771705024122,-0.02594120804126772
-0.06753379460547064,0.07446076711391633,0.05258008538088721,0.01932595555768775,0.042932142505687554,-0.028627328408193216,0.06961350690963689,0.0841665164188696,-0.0323417202990862,-0.05041445675090318
0.06000197451518757,0.03209814808669299,-0.04099513866384322,0.08320886397360955,0.06690389804921776,0.056818892377981156,-0.03531393546287469,-0.013015606103417884,0.025355365318589368,-0.01966135799573039
0.015908002828326426,-0.005021260246738893,0.042904121601508444,0.038532188053640476,-0.013468973601365924,0.05243118759806742,-0.019184613713005588,0.032045722340587,0.06962928355735287,-0.08225372727511007
0.05682753322778514,-0.013537329678779048,0.05456095219086324,-0.03161479774432089,0.0013785848007333429,-0.07858207934324875,0.031164321585252244,0.013326217648197483,-0.05400289498382906,-0.0516742796563324
-0.06303884120647596,-0.007259050920889215,0.021365553950108238,0.08078947735532518,-0.022429815839834402,0.08591600669477259,-0.06860815104270135,-0.08312944895095409,0.04811701514837266,-0.03192462299872723
0.02791961330899269,0.03267391981398228,-0.06520098401499665,-0.06227567225865928,-0.08084894256939194,0.06606362383588993,-0.04231956922840367,-0.07914122359996598,0.0032177601062993305,-0.07226038784016209
0.007287996383911102,-0.008791474313969122,-0.04563320786534744,0.08030805782103545,-0.013281017277813945,-0.07372516008469077,0.08119096744034643,-0.007710868949287311,-0.0346417552103892,-0.023813449071337173
-0.08521408904991554,-0.06379033496074524,-0.013156222927691252,-0.035125768141144494,0.025470731683999714,-0.016266104004548324,0.004767567426814015,0.012686203212434619,0.0752924947964326,0.04961477925887131
0.07826303524965875,0.06424210916961098,-0.01571943980995906,-0.03779190576041208,-0.038256602374213765,-0.05064829293181044,-0.08647520470039302,0.01774809258295036,0.06340170843391066,0.012739317673501435
0.04725513933498923,0.03617140145355527,-0.04250197756146321,0.04160740946775068,-0.06282467491750472,0.029873761629446105,0.039070022775991003,-0.03331793319133332,0.04221940676099126,0.021628135823078
-0.0073104011747748415,-0.016816315923495556,0.06461482367805149,0.05077745671718642,-0.004870885846409503,0.013712018908640045,-0.03401990189932716,-0.06439444169564652,-0.051116277662566406,-0.014745419293902884
-0.08010174911123963,-0.07332965856877875,-0.0730431835634596,0.05036950280886135,-0.06494278867884923,-0.03327161040462644,0.07285309168628185,0.084591582122513,0.023265400710896486,0.025027112163285167
0.009262068319232458,-0.037246928348855055,-0.08052234357697052,0.06064150045862657,0.07161198919228629,-0.031559906843448476,-0.08333530064281043,0.025453300034751478,0.0641433530263284,-0.061093748811877735
-0.006190128947001092,-0.07447061999728309,0.026815999750946146,-0.021317013534379578,-0.055766770161642304,0.030837997641640455,-0.005694017317622771,-0.04898087607536127,-0.04336398260040482,0.0660365674119058
0.003605491681108172,0.0010655528669482744,0.02121319461258056,0.05536814212006394,-0.08422545389999404,-0.028311542741720437,0.07588109222269812,-0.05670511474012224,-0.06268972234798763,-0.05263367374289666
0.06986883237184467,-0.06269498505548718,-0.060081030212979794,-0.04381628005581741,-0.046017950818808134,0.02652109862245422,-0.07098047611618336,-0.035768461572387486,-0.015727678775970512,0.04973369434142714
0.041577253997160994,0.04849436057238995,-0.04328589331912741,0.07493487192693911,-0.010200258758585002,0.08026673945053178,0.04470946620570444,-0.07859869755574934,0.07904816653172947,-0.03877712753625047
0.005340639234262067,0.0782443528599627,0.050638371336285154,-0.06385988948162157,-0.07330791175868244,-0.04609550120333726,0.07740734168517388,-0.051362034041013256,-0.022897995366592292,-0.0511787536025578
-0.039624496483577076,0.001254122263233395,0.011306781390049167,-0.017968642916246207,0.018015222685648764,-0.014234897540771348,0.04751074396792633,0.06637470285381476,0.017142706257377918,-0.026248221067965857
0.05136911517894903,-0.037812216549000154,0.05643048134579855,-0.013475704456516885,0.007460017930374155,0.08694376278690225,-0.08283750952524724,-0.05600581093008751,-0.06370679108168645,0.07551101457493592
0.05265730208007493,-0.07321433633365636,0.08774270007177692,-0.014628029415296822,0.05743573660130739,0.04626976372234099,-0.08183838091305344,-0.036977331981332476,-0.03839652098023848,0.027119204978359106
0.07132008790183902,0.05755183271390209,-0.07798402061742404,-0.056875210510684684,0.05677179621237788,-0.04022365157980859,-0.038327428049825675,-0.05632115939938599,0.05073341683612816,0.0478267001363022
0.06559548649973045,-0.07048047409114627,0.03527563916845001,0.025146030661721153,0.05123334022104872,-0.049404923303184564,-0.035452721373922566,-0.07676498405579256,0.08378051437907473,-0.03084457159184532
-0.0674678151369489,0.013312157058852156,-0.0526034572253713,-0.007389369086625037,0.016790361048505408,-0.008583822063344711,-0.07882672255184993,-0.0778218780491167,0.010644147790467021,-0.023570715123561823
-0.004364504450809836,-0.04428152024879001,-0.02834976286245035,-0.02190697677839001,-0.0612574421660677,0.034707215998146114,0.007900017524493324,-0.012924445952988294,-0.07931990143392909,-0.009723585778045364
-0.0706056804739664,0.04643385875706841,-0.015626078966272865,-0.05041075456866509,0.0863068304985072,-0.017140006866057753,0.07805477880231242,0.08546354890515645,-0.04102291838956392,-0.056918752445673924
0.033068707746278375,0.06745907042066333,0.08345012616367947,-0.03723733087525128,0.07551520769584318,0.011557675558161602,0.047598448308098805,-0.05307565618776958,-0.036610590551999875,-0.008966939746194042
0.08067790100218729,-0.08045135481937485,0.05565825532542744,0.06604935364473861,0.04186609145798852,-0.0025445381757862795,0.009166346321881978,0.0031419228003172596,-0.05076461254341519,0.07918824099171742
-0.08365359552231413,-0.03656262959683483,0.030758436545502144,-0.02008239310142293,-0.08076203114475,0.033234080288191234,0.009913203554772139,0.06323231313173987,-0.04815437572538674,-0.048224056436336094
0.05051731117437039,0.04283671414380541,0.08192770531778155,0.07729397394371268,-0.049228710731569335,0.05120503545038357,-0.08512176541824373,0.07092412782742316,0.070696595385777,0.03708682810461975
-0.08633859907365687,-0.019740091751589226,0.020885473354548323,0.06688468081699853,0.06180277693290594,0.032544832276312975,-0.07020914512841263,-0.030565011154315938,-0.019419885310740695,0.025760297513501527
-0.06936683367009333,0.07297176865630009,0.019048106555669672,0.03284972517238485,-0.026566486712184527,-0.01656630949834835,-0.05363564576507889,0.07526543364128221,-0.0638245939812971,0.04164421465492896
0.04925975213780573,-0.02367701879263015,0.04298598947555837,-0.014747213724477376,0.0180953657524459,0.0809937251772396,0.0020125799485511686,0.01993114352479365,-0.021825390857107302,0.07367326490899545
0.03458741633288871,-0.007468487570458565,0.021494826960436544,-0.07617598902004241,0.013107644746825298,0.08275152359280155,-0.014516304166111701,-0.0534963158542402,-0.008816124210531393,0.05004073306084453
-0.06047308710227767,0.06353266740257013,-0.002128424918234756,0.025141311605312244,-0.046640626437743124,-0.033426175405096355,-0.023828831837627087,0.023719077303644878,-0.039044308666544056,0.06594404232880632
-0.03750564024141867,0.012277119238775808,0.07959916666813718,0.06822157076817165,-0.04077755208797853,0.001031356941343875,0.044951218255938175,-0.07487692749710073,0.016766260593783944,-0.07907585844737802
0.045167166465334585,0.06364471824056928,0.05716782464841036,0.0819964355435854,0.08536278667672323,-0.05345178610493382,0.022359312192256273,0.06169042461205532,0.06557974664018168,-0.03230063699688963
-0.01562351693473038,0.05554000221075023,-0.07360879289977582,-0.043998347843411,0.03058256286958691,0.03637486580053202,-0.04347163446640073,-0.0721208178844383,0.08622041272179279,0.0678703756744822
-0.07335160053071621,-0.06958968145092001,-0.023774378287578085,0.006773601591150882,-0.06942672521984118,-0.032682459973351015,0.033564145978634524,0.012397442041620785,0.01040698356708604,0.07440460317836461
-0.04125324967218301,-0.033304426660287524,-0.021224369261772555,0.05363137478593297,-0.04123739495088201,-0.04273372108479015,-0.03108911673573063,0.008143203197604199,0.04995568676957135,0.06136385694135377
-0.08437995244588882,0.01598313970872092,0.05586776452148437,0.04937547339772618,0.05498283490116064,-0.008337230480855287,-0.08545525914166922,0.08348239701839716,0.07360508682565081,-0.03849169293188284
-0.01758939374171381,-0.07326121772009944,0.006361028767184043,0.03267490335808347,-0.051528809813883726,-0.06194140318607605,-0.001073027598208736,-0.08657120578886209,0.048377224482795224,0.03817384354868274
0.01952751923999659,0.005633816713125747,0.03062653994642117,0.03387314242487222,0.05545954662478349,0.07530378612203846,0.01932776278972397,-0.05769400956972286,0.08279815982534697,0.019398814171533208
-0.004246586290760885,-0.0022603460170303276,0.014715926386806693,0.034611479531286043,-0.00657039936774923,0.005999792491330887,-0.06097907514560773,-0.057628951534863505,-0.023439728734255365,-0.00450347871158354
0.018530958659004004,0.021722097345495406,-0.03743863641219564,-0.049502426780171443,-0.029601488315100486,-0.012850179389702284,0.017764435988936855,0.06476586744643273,0.038634512381028344,0.07546806437992129
0.04505504893021281,-0.06304378470048672,0.037595919191335946,-0.026823671616587833,-0.08511129655374305,0.01386633997129401,-0.05954377550395604,-0.06231927221096557,0.046486354966434225,0.06340906229586228
0.026500225933911357,0.004927201450205734,-0.021660767757700428,0.019587508128666387,-0.03462133926182432,0.03931153898384585,-0.016700379353976606,-0.061187692290648216,0.026230511106354402,0.07050073241517156
0.04495004628169105,0.025106355770943355,0.022560021846618795,0.01485713161713287,-0.06304221300829521,-0.012337638526770445,-0.047845436464777284,0.0007432085628083672,-0.06744054176520471,-0.08479759176330597
0.0001411041056585399,0.007786294065071868,0.02100803607056926,0.05121889383239822,-0.08478489523994133,0.11263108234439555,-0.0646138045403697,0.02893050955160033,0.07813409417190796,0.04983930208525101
-0.06674770901971942,-0.06944892750811664,0.04660633927260229,-0.056223617923952286,0.010926905667769535,0.07627294291680271,-0.012583898683781816,-0.0020016394048832467,-0.0685947790467099,-0.08134777925976325
-0.03780606494369653,0.004552212153002735,0.0793515106521803,-0.05623041892118237,-0.006868498007761444,-0.00022308485166519387,0.08075613978378836,-0.05508471081214257,0.03661811706671423,-0.025107376142684927
-0.062734110746879,-0.0349747503170553,0.015032847806334963,0.020496005299884282,-0.06412623747277785,0.07556246557763488,0.05663770337822061,-0.06264926704039726,-0.05173087600433251,0.04906324569727322
0.05263062541232526,0.028465020561187892,0.01011172462427519,-0.0786549579126458,0.04062879527384731,0.07915366939348455,0.05160999109814358,-0.05489669105021581,0.09552027669029939,-0.06456854137083873
0.11044076310193027,-0.08129335605498673,0.055680771322633965,0.0881223369419426,0.03611417298436861,0.027836845206286973,0.08147652298897713,-0.09161002184093578,0.005569387869175521,0.03172739893743573
0.029155909027081837,-0.07310367617894822,0.05389483894042892,-0.0472708704654642,0.011832335034444722,0.11505751806667976,-0.07968616153270837,-0.02335521774223551,-0.008680950127500557,0.006248671340798357
0.0678095683558702,-0.07753053864187648,0.08671797815874975,-0.033861209006402576,0.050112391640339704,-0.004651881716392842,-0.009292557740136284,0.059233107483331646,0.013415445989369378,-0.013531289850210078
-0.011868949151683732,-0.07480690064137228,0.0777673793004765,-0.004444139376369809,0.008836627926191224,0.09854293808826495,-0.08390868871325594,-0.02663301007835026,0.09270198997751189,0.04857013069165054
0.11809281323711653,0.02981213303897169,0.04705309770227356,0.05992683945685874,0.07279441285536324,0.044623714334457366,-0.04080422600608861,0.010856342667639969,0.026227342815446912,-0.02017323315806574
0.06401505155787067,-0.09033078909386193,-0.03683563316387557,0.076269741977213,-0.03545929187638715,-0.02024341427144954,0.060732517091818934,0.0473431236926054,0.07131530303989211,0.06125596863349004
-0.02151005214392819,0.023893319756413012,-0.037290535342589436,-0.08323370575953343,0.07748171430103522,0.06891966666220598,0.037469837386809104,-0.07355427155456921,0.07955695596737694,-0.07299258933538195
0.04667757764108007,-0.08307965103416749,0.0869370454428634,0.04331042644109439,-0.08452273427106588,0.05584085238900884,-0.04496405461141452,0.03599265376033937,-0.040412744346216375,-0.014057548382629775
0.054569452379466706,0.04813337583291391,0.07474200404523972,0.061191319341024536,0.015335219882519253,0.009795035849878436,-0.02852351008252773,0.08792982476094456,0.08297071142559086,-0.042205761210764504
0.00514681607592281,0.013440654744641796,0.019077709839086493,0.04330022658684459,-0.030359336908907016,0.0464489873596655,0.02321256061859999,-0.06003999035868285,-0.015372578862123195,-0.010178527446090945
-0.06853186444233644,-0.03901266043781048,-0.006737620713314463,-0.00089967810133737,-0.010957338339141962,0.06928298366410235,-0.03068944188213555,0.006024889379124709,0.031511998189820575,-0.022051920089997235
-0.05795675194705996,0.017084451114808663,-0.07734855934945274,0.0406797613807586,-0.060195747157555005,-0.01109311152106636,0.058063063281403926,0.08154610129088849,-0.0713585185502264,0.009437022447217364
-0.01284845036870387,-0.048069665416892435,-0.050969985114705234,-0.006790629795245293,-0.08159530438361237,0.0738354093698654,0.07676997041759487,0.05854883742967065,0.04513666929556914,-0.05797881939533362
0.029078228771958328,0.04397285973634843,0.003139346852203642,0.055494094133086896,0.024515218162826674,0.03146967204521031,0.022612782327392847,-0.0674703285828101,0.0844724340578194,-0.028705532686685242
-0.012969325900286197,-0.029270977952441636,0.06634545443858011,0.06672820301805155,-0.040742683437240454,-0.01926806284991596,-0.04295278930918611,0.04828991354084003,-0.026045086798261202,0.06318422163713622
-0.014795407658632142,-0.028394127825634538,0.01008202407916394,-0.045370508707679155,-0.06611548232051884,0.011643306986228555,0.07262757597025529,0.07207908343358067,-0.049202111142201445,0.05711131917406192
-0.0003294748414694673,0.02403603980646461,-0.0414871285006689,0.08514521599159998,-0.07072865584084596,0.08559200644986852,0.030041224114091488,-0.05939402132032893,-0.05793432498157783,-0.08641543474906743
0.06522282277302806,0.02560072509523965,-0.058333144293243315,-0.03555322138937123,-0.0023801039423897658,-0.08050571317086457,-0.039640476685275115,-0.06696078294787303,-0.05489968289755353,0.046960433940536
0.06182695217616686,-0.010104248882742774,0.0051464661602345415,-0.05915365440883467,-0.021293615556246145,-0.06142967457807931,0.07611980397975791,-0.06804883499433778,0.07787020865759597,0.0032910993046284605
-0.07534947245590456,-0.031685023784078656,0.0809555132900146,0.03134998337648115,0.03914731974852331,0.014218582606152823,-0.07770669898812564,0.04326902647711149,-0.044422397334700804,-0.07753984907454754
0.07171991570651358,-0.02147896932067663,0.01963319894585156,-0.0022611251688937793,-0.06389803654227585,0.0033668070049725643,0.03188080225097755,0.06635581336882718,-0.036336663200029574,-0.06489490029319328
-0.0875309441086513,0.054537425327184176,-0.0004634349951680949,-0.09063226359579134,0.015678129074295177,0.05894143064736802,0.0036164455718594233,0.055465545396501593,-0.03134867965721877,-0.09835122250305676
-0.01961151897856671,0.03216608654011452,0.03407531364649241,0.04654557732640065,-0.062299529946905116,0.10169739545753718,-0.025587432740124552,0.025402883062125896,0.045294205529413156,0.06315268964747359
-0.0291863557186745,-0.010362962963775788,0.07226600903693914,-0.04006514026286432,-0.03908332238490814,0.10356434591894292,0.07299151010898862,0.025975907911830312,-0.025357922307245158,-0.01741763650439201
0.022634187681337112,-0.06432896625981607,0.05206203047920202,-0.05320299823436688,0.106996343274443,0.025343085177608617,-0.0641596204174242,0.007791581453936256,-0.01633186016101703,0.02079327458870789
-0.007965286941599573,0.015380588217724542,0.03629900614318784,0.04981614430336178,0.01828328943728497,0.08457618081521127,0.07283953066364124,0.021497829770222125,-0.09272683585503672,0.02459612101277713
0.028721098386091777,-0.11867454959014019,0.025836002026623603,-0.06501835124637984,-0.043160593614608514,0.13516008746556568,-0.021673108770125998,0.016892430932439403,-0.02297556262147664,-0.020821538566177203
-0.008897990775740045,-0.07219890714191772,-0.015117582405631793,0.014219129210413958,0.07216515311435427,0.18339895312625412,-0.056763779702394976,0.09232422951732533,0.01868008627766054,-0.09854037989813468
0.03969077725850342,0.016391554507798427,0.07550848300298518,-0.010370229028730157,0.01843083927594855,0.1812109100515953,0.039879660595216304,0.1057312774532484,0.08791049027800989,-0.030314923798502327
0.017786924120606857,0.016175801502885282,-0.03725053476676611,0.0759296559379052,-0.03029126841116363,0.07446405247005948,-0.019684531274203745,0.08940406200499049,0.0005491240042940212,-0.024302463591246132
0.09388114951266587,0.003716823094894103,0.015676194823190652,-0.009179311944780383,-0.03961006234764996,0.11948707313785012,-0.01742081108825523,-0.09047399180697596,0.08073035983932601,-0.06513528069487015
0.028889039537823083,0.015016701456582484,0.09361004502275479,0.1035062814874182,-0.10176007494792658,0.07785657162918275,-0.07736450013724323,-0.024811214064212665,0.012849576053001962,-0.1073052279163234
0.05993374717007574,-0.06448386563521667,0.03483640363273597,0.016218212670862018,0.0008582741982914022,-0.018942570168906873,-0.06422696876324693,0.05377641891417296,0.025625446579982974,-0.02075718617612242
-0.03498653824347803,-0.05364887428300171,-0.019895224177505815,0.06763367209310062,0.08196295601703539,-0.034152628837729515,0.05567913708426715,-0.06709160750205594,0.06323904281975518,-0.06826444644597528
0.0030408766912929197,0.08423933474622239,-0.03676976459807876,0.0773729905154959,-0.07241488558563314,0.020536173266394245,-0.044319769911910736,0.030311899736508652,0.07578919714186175,-0.02397427977476792
-0.00983064160378538,-0.07915575778847739,-0.05042211111009392,-0.032886940095583794,-0.039287740138112426,-0.053237634669425986,0.009170746772173279,0.06959355764801001,-0.04061997536260011,-0.05543845605885542
-0.05605469583642061,0.059532200945925255,0.07779723793694028,0.07992117168373754,-0.07624463510408112,-0.07144902257369136,-0.0387405485764504,-0.009118448538616094,-0.02320738970738753,-0.093247391825666
0.06106514957442283,0.04579558666135639,-0.03833081248352632,0.03739336174732725,0.05135381901384413,-0.029760444756023418,0.008524939053208684,-0.032788144334824146,0.06919807845943587,-0.05583202908600435
-0.06263599522082348,-0.03234026662166519,0.01682385078288441,0.07601689877335852,-0.028096508401511344,0.04891007806022081,-0.07444609669072073,0.0868459362579602,-0.04026806694650472,-0.04531435976998631
0.07366341128837961,0.002023174808083103,-0.07204605112342263,-0.08305419120470185,-0.055853570122574345,0.007077370613137693,0.02326818995295034,-0.05194417960915367,0.04801727472228298,-0.07348418126297895
-0.044194214954504846,0.0008799705436585287,0.05058698513197343,0.06457299261374652,0.07630924904064271,0.060324155374684635,-0.04942279131538752,0.06049811379704992,-0.005533973482247392,0.06759339239025072
0.05344707519241046,0.02106798424425031,0.027695517008495357,0.07608496820047192,-0.029510661315074967,0.03340629107166336,0.0754454441382405,-0.05703756469437364,-0.08233434402828411,-0.04438674628158901
-0.08646244228661012,-0.0016381716185025032,-0.0609864789880494,0.0703775099492084,-0.0670065082612357,0.03979514896151085,-0.03365608697902546,-0.04153032331848277,0.03345338990799349,0.06347719012055855
0.08096848528746478,0.07325526602585239,0.04870256813953085,0.04037276972363509,-0.042380745606813174,0.03521373124685395,-0.004435838774722668,0.007237940783204109,-0.08336906159264032,-0.016494096172018517
-0.030369739608422104,-0.022830907881184682,-0.05966234042475546,-0.05987710478826972,-0.045907727084277185,0.009233763805393844,0.0358578700900378,0.027325296349780166,-0.015853370148222082,-0.06977026640672726
0.07622386573564675,0.058817561672720474,0.03951545184925121,-0.04890963430586551,-0.011927904110197023,0.07098068029394737,0.027945909120641797,-0.0639892427005972,-0.048617279425574284,-0.03435686953999175
0.0772456719371474,-0.08529753951579212,-0.05749650439914621,0.03100736383758445,0.01930449920454896,0.06921096669667039,-0.009387790031643306,0.09380822331639946,-0.0010436770978006122,0.04989991410162797
0.03920585097180476,-0.03210968353772749,0.11185769203204508,-0.006519754669688472,-0.015848353628630154,-0.02975577850083362,-0.02925841669381361,0.1149695113372872,0.018549706079745407,-0.03484107658137161
-0.0642461510520309,-0.05731897516186381,0.048511742898637654,-0.11446812871652179,0.036471868643151724,0.07793822254998915,-0.008682340025199818,0.09364422428862412,0.013737885910858273,-0.00153391519185721
0.02007667248283378,0.012932051596253429,0.13696357747956928,0.029002846542299995,-0.04837095736036844,0.08612397017936124,0.025085941770842713,0.06257881384835502,0.009880241330145319,0.023850042006624144
0.03542412328750456,-0.017637680511070567,0.05589405514540693,0.001865677937586155,-0.024253186098103802,0.17056173068106473,-0.003966219431635027,0.0703438900976255,-0.07280583793494391,-0.06642839608854056
-0.044998263367084734,-0.1150309308404761,0.13878751764232064,-0.03725570968306883,0.06382730475657833,0.16035422783239703,0.02386962382668986,0.09741801833680919,-0.027022781162489053,-0.06324390761052559
-0.07064018769011285,-0.07440176696608283,0.05236397530611443,-0.062398383183992066,0.060831057351202165,0.0361698907229358,0.15402535027541364,0.19469102978314673,-0.026941907114630383,-0.08200530779366977
-0.08183698763236519,-0.1554335761304916,0.026147955349800543,-0.02808099395376523,0.10685641523222997,0.0755220876738803,0.07553191385894042,0.22079943578638564,-0.013279112286317753,-0.11283142013034123
-0.04909822840891155,-0.1728066548840757,0.029999388095510456,0.0022897644207669197,0.04116645382182821,-0.0062477570357338755,0.08958338915278238,0.18620452641551197,-0.014921065089479907,-0.02658728870853117
-0.043883084298023824,-0.06421212357612276,0.07738834500297372,0.022103563821740467,0.08339047836823253,0.011063717061893543,0.12602451923535,-0.023359401458932214,-0.018163618813316115,-0.040482754288475774
0.0202163369407375,-0.11602071711401284,0.04385654462176931,0.012695612761832925,0.07263850171555185,0.10555232563448391,0.04546200468179714,0.09541759773720808,0.026254875117367547,-0.05349428699530455
0.0702444960871205,-0.09725627518744381,0.08388601337203079,0.11548280487342118,0.12890005009976888,-0.024230578765777437,0.10792862593239229,-0.08491133965014801,0.02948915601628003,0.04287036796761869
0.032431623748839566,-0.05407553141063037,0.00017664812899935125,0.05776584949011698,0.07015029996971132,0.030683588098784652,0.06734552152324401,0.054255264581864,-0.035769780884424576,-0.052245340086827574
0.11148727164727187,-0.07239265202408597,0.06057213490287968,0.11928444934432068,0.01411974412106017,0.04343483331715229,-0.041598857623696146,0.009244473462262323,0.03788014959540403,-0.11016748532194989
0.08672426991321279,0.018116500056061684,0.013359431873829456,0.044963728589918185,-0.05929036263396162,0.029928591092849312,-0.03865791633121857,-0.10561421776911087,0.11314334724575775,-0.03736345655399029
-0.009854939490926065,0.03351217264908765,0.03418487074626448,0.13713425794057674,0.01884890807911163,0.11744579359900635,-0.0482741993339524,-0.03544217994085525,0.0002874234979302646,-0.0881994094034439
0.022361485467737027,-0.029013127542401936,0.03389968962653494,0.053769649297928095,-0.08056861427090932,-0.0012473014823931306,0.005592804404867315,-0.12397774121250256,0.11982779676699346,-0.005803505764712739
0.015659877339379236,-0.052730008080758756,0.06819473985777658,0.01846534922539646,-0.019218451989269254,0.020065425515773033,-0.02525649950010329,-0.004654182798169029,0.03751883244533427,0.026020362832117915
0.02359311927792553,0.01790647512512653,0.0508685888708572,-0.026067357895344048,0.08468643624679648,-0.047907178862385914,0.026048761729194743,0.015651648142917605,-0.04649171921153206,0.005840226431795129
0.03414355690515945,0.02473886562987299,-0.03220076277888479,-0.07175402872798393,-0.07460046594844716,-0.05909178880139091,0.049444241536468286,0.004382899376039084,0.03352571114007294,0.0003213256984829307
0.06540319517072933,-0.06637542427170026,0.02550750242848915,-0.054535222648092053,-0.06819716612777639,0.015233041961215853,0.06293994496393861,0.041038098554515075,-0.008944961188955219,0.07542701370793939
-0.07820578704989102,0.07939862777802745,0.07594779081660812,0.07661402643992812,-0.007545852074832927,-0.07619075983134778,0.005141215557112366,0.07979381050847113,-0.030795344684866843,-0.06433192408535285
-0.07147946523131754,0.06661114924410405,-0.010800917925604656,-0.07545822811223506,-0.04323068168440925,0.010624373632938472,0.028916636207360485,-0.03954536715975524,-0.05050602750308075,0.0842198281485273
-0.06139225682984117,0.050315593114230645,-0.056259771442969286,-0.06335266514865423,0.016099969326431512,-0.07632398442415576,-0.035433956237036844,0.049241895905504596,0.0861777273833883,-0.027867996190208494
0.009476331017613386,0.06441167590876382,-0.06392600890903291,0.07359597241441689,-0.05990237472545023,-0.01618646979427538,0.023023861431088553,-0.00868465396956494,-0.017758455933250775,0.060223960028027164
-0.0065179576277725314,-0.07306326390147908,0.07909242616808483,0.020759932723862597,0.018581011462221346,-0.009725639786159248,-0.05096846624602971,-0.05140949435861774,-0.06063815352174497,-0.05032107812228857
0.04416330675902445,0.08098741010331509,0.07815977786965063,-0.05180644038181169,0.06856897541283767,-0.08975056181113618,-0.08653235946135542,0.06560665404775483,0.03264314226934579,0.04336872889911353
0.05497484560983618,-0.006547302340649651,-0.012345855520404396,-0.005082776613246996,0.051352906365209165,0.07541770953850413,-0.01680729230685918,0.04054737362215032,-0.07113670115056946,-0.07740498913509108
0.09762080225538697,-0.050389062825038626,-0.03274512066656821,0.002886093951487798,0.10859998076174082,0.05017241185325617,-0.04313687495795648,0.008778186286011057,-0.09893431028898396,0.012170490277924868
0.05163032499266284,0.059231826211269475,0.0982634520437177,0.04612479270110172,0.06072786211986862,-0.008398516341264078,0.026491079160512333,0.09637153617763657,0.0047983913724631705,-0.0351575271719537
0.13126522182901487,0.029126627078666315,0.06024364864787096,0.02778922608075152,-0.012701876210504084,0.09649087114318297,0.006034757377739861,-0.007626666325259417,-0.09451352443698159,0.05810024472011425
-0.05323307019031352,0.013920080648241838,0.13448748789116205,-0.0003737758234095632,0.05535165173833067,0.11706158740395481,-0.0827814126263074,0.1561863787515198,-0.04406064588787149,-0.01895083444599233
0.06262055930375544,-0.056447185582681324,0.18714039962711684,0.02393342373310808,0.08677104245900248,0.0001523518219169807,0.011241203679754102,0.040524903224052056,-0.02626611813285324,-0.04811254152016978
-0.019066110111354926,-0.06663459277380375,0.056790632311431784,0.025717950442764828,0.0771343787802621,-0.09098148784389333,0.06582934745050743,0.11848212871332588,-0.005577320264956482,0.09287998897012864
0.04793060119822805,-0.037326705530528366,0.11567452602409414,-0.11979145026564203,0.06380576445356896,0.01401356469770942,0.06118350428018404,0.02951125755487458,0.04901219631381637,0.07691133121660877
-0.12920542261850557,0.02870940886330775,0.15806656268124653,0.0012281792269001899,0.002039236916806473,0.006075253717955472,0.10613155914549917,0.09866486274054131,-0.038111176867947724,-0.004520455473022345
-0.1057975712586126,-0.04698086807609163,0.2573364260019956,0.014234741088085597,0.09741644374957491,-0.0448522638424801,0.2734180032287778,-0.021750497068901017,-0.004045785135218259,0.0037886898612930664
-0.034292299558082516,-0.05562136378226057,0.20939049250173242,-0.08018470059720056,0.1457187743795145,-0.09060663640207936,0.22270335970343058,0.11722671702469195,0.07388949645802134,-0.051801917005142306
-0.07293779245052898,-0.10120838069014426,0.19627372158091397,0.05788508307672446,0.05803144887321077,-0.02189873419258671,0.156974145824822,-0.015200056531438067,-0.06029295264668004,0.0307193582153073
-0.004832167494647051,-0.033494791025276735,0.2202535661920135,0.09891341479587004,0.06904175662163291,-0.0634064667571706,0.04261776283984934,-0.0023043076456369686,-0.02345068828291023,0.05712478785287672
0.08270618892620026,-0.027700000081078178,0.17532744513482815,0.15610667199175143,0.07454097108782635,-0.027160362691742074,0.07128469493553784,-0.02883089828634043,0.010132081155460246,-0.05022173550221649
0.0265740636811761,0.052619088372176034,0.11001502321052956,-0.0016690573973976355,-0.030144081563638844,0.016785828946925912,0.12583390929073746,-0.1172394992680961,-0.06266410468603961,-0.08763279178011872
-0.017253967953502158,-0.0765926844538932,0.06597189247185382,0.09157597861046508,0.01129760810570901,0.06252516812036057,0.14107351163303486,-0.031418349228725606,0.05364453721053653,-0.022279903707798407
0.09153579522320746,0.0065555823162618135,0.09525946227695462,0.21962694275590292,0.042134330126661824,0.06008195013260701,0.06371259435968767,-0.13789133138160403,0.052849464103026815,-0.06825355716771105
0.009285061548819872,0.008906242426705943,-0.02922003837792606,0.16712581139539287,0.07304500989179971,-0.01800089086901197,0.034419562610451954,-0.12510282626237926,0.026010503045875554,-0.017650407236959452
-0.02288999305010978,0.052226785308225374,0.08900476359081991,0.060087186160360545,-0.05883098951678606,-0.005611361166770166,0.0053429270449486515,-5.429642066779391e-05,0.0691755743518163,-0.08224891825642677
0.051733834861128945,0.07197809105981066,-0.05040357187388776,0.07720915126670976,-0.01912569189149732,-0.05461191726678158,-0.07629336066091326,0.037504394870225936,-0.043760767767405,-0.0967452518799194
0.07213112861230762,0.02554180039255535,-0.021566184289274305,0.02317115445349801,0.0764396716057462,-0.09847823623033711,-0.08852669515673578,0.07231892761939726,0.08070984185987247,-0.008019192573313724
0.07726007260069089,0.047685334516296723,-0.04627129902136805,-0.03513428451665447,-0.0027672247338341935,-0.08261745225446773,0.059815257677719884,0.005878420977721615,0.07102078045658744,-0.07386815812574032
-0.05428055368047086,-0.07174477765622624,0.01647262921435,-0.006403228283969636,-0.003182083063639346,0.05237309637894691,-0.005366122124359107,-0.04061636258297076,-0.005370704659842379,-0.0016660753576476228
0.028591066611972,-0.08493663079486949,0.011838009938336252,-0.04778666937345209,-0.02384276234678051,0.05948471904652222,-0.06599937008439236,-0.001963615861229978,0.08334453561001787,0.034324431873209965
0.06448340633349911,0.004884594549729157,0.07655666097542319,0.07086095137087503,0.04333643550433208,-0.03372192436339195,0.05478169133787039,0.038940965659886695,-0.056793073563978544,-0.055931863026648945
0.04009901255100452,-0.011518665082880615,0.008202719633567229,0.029975967791915914,-0.02050793733659852,-0.07330934984065929,0.059564282650434314,-0.004606912974578939,0.05848936104957344,-0.04344706005287855
-0.016859497868948737,-0.05852298499637973,0.06880029532432093,-0.02943622590619616,-0.05785334775074936,-0.05758993602931476,-0.01939177998583287,0.07339049126252013,-0.07176903201246503,0.07585806464252684
0.04306999399294207,0.011337994670198751,0.03905904961033937,-0.10551464137593987,0.059288351413635046,-0.04159090202929759,0.0320311055549842,0.06716661274452025,-0.04937411061452709,-0.005394885850557336
0.057867002252129734,-0.036021058031453765,-0.06888120595417567,-0.07813136489709721,-0.045034551009666246,-0.020176191066467793,0.03153282661449095,0.055222407694886316,-0.06798395963679749,-0.035315284468094774
0.08311009632403288,0.038853216199946444,0.05019183488881968,-0.08028943697530248,-0.02898631779625243,0.0530326098892883,-0.027926531719659416,0.016356380687293014,-0.12171910961878006,0.03188491804811853
-0.03949632806681456,-0.06155575697599195,0.1583467242052566,-0.015023662736396725,0.022209339764101173,0.030844335205690854,-0.07132931846862073,0.05114599428867892,-0.09981503165039583,0.06399370551326607
0.13241127564502883,-0.12324776885185,0.16059698198957634,-0.018973140298617946,0.0031070343012804236,-0.030343287618585662,-0.018945984043948826,-0.002093176666333469,-0.013317059796290684,-0.06631543823312953
0.07639179010752169,-0.0936391703381662,0.07416695650817992,0.02303849030421707,-0.042309552404719536,0.01923824098902393,-0.028304361325652717,0.06564718499535561,-0.11597902835302583,0.10333710526232451
-0.031147038655272952,-0.08463792999849024,0.09687020450008656,0.027668762418711645,0.06314323072093456,0.07890966814293827,0.07825024761107122,0.17502544960142516,-0.05826321100936655,0.17674200597703624
-0.09789666640093699,-0.07783043433109758,-0.008289424210777727,0.0758008739350997,-0.03587690352310173,0.00032658169969794964,0.020942253544111056,0.08738509282369004,0.021043267993546985,0.1599732607170861
0.017185699403368324,-0.09136737828760991,0.08308218831036623,-0.03587350841295263,-0.05131601153477639,-0.009000903416380173,-0.01658668807365755,0.19359269634991585,0.023967591559202136,0.14962124968727503
-0.08782651024922478,0.054445931781453925,-0.006892285981333659,-0.1432753992709753,0.08813069179841101,-0.06743403138231853,0.016904450010169398,0.1603990176683443,0.11499479478354821,0.08212516381486917
-0.13589845879040485,-0.06713923176516898,-0.02710047935684874,-0.033024863522928403,0.12500374304053904,0.0003167968441559995,0.0604443927331505,0.12134128283680229,0.13262966751125543,0.10340911012576745
-0.06091691801508156,-0.0642891928061322,0.04993656618425051,-0.09179632210583384,-0.002855147142845981,0.04337112330755886,-0.027433004742145595,0.15208907266371402,0.12776686162810666,0.11683758886143127
-0.08847501768010192,-0.04609038439892539,0.09608043741246566,-0.13472666883512713,0.07253346090797884,-0.10329368992119424,0.04150570047923551,0.08450135913258654,0.12768853558903473,0.019372938803332143
-0.05090278634781914,-0.16067699012569303,0.06917449612959786,-0.11087679818414846,0.09781979223591442,-0.011248646812561472,-0.06094233543201578,0.07448897428517268,0.14384115052943836,0.03567060178429153
-0.12407243711900921,0.03355299102235696,-0.009905479334624793,-0.021437929667888773,0.15058381743036564,0.023443815711093212,0.08033712019510146,-0.000487955632694273,-0.07728740697703641,0.058202378370374334
-0.08522420533950745,-0.017968138979964497,0.025719441677904905,-0.007533498598746083,0.011272850778244971,-0.00010701655744186122,-0.022169534204389326,0.045104071051883236,0.025488816470387716,0.021818365766867045
-0.029258813384439072,0.022008437171976404,0.0030520605258506197,0.1711160183485549,-0.016251555635094995,0.016707334759369946,0.08182517267769582,0.04836628168443471,-0.040065519970949925,-0.07552105221930054
0.03804185161530364,0.10428834980628797,-0.03783426772091072,0.09618054292669374,0.06637742975663456,-0.06310304859082855,0.0683801053605638,-0.036840161486029144,-0.0005560766391715508,0.051043323330645526
-0.02260551097137004,0.13691583250966863,0.05188250693193691,0.10118730784425717,-0.001464097614155662,0.012423045565739262,0.07248259154071296,-0.08970055016957527,0.022507446920772986,0.028226586432030416
-0.007671875900894753,0.03506595959651877,0.12161922317957757,0.3027161927613174,0.06971261400696702,-0.1372011061446986,0.01640087316123069,-0.08609740687760428,-0.01145380798522647,-0.04436859947899697
-0.003821378857524996,0.04122562461347547,0.0749505840865594,0.10444320103770104,0.015380151710062814,-0.034689255332708294,-0.034335755204702494,-0.047880982094817094,0.1067720731734524,0.014100481001926093
0.04729799325731769,0.044656203407421824,0.056349134429856944,0.054898413990914365,0.0016111454600020439,-0.011963979407985796,0.06618003113245766,0.09216726337702946,0.004352130659510066,-0.08015314739534612
-0.0722518536075159,0.045474699409904354,0.03145298561441311,-0.005551651383271646,0.05676010672039931,0.026198740283806428,-0.012626044413458532,-0.03296122792715402,0.0577695238039848,0.06188061275886776
0.0178964509949808,0.05665494655987526,-0.04756209565272989,0.02065508449871286,0.03513860497730819,-0.017850774768668885,-0.05633816284462814,-0.043520448354058834,0.04864366516146043,-0.051062758175317774
-0.06521170881170459,-0.008980110214894203,-0.051178754123076285,-0.028508343140155504,-0.08044748559098518,0.015981274423789105,-0.015723982874910964,0.03659667615370895,0.03247608293562826,0.08605123670702586
-0.043773520566602275,-0.015708135310528067,-0.02700083802076117,-0.021741528470647843,-0.08293080465913343,0.0820005682561317,-0.017020342101280294,-0.05572622565098675,-0.030361904211676623,0.01404562062472921
-0.031866189697994846,0.01142688797206953,-0.0014655601992874013,-0.05641407706209244,0.07489251537801149,0.04914905052290386,-0.040383287352398094,0.019035750087962218,0.04961596616721589,-0.0764402377295532
0.04368592851233866,-0.07779375468728414,0.05814143879057177,0.06035122000601163,-0.038927053756239935,0.09209736068813704,0.04553232650277901,0.05388284142659025,0.039294511792927915,-0.022117071491381386
0.10933554414419247,-0.08955671015338547,-0.012095848611411782,-0.007082619503250551,0.024497649443086893,0.021358688111000827,0.00743862138050405,0.09288134871365994,-0.13168078680539735,0.06498855348617119
0.10858619684969555,-0.06149043201213687,0.0866060362364387,0.011508310096223006,0.055763544074788396,0.07070765140455176,0.011445475655560967,0.14230684503057092,-0.08775891552215204,0.08665026189241042
0.10298673367557366,-0.03757619706662573,0.1137013676176635,0.018662495182968575,-0.05512346318340918,0.07485509756100833,0.0550619272434012,0.014986172634158095,-0.07085382459236282,0.0159143592551167
0.05005358827462993,-0.1261048785049553,0.03998850418711921,-0.03646954267357992,0.02391652106505658,-0.009040361921852291,0.08802800563001897,-0.020535177980514713,-0.1185242751641509,0.08353037187419969
0.04418442866325913,-0.10916143061370263,0.021912478287724035,0.07164589555641436,-0.04588848712946993,-0.05234862694192407,0.01706370640784061,0.07793901464835498,0.027690945981436028,0.13612041258342517
-0.007222328531712913,-0.10677129087921197,0.10548985214286583,0.12072763305554839,-0.08308565223747247,0.06707001268103986,0.021970493641685667,0.12604218275444098,-0.003972048908825763,0.1807105072933795
0.08996724867263088,0.043740625298072884,-0.04443206990833647,0.1399122861673587,-0.012283190808176983,-0.03433836893095397,-0.06290060636885313,0.1322637873919898,0.04443677684915152,0.25223692239388823
-0.03194804747973834,-0.008335281804851487,-0.04214938279638431,0.08130465560355864,0.04887025687414958,0.1395193392892359,-0.0068007837063821215,0.0006458409012905848,0.0019233377226402604,0.20722731503299044
-0.11001722070027253,-0.07925694697153093,-0.12789318033726743,-0.009392522022135153,-0.0102801766404538,0.07803827337032364,0.02850746488340064,0.1285590399441702,0.06266276821022959,0.23627444875409448
-0.06871117590226646,-0.005236265058581722,-0.07664617921175292,-0.05834053547298088,0.015732104334081162,0.08508934009862981,-0.10472196212594044,0.15411366782133162,0.1726140235463995,0.12009655949067509
-0.11609960809807836,0.012464928553919452,-0.11413226140059726,-0.18967858219115138,0.16539765768223527,0.14670642697993405,-0.18047708481775332,0.14738558879228097,0.2086706502134339,0.12321907828774468
-0.09185965560559656,-0.043523068033258186,-0.17466894785520676,-0.15695191025602379,0.070889875564122,0.12100462599305839,-0.05818539916553187,0.12414152369452662,0.1981179070197187,0.17103623002467913
-0.08135684388339409,-0.11183483790619644,-0.11673414340805445,-0.23994241003405517,-0.008581395768599651,-0.01917415418595345,-0.06805185559415616,0.1756514437932858,0.2597019253170268,0.08480271451419948
-0.04076178549962984,0.01897869764080588,-0.0822906236760903,-0.0996944178946942,0.08116082085915094,-0.0718712528681198,-0.05686100775927203,0.018269092345481398,0.03861239534482932,0.19139850234395767
-0.08384819961150378,0.0592077233004767,-0.04787551316348364,0.003970646302777082,0.005413889741793101,-0.1221244484721648,-0.09524120153840368,0.031568841696887784,0.005328376076568735,0.16832158657819765
-0.05350481128004219,-0.015983995268865528,-0.1349991821453948,-0.0054737094117457835,-0.03860494543119918,-0.05156175368368516,-0.02459561337183564,0.025948528273527734,-0.015789131310719687,0.07908375271513794
0.011603399417287908,-0.002473685391244556,-0.04096487545234781,0.046047476318549725,0.047663778531645336,-0.10262079559251398,-0.024697281653538124,0.0154002108280377,-0.11346330106768564,0.12547426638679066
-0.015834241320024707,0.08725916758706753,0.08954514624839743,0.10588690770083875,-0.028513337106407608,-0.026440882703988488,0.0487286472465485,0.08244353804274593,-0.09843034264461249,0.11958515109304114
0.08382698883797933,0.061893998551860833,0.0019724198488479433,0.11107627666517832,0.057011525131809085,-0.09574457014110221,-0.037520740464716644,-0.0369206024903806,-0.12202975897983295,0.11160407047215926
-0.07101025806647855,0.09027808879464125,-0.05249063338474513,0.29632308321518014,0.023337376344974514,-0.10332404648103681,-0.03184879507662619,0.0721309082980792,0.057305825831281645,0.044475408382782765
-0.06337368359944498,0.0003799439881208442,0.02572202138627509,0.24053581097659907,0.09498215270646142,0.015268612686889655,-0.03679623009941762,0.08111799236715243,0.06242115794715013,-0.10778037641815853
0.0426060398232674,-0.053938211041885196,0.010862154478458168,0.10334558470712404,0.0811869313155481,-0.08603306451477953,-0.004964525335743342,0.06696759370801131,0.007150100693695884,-0.094521302721469
0.07021527533614702,0.05225484581479132,-0.08290870727528422,0.04419643192462791,-0.043038932842301494,-0.016621903641552735,-0.04722226504190248,-0.049441961899696726,-0.038881649896517656,-0.034359797766275825
-0.06218736484466119,-0.024936113534061097,0.048259112611881844,-0.04566913885335324,0.039813712653841406,0.05920829190283737,0.08247152700121908,-0.04944280682485711,-0.07098959229562256,0.005745139960646559
-0.08172608164386143,-0.03920621714685619,-0.07424314928911996,0.04506280090788181,-0.05843701894471243,-0.07543601951901555,-0.04812111533967442,0.021573896138987702,-0.06511643906176413,-0.04136201274929781
0.04966412630320081,0.0645746599494686,0.04343459013058748,0.029231712189153335,0.06972163121165265,0.05531036902205465,0.06989221119509934,0.05802416580247205,-0.047474003461877655,0.006004201861267888
-0.07409700774508444,-0.000562942136272928,-0.049725584672155876,0.001250171053626954,-0.07135397102151088,-0.01749738495823112,-0.014807311352983228,-0.07382464309537094,0.02522767299904861,0.06461837350325782
0.009826313284139222,-0.07579300434464138,-0.06696065549490689,0.05946324086458051,-0.026634877000975363,0.012758902562835092,-0.014451152962014963,0.09070826056271136,-0.006152125353545576,-0.048615465055534754
0.0821506729080634,-0.08142107434446777,-0.0818113671769415,-0.12448676571930183,0.021832473014412365,0.06388088384906053,0.041272593724874,0.08754857717221731,-0.09673340913773229,0.006198512904012785
0.040577519536580564,-0.06645668280822764,0.029904067895286053,-0.10352679505907542,0.059883302002668885,0.01921497071486328,0.03073455288509702,0.1352462581230989,-0.060604140843437695,0.05089348474505089
0.022171960210241336,-0.1395047154617418,0.05975961763326968,0.03333439076729227,0.011293829896598993,-0.11230878217623795,0.08440040764477932,-0.021831270754008224,-0.0719010503023319,0.14076090135861966
0.03488153171387275,0.019689541137937316,0.055866636756898215,-0.006947537313051232,-0.17148249710671482,0.06920667522029673,0.10957315936130278,0.07033288137630593,-0.1215313027600989,0.07248878782286737
0.07747979430715547,-0.09563002886254611,0.021288193103237,0.13788087218194323,-0.1003797068437322,0.013968526579449149,0.04493833613854848,0.11465057183171883,-0.007027742765302506,0.12504848359220125
-0.013320208954738674,-0.03511346747830143,0.02941498137008454,0.0766966595201101,-0.08059922145414979,0.045525903501126355,-0.05142721605819408,-0.007523790461331222,-0.0024462616098277334,0.23325931168367375
0.0006348205765018537,0.009504380432061222,-0.022077793494079432,0.08168807456801293,-0.06358943473282797,0.0497079314157554,0.01630552011431198,0.028424753096264986,-0.0011852920218523746,0.16289446246750242
-0.048429559317312014,-0.13137541238784087,0.0340264026534576,0.04279556577525191,-0.04356065636275265,0.11534712100742976,0.04455382681653528,0.11099606533275017,-0.015027605070838734,0.2114543739794822
-0.12790449036406035,-0.1343903592812925,-0.01841160034963026,0.010603917237568485,-0.0281532106916452,0.1334409040076307,-0.036029035551776604,0.05863526706868931,0.01100999932500137,0.19045456569459868
0.017786294708688203,0.05436620216259848,-0.11732644266545109,-0.029624624201879435,0.03486034679956512,-0.03959805839398229,-0.029879435937587507,0.08239603159041417,0.02884614357977169,0.2008107338564901
-0.06794429982576906,0.011380100867796922,-0.02879874822245221,-0.12490036621648111,0.12538895378583528,0.10136578782026372,-0.045366172582020775,0.17317867091598269,0.09378978326831716,0.19751927174299364
-0.10623706067492984,-0.058391291898412884,-0.046331117380512044,-0.10805237187645085,0.2002722914590082,0.07237885927137284,-0.1169050852007948,0.13353389106434202,0.1940303019355542,0.1311730577138751
-0.10284333740426019,-0.03738563557864914,-0.06413913460637857,-0.05323482432983513,0.017153274889346395,0.04372327814866847,-0.07094991919660662,0.11951364513963862,0.03681806665279286,0.23435494154540024
-0.07834709484883702,-0.10587516254326045,-0.07535149203229483,-0.0422207615987531,0.04142351023365348,-0.03208649481890293,-0.04467317706174745,0.07142446610152092,0.013293078077647204,0.16051177516326456
0.012477498899104784,-0.059936306639910966,-0.15504617935782877,-0.07517592698951066,0.05778757919325249,-0.13921139657355985,-0.0008988904287599437,0.049536358843208256,-0.05179484464128181,0.21615461319683874
-0.10543970972450589,0.045940678110724116,-0.007624909412198777,-0.04866481514261822,-0.07754590160817278,-0.19557717277787612,-0.028454304316194806,0.130200122660567,-0.13965852821908029,0.13167110560711723
-0.045833254470789106,0.020850091691785446,-0.03775220890047173,0.08973085549797255,0.037684312277339385,-0.07685518228290157,-0.0326347060362339,0.08793343377382339,-0.022648045657769254,0.17809748509445827
-0.10021446664176648,0.0414682150272052,0.035039108915601434,0.06479876030122037,-0.04383552813443566,-0.13124297877848512,0.030414334287646377,0.06015381136195259,-0.04719293773607536,0.10527215882756227
0.029342683428450853,-0.018206248950860645,0.09547745826267894,0.17524458960145414,-0.004155357566639737,-0.03634808591023763,0.034403317568741036,0.05084334375862393,-0.11363797740489842,0.1623936991996922
-0.047839480571280506,-0.05981709119113066,0.010096809203214993,0.2701878001621914,0.14702263644672112,-0.11559582630755742,-0.04121547128503331,-0.04182510994615685,-0.06367752822818086,0.14342094565737484
-0.09705890634630765,0.01569601213464837,0.03918043248720208,0.39197145431487734,0.008981585777926397,-0.02337451673252785,-0.12211067412571794,0.08272047551460829,0.008404933641876004,-0.04801271189585625
0.01328835195783853,-0.05137926699133775,0.03249203056848266,0.22628853583726352,0.029765030986791757,0.016582928791458153,-0.04989347435173263,0.022013561451053598,0.10877217711890776,-0.012562675211442066
0.008330324135753317,-0.017198890625830094,-0.020666410795203552,0.07130746032363743,-0.05375427611007126,-0.014786619599046098,0.005864113700371179,0.09491222068362817,0.05605650037550683,-0.06152100036224682
0.025561446280878607,-0.03244687243802101,-0.06631544297036296,0.03698274358150014,0.010477563408162437,0.06272291925544263,-0.07761753512981137,-0.03191235442008887,0.01827945316696284,-0.08528192896907515
-0.005620071035761899,0.07616568348165283,-0.043751096138756676,0.047891811896476594,0.04595069310857859,0.08100717164822155,0.06266549086808193,-0.04994152970632934,-0.052128224671790284,0.023565069696163978
0.0002712429137424559,0.040280359108263185,-0.032232301903192685,0.011676768071188209,0.004160749646163544,0.053942081386264995,-0.08628139851926696,-0.08223114790581405,0.06001939869602513,0.012009057948134958
0.068032274505052,0.03339776360263227,-0.05704990554542677,-0.07703235082658304,-0.030840334570233392,0.04678707115591824,0.040333171182933406,-0.0724277720461703,0.03926922989437157,0.004283856677268135
-0.03404108326217002,-0.018595442436369493,-0.08297680025685034,0.00740725534376886,-0.0022932912006061543,-0.07725494235206945,-0.05357981614102716,0.07672405452007378,-0.0009981597430958591,-0.0030022434026826597
0.03156284861045356,0.007172132541808676,-0.08391978195027358,-0.08969973689033649,-0.049645372412508194,0.017549105757523786,-0.0047635909984744115,0.07050987541310622,-0.11424906854453812,0.0520016965428789
0.01466769702475237,0.008655028444352036,-0.09617738479233066,-0.024118643779570043,0.013583650588791922,-0.014457262238695033,-0.008250994987342459,0.0859904696349636,-0.0378601600277618,0.03357284173083313
0.048237689675143004,-0.04596525781681276,-0.12458279537761628,0.014287835541382113,-0.04857303270183486,-0.010333408115752363,0.01566775807936907,0.013278541794483435,-0.04076173599486176,0.04671328334636019
0.06633354771399216,-0.03296339403154372,0.010242414868124109,0.06016003304326683,-0.03714754717515404,0.006308415622179924,0.028815929074165438,0.00850010003946816,0.03478432484676703,0.09972985504234484
-0.050209249464452876,-0.03031094490880861,0.009195800092552787,0.1164017734017288,-0.02541014001156016,0.07414835701000422,-0.025001614827814538,0.09223055697503807,0.1423749564653786,0.10791059070039265
-0.056698912074218295,-0.08190354195722632,-0.002429904440265019,0.17131023863847958,-0.044662608626068544,0.08349035032906628,-0.028349654896219656,0.07567050542647301,0.11257551701179132,0.1431819147587592
0.009894165585226624,0.026631973808112237,0.06641642150259325,0.1676795270573413,-0.06420103422254081,0.022054721579679165,0.031141298794753507,0.0482010156821572,-0.03722902597400625,0.1920171097219156
-0.04217182543293641,-0.07345513481244656,-0.0880659569897323,0.18517928733345315,-0.025453317433984282,-0.007301771307806989,-0.024251263099663193,0.08590505000974773,0.025401954897523785,0.12046186215685405
-0.1086292652494768,-0.08017546657669385,-0.010130468948402969,0.14613129956452528,0.025013119533236323,0.024231569628861138,0.07017926257219366,-0.03634691113849221,0.09556066244198377,0.17598970553277477
-0.004232341356679164,-0.11566579219547413,-0.057341231103795305,-0.014144253392023316,0.09844002880568278,0.013541071568182864,0.07194876833411658,-0.025126987160281607,-0.004203561504720118,0.1704419315834245
-0.07952486159677073,-0.06361081254473941,-0.10447589584312768,-0.2708355633602152,0.1527679201742863,0.09771009022577895,0.021684565977062437,0.13997532282344913,0.058319737457466506,0.13503685130049212
0.0717240558209366,-0.0265280547736087,-0.20432037542526485,-0.2463618487175892,0.146549052608492,0.1422422848716243,0.025203599906956697,0.0438350917972679,0.02754383002779865,0.0918628208025598
0.14006537448634176,-0.04841946487301995,-0.062095275653752724,-0.047600488425138664,0.012251110447798958,-0.051294225962158074,-0.052835491824204654,0.037284322087424784,-0.13659274677118244,0.1131009745664178
-0.05943725078834587,0.014828178546864359,-0.05391274304653464,-0.11318275010695017,-0.05809209290171877,-0.19650649482286792,-0.060158947468256826,0.014740143339558273,-0.21513700611110956,0.19418879248990487
-0.0789029441349877,0.04751871809044046,-0.04272450000181834,0.0383948056787797,-0.03463340740134243,-0.17193042311606746,0.01873319374850012,0.1091393768861321,-0.1012257152671637,0.18539482860008585
0.03167369381075042,-0.04940776933749119,0.004767159963166794,0.09275974150818696,0.0006525487476197379,-0.14956672676215027,0.016902051385624613,0.11759783669820656,-0.15773684943220526,0.12613364242614813
0.04152117703632727,-0.018817070108999537,0.05849871581480375,0.02006743317490887,0.059716385633899555,-0.19405802054248922,-0.12072771952753449,0.1070431737204333,-0.07351075876497341,0.2047456770579104
0.0483280233879845,-0.03865698788922538,0.05760006614318464,0.013397174525866262,0.014339019467721838,-0.07841973919866653,0.07065498403515347,0.1348309043800614,-0.030595821347840304,0.028690336797331774
-0.13255855911041908,-0.06248775507684316,0.06524322159292106,0.13618994058060782,0.00671005899734131,-0.22677477038513189,0.07980241729201,0.09863855815620415,0.004997558465879588,0.08836959430654538
-0.005934219403934183,0.017493973076957554,-0.06953399521282928,0.29970643617399023,0.08199436148703892,-0.10296128058359366,-0.08063020377618503,-0.05143295861326936,0.039231828214233114,0.20664059866028106
-0.11338635108030304,-0.025895178069735555,-0.0756092443776278,0.2680499377728492,0.028949895627961842,-0.1820121413511903,0.010891698730940152,-0.0051671164257384725,0.07532782404496603,0.028581122591521194
-0.010667296388141888,-0.0179610725488198,-0.02722796648076994,0.1662960262382775,0.06704934277107986,-0.008845587846134626,0.008615443532038913,0.05486685284426539,0.053650418970715257,-0.07996295950002615
-0.034417150260459994,0.06178504734436842,-0.04085385562211441,0.009473182463054806,0.009729556575558419,-0.06262984695255656,0.07210895416229132,0.05430073876312192,-0.03372600795022331,-0.05489394116858914
-0.05561979435771643,-0.0620461417082801,0.05461646527250601,0.022304525226102934,-0.05514032625291363,-0.03807110562215511,-0.07451321111912543,0.08262828938498085,0.07252318680120191,-0.062075502428195185
-0.01751772189506499,0.02368273926102021,0.06709653032721828,-0.0846837825111256,0.049794286485110716,-0.02183953240299982,-0.02874878316180647,-0.048313144604556796,-0.050660916331930636,-0.053094125497403374
-0.023046502208095662,0.0002679285002161373,0.012989222085130923,-0.028843497632896387,0.04808310256279151,-0.011682074234808925,-0.08291631296316737,-0.03330965549481247,-0.034212657967683344,-0.03277220002185961
0.02238899259029363,-0.005522037954349212,-0.03811367080869191,-0.05005468283219451,-0.006311182288539037,-0.048028209772590015,0.010056902269923371,-0.07350379065997092,-0.02201217278133572,0.040128224892918146
-0.03158760537712221,-0.0029648584345072604,0.06726002083145692,-0.01373288357264408,0.08669701746936068,-0.061220307551797665,-0.009658923658543428,0.09435502475376131,-0.11807395374715086,0.06606488589500584
-0.009173955951731814,0.014671575332934162,0.0022166634043303867,0.033534041057969706,0.06454509663953109,-0.023625266971149222,0.08959171477835343,-0.0347795968379762,-0.10266188651022708,0.04373997856182028
0.10860798626801181,-0.1034239143217844,-0.0806195340224252,-0.03307211800506052,-0.03915310459324005,-0.030093225988559052,0.030048246148165054,0.024964780601695432,-0.13450795127384255,0.1390019527747313
0.005759195312897171,0.01683872819032288,-0.014006900185782949,0.02658032408978117,-0.042728799322656705,-0.04902040512671514,0.03172504088143745,0.005022456569226044,0.06281031328673373,0.06789718845920696
0.13204958974937508,-0.051538174611185296,-0.06151749698231958,0.10908776127158194,-0.141871360951237,-0.08954327637769065,0.020488973424755908,-0.05134675792938857,0.06650562354487939,0.08662123375174129
-0.00266011531797071,-0.022407348683923457,0.02805358621070559,0.16142018617563314,-0.08888392962665108,-0.10076840946346562,0.12006599780877485,-0.15652741533809703,0.06356692953645122,0.12673645231626834
0.0030407523032994705,0.12317488847290008,-0.021195199608059722,0.0892495365786477,-0.09894844647014024,-0.07628997665878531,-0.004261909164750875,-0.09918340658853408,0.1035580207723859,0.09236680250686108
0.06603607209621909,0.05948652440043267,-0.10525557509594417,0.1418872176653283,-0.034019869276827736,-0.11442774691092052,0.001112789291243382,-0.14604381795774118,0.1568606232570494,0.12387998739989825
0.04759251510864756,0.13639292900973235,-0.10083639650246103,0.11143383635021974,0.015119894537343694,-0.03054327700024564,0.04408929999440581,-0.10314569691285462,0.10686045663587858,0.17026867097169954
-0.06745551814024592,0.10012590463782331,-0.04623826884450682,0.16570978396892405,0.03186493450953997,-0.13781944130117957,-0.036519731237934706,-0.14109548126586255,0.13308635691282006,0.06415511789869484
0.019640769552119824,-0.06329029908011358,-0.12457625882204507,0.07340433222627049,0.19784698002256743,-0.07427067693105743,-0.007347332722062858,-0.09259678419047969,0.001941645522354444,0.12228904676320994
0.04483243281366433,-0.059339567178230405,-0.22743614331115145,-0.08378595231210573,0.23074798725538873,-0.03633113347445198,0.11494592776959095,0.11162391198788561,0.02161493365579616,-0.05726989179079208
0.041411591657563904,-0.05208412973708624,-0.10214295982046309,-0.12368216314200911,0.18923392312025672,-0.04918544496637121,0.14632096270959252,0.041129167676763966,-0.16407370507333363,0.08518724157519651
0.1531967193601351,-0.005149867149705847,-0.10568671083916445,-0.12631114471675792,0.07138856068179152,-0.10891985411599128,-0.03293231568049509,0.06246434744221496,-0.13812399607831893,0.03620486905211593
0.016927005401249008,0.058537409847837826,0.05191129130654281,-0.053675752897177256,0.010233554187022473,-0.05349612686726854,-0.04601912491051246,0.11708051035936452,-0.20713248836895576,0.09098355093690437
0.0677906854669338,-0.007185472055282167,0.06496598710143099,-0.16745575155393747,0.012422214269252396,-0.11389393040510042,-0.10210022462047715,0.07806482016002558,-0.09513976573548283,0.22130276459337486
0.017061756137596834,-0.08382506628356973,-0.05901649553486894,-0.08911018029635137,-0.0013228793764843403,-0.18348035096762982,-0.033975545627906056,0.04418544787504309,-0.11290895291728412,0.1884896927804583
-0.054704053015291854,-0.09073766588861892,-0.06549473437127983,-0.014565977706032386,-0.049006895699901715,-0.06273941319999395,-0.08411969894561455,0.1387048572683836,-0.09346041178133013,0.12023986636202591
-0.008352897284679731,-0.15011752810141518,0.044711971762549145,-0.06704393883580202,0.04445951508265604,-0.1759476823769937,0.021288304091408184,0.05259777261091395,-0.07655510468546473,0.06563849303533649
0.009305780710977795,-0.020285354598017558,-0.048467708023520115,0.00462585099210277,0.0876620487447677,-0.13730169530787437,0.004453830933634078,-0.11645246344887195,-0.005933207080313472,0.17482077281563724
-0.16610562526605074,-0.1721027298559453,-0.06514203292799822,0.032635403361381404,0.04755871548190797,-0.06463856287779206,-0.017363769237300795,0.01891877219410495,0.021846588250767934,0.14899033638300294
-0.0931315884988477,-0.10165071712648295,-0.1217043324666838,0.1826305500113871,0.05392771226114752,-0.015282112437791104,0.050934158666895046,-0.0564909942288292,0.09905093364298685,0.055289256726673806
-0.11771161930882441,-0.028852090784028936,0.025585458781110536,0.103699627421772,0.1237854032259328,0.030176239271419707,-0.06003191388744782,0.11147781178364681,0.13517101164040918,-0.043517493253120994
-0.036784380858254764,-0.0806513918136729,-0.06719049922688303,-0.02905769302646059,-0.0009339609046820145,-0.0059431760500801,-0.06953637219054155,0.08657425126612683,-0.06620369597456072,-0.06312915001287682
-0.03302947726469658,-0.027566041665157033,-0.002517480563877659,-0.025983519855177814,0.06467634507936512,-0.06370343376638464,0.028117369849170064,0.03786349097105552,-0.05460013541916383,-0.0028009014314947264
-0.0035987783518853103,-0.03972248580293095,0.04805554487189286,-0.004569482044806847,0.004748551763862474,0.009255485742882463,-0.01398866135251646,-0.06745994844123109,0.0630508150703741,-0.06338538282991364
0.013447229445830083,0.006446047989160884,-0.06643819330800534,-0.0655497526736098,0.07404663977094471,-0.0386653169038026,-0.028364000931546597,0.08280808994300104,-0.017850524552943003,0.03982874949804863
-0.012423883943113083,0.02872472304448494,-0.03327989947853496,0.04429098893056717,0.027918304445056972,-0.03420251805252477,-0.0316089427561219,0.08904242131586951,-0.09220753894447718,0.0636787254127892
0.04797133774671746,-0.08492242709532649,0.03447900644747102,0.022218309484059805,0.050988372274449884,-0.059190536601438595,-0.04872341914070107,0.07836534336865887,-0.09010147785761906,0.09617767746506536
0.07409896863115151,-0.1013645444185376,-0.03285253294204369,0.04077119819765757,0.058220647320252346,-0.13515847284218244,0.06420533276229527,0.09589693768728426,-0.07570876653463256,0.1277541726449625
-0.008459583095946903,-0.04083414222617155,-0.1360293740805133,-0.0023328599312753,-0.12014022026489679,-0.1642889764774825,-0.03948234418636064,0.0066514437817591495,0.026131611493956656,-0.013529814355591117
0.03324091763846413,0.07220960005363808,-0.08559245955570818,0.0764527633106379,0.0340236409066548,-0.06685160442578696,-0.0854912035307238,0.009477060929144144,0.22344901731365316,-0.020334694643330247
0.14847505562184807,-0.024400851344577673,-0.01579600795911319,-0.004845237579977262,0.03445189596108626,-0.10407548674785773,-0.004289306061164545,-0.08651782102611433,0.21450629089939785,0.05162860606807305
-0.0016296835702729131,0.15953487247526454,-0.06147713295449424,0.0003605727017213509,-0.04703644266154546,-0.027403861818041858,0.025753532948594046,-0.10757816913395953,0.20085315493822445,0.15111437003260605
0.12677535900275594,0.1665642570592732,-0.052702049366085926,0.1627662605110919,0.05509041061901009,-0.06968864446821517,0.08811469536838724,-0.17284885083333212,0.16770094686561274,0.11364340314343907
0.08948453739025729,0.17711356992751187,-0.050695054161687333,0.12952646329553816,0.025294833611334947,-0.1392140161352964,-0.07956065307422518,-0.17825164935580742,0.23692480153533968,0.02804917658676
0.18283119255566715,0.1696346974127404,-0.04407980049022307,0.1610958393818296,0.0709050060788468,-0.11984336491560102,-0.01946138604792644,-0.1660131506441491,0.12607324389264365,0.00872433766232885
0.04775243845801215,0.1671117194292893,-0.0901728028979622,0.23285045955681152,0.022902593154119518,-0.28205235752483104,-0.011611790658474294,-0.12978823278305038,0.1334470264376132,-0.005121122129303142
0.10855381009467592,-0.06601930309528338,-0.22118035612253553,0.19908174292894265,0.16298719842142675,-0.16027553103926923,0.13578219178358913,0.03432874668408649,0.14651874415918428,0.018741318543419577
0.053703726669134116,-0.03493692703356606,-0.26795937488764743,0.05200952410324823,0.17062068104391442,-0.10425367736213405,0.20539181974099327,0.22628828884158186,0.07001393360653425,-0.026247019783744822
0.10293864589796609,0.04472290877632926,-0.15722946996686404,-0.030685976656492572,-0.011518337585679708,-0.07584150412364675,0.09071927162023449,0.11669860978567528,-0.11182880731435617,-0.13983808943613657
0.10026301926189693,0.1993576290375857,-0.04291072728052052,-0.07546102945189379,-0.14948695825036423,-0.05778173202054101,0.05697624807985156,0.09473838590556737,-0.1676533394310966,0.06838119690574977
0.17680695811524352,0.0358417181960511,-0.10457129162684145,-0.15599684790244808,-0.13457555959473025,-0.09971155434631272,-0.040806307548485285,0.14138625468870206,-0.0719224853346819,0.11653855056200568
0.15407376136488707,0.005202798253038604,0.05461867707324953,-0.10084105439738973,-0.036069999678442696,-0.08324855813344584,-0.05798837634837996,0.14275467367243883,-0.06356987817214599,0.07097085179936277
0.02785130027339448,-0.06648566651338442,0.030292504691307284,-0.23958504894527563,-0.06053980102175068,-0.21072823174987654,-0.018219916144148442,0.03362308811489795,0.06489141127327647,0.12373171242928395
0.11102426272078694,-0.059444711937622706,-0.029530450130792568,-0.1999693645543977,-0.10755453114278377,-0.15381265337142233,-0.02769481834354837,-0.025423227225284548,0.08992113482371818,0.1113083582544311
-0.021234371404487227,-0.0394308798672611,0.055714910871289464,-0.13925118791225297,-0.02553797128810721,-0.06478354829584602,0.07124902474980783,-0.1356217718738255,-0.010631244743037557,0.09652328810986481
0.08460161749998611,-0.04843958400204998,-0.009636816818639345,-0.10487993497086463,-0.10408458154344802,-0.0890130042990859,0.0155314105255818,-0.06931159515883781,-0.020001174967909235,0.11937156178733921
-0.02594848892115038,-0.08958199441154176,0.0051527376204136,-0.043730923171085956,0.04451939208296848,-0.09340212389664704,0.002381979540188045,-0.10549876409835958,-0.010203969270171065,0.04762801726462474
0.0010348376422675205,-0.05005915913343079,0.042991203639362985,-0.016434340262661058,0.06418214981464161,-0.05481615252994365,0.07259517228781226,-0.09188203597961982,0.11825430328986959,-0.0030469490627045084
-0.09531847956954181,0.029388231308486494,-0.08747195710746367,0.0029772666389184313,-0.02547871509155988,-0.017104142044120883,0.03445745173082328,-0.06661456470547271,-0.042813265279620503,-0.0028083550197728828
0.05605933356407402,-0.08699263436814157,0.0026824853928527747,-0.03746551201151579,-0.05554797213770926,0.009329798753012819,-0.007250087544898163,0.08929981514809214,-0.08055636397864355,0.011032128337421506
0.07219018884474254,0.07579942247322075,0.07158000183441424,0.02277306224445394,-0.06419546685420457,0.05658778193554705,0.0017074855532088601,-0.04889433145531665,0.06364812571451217,0.06928223265757692
0.06774753898705854,0.055623754100607964,-0.0775291589592367,0.0011717944178333828,-0.05844798639511187,-0.03646041230255928,0.028569111067378597,-0.013465717260279009,0.025157771132569243,-0.030732736630281962
0.08092411015851447,0.001597079967814261,-0.065499488845,-0.06501368312938266,0.08460763298388774,0.07536267441099277,-0.04332819519635213,-0.04392485973126576,-0.08487837229790626,-0.06197468525646655
0.07650744929376589,0.06721491223484438,-0.07931870648787098,-0.08866212762148806,0.009216220806126933,0.0153250488352124,0.01422525131898667,-0.07893393646571671,0.006956140633882383,-0.00798590252073334
0.0705403383460768,0.025783075807857842,0.010360023078946432,0.06253469928286559,-0.05882754342282211,0.01619416630064973,0.06795612328153663,-0.0324956626752324,0.0637095150975912,0.04843654905936641
-0.0009720135405070559,-0.024680577966478413,0.005028531688065003,0.046238127351445744,-0.04516996624923948,-0.12550495099925646,-0.04343717315592914,-0.049733771658004675,0.07346341236425258,-0.03852599643996677
-0.01955104762785822,0.12290676180003465,-0.08807611772218113,0.09384194913909208,-0.015186661787431876,-0.2353194715713048,-0.0350980683873578,-0.031187678313706564,0.041562979380544034,-0.0255192331542869
0.05845121106948922,0.1385811956359834,-0.03449970811410927,0.026142902466523548,-0.057918392648985476,-0.21925757191214343,-0.0611300205963295,-0.07932620820705628,0.2007777792689925,-0.016235895689742895
0.11019576659827898,0.17866492559332314,-0.08951807651359178,0.13009722960353862,-0.03292955857807018,-0.13544488304570437,-0.0018901287154032254,-0.11401201644249347,0.22674797566264016,-0.0032295160396446348
0.22123408773703857,0.14477654453687258,0.02559253241508867,0.14780404343850298,0.09076873747251868,-0.1672768509706737,-0.06618833253284295,-0.0697397685596481,0.07189956603783645,0.032050847568926136
0.11241865365451002,0.2645149823998026,-0.03467468656009541,0.10478436144794023,0.07898111449550062,-0.24337316696611,-0.020359518971297057,-0.03658984185963543,0.16326216692870169,0.07227106515183138
0.08075741656404911,0.19918340345886404,0.06342462127223962,0.2061540492934181,0.12027710545619694,-0.19934328293454096,-0.08642140875478921,-0.05344119026964274,0.08417691568811081,0.01392685214034129
0.12791058431295108,0.13060702528374765,0.08547409220486814,0.2432038088409728,0.13527190243986537,-0.24885133645809673,-0.08563438810733473,-0.027050072653890686,0.04716610162506476,-0.05571868909001478
0.05170670048314653,0.054823942002520824,0.07535887381540379,0.17883442749962575,0.19296434141916136,-0.2160379730597065,0.053617889758488774,-0.05728318926896179,0.16062062501760177,-0.09966826410304751
-0.03719215700520413,-0.03827422368814918,-0.05354518726656477,0.12584527854758126,0.07730456366991653,-0.20438234740608557,0.14411646956163185,0.1432893432940219,0.18839625656264675,-0.1672904076757173
-0.021085634991217322,0.1226346454095588,-0.21874165871155873,0.0215626538300329,-0.014741958201466766,-0.13569610929564388,0.21550761491098125,0.23646890645104393,0.003760841774708224,-0.1287393574614664
0.17515030369577558,0.20240006586022918,-0.20539162159259897,-0.1684706340440196,-0.14918074222280905,-0.054380330052753605,0.19017368538655974,0.1899846032079927,0.09718675886589344,-0.1630467058367889
0.32094540232980273,0.16887362627738498,-0.04803455089837593,-0.14439371422586722,-0.15507936290710436,-0.03968954641965761,-0.06446458292383028,0.1246073737316862,-0.055881593293126065,-0.034024591341090434
0.11214804355772087,0.14017806209396091,-0.05103994875709529,-0.06565182083243416,-0.1343102416382176,-0.10671744368666584,-0.074976620207189,0.0089680409906432,0.028084985946772945,0.1052616451057851
0.0798161804397486,0.010369753191950229,-0.03371228451313549,-0.22886078056692177,-0.12319536506728762,-0.08871228735211574,-0.11302078728864094,0.08591439793688195,0.06340521849628276,0.09156877544614142
-0.09053473632140148,0.017096347238637587,-0.03278145229879388,-0.26772093052549545,-0.04748191075186048,-0.14921746630419638,-0.004838379634029251,0.01768383564816958,0.03891089798782674,0.10112906788764375
-0.048515102571359416,0.02296501997999793,-0.08331375024826843,-0.26158165154943347,-0.060747303443663865,-0.006196051411051836,0.097635726238475,-0.1432865437533844,0.2058475030536799,0.07151265145388667
0.03732921906288754,0.014388943705288018,-0.007889179442917572,-0.22719475480312115,-0.08911991207780656,-0.041077191208098524,0.011020013906111287,-0.1385549526922549,0.18459325080214836,0.11083811371189989
0.014576870397357876,0.009587134493216758,-0.03602344344664613,-0.033639319897314404,-0.054712984838946335,-0.09963193562608302,0.022522954334770823,-0.24146738872894882,0.10154737140167386,0.15790737194638602
0.04329983138771515,0.012265990413473954,-0.03139088100144884,-0.028252548592575085,0.024564872816960796,-0.052242257293213225,-0.026446997325709858,-0.1954631891406686,0.14792739194522983,0.14021457548697605
0.0035674349550499323,-0.07029690947247072,0.046780768598700735,0.03449018468034981,-0.04173933849970398,-0.001210671994993637,0.028338683512065827,-0.06516364414975584,-0.0726852073275063,-0.01806567533602906
0.054314741534286684,-0.09314049043251692,-0.07409095110006617,-0.05399388650055605,-0.017556168589488254,-0.011300334536756981,0.0733444358901215,0.025457014676233947,-0.06012946153503019,-0.03471095018004468
-0.014469667533962234,0.08070159194278041,-0.07423340299776285,-0.07674388602397039,0.06681695587495089,0.021572745884757452,0.04822892208753275,-0.07900092304865267,-0.060031687728704916,0.025010314538713878
-0.035112447874389545,0.07801651921770307,0.0648795101577733,-0.06804842857148487,-0.02284770505271337,0.07879531284065086,0.050430314525481974,-0.0001833244736349466,-0.029050141008137877,-0.0010659888403533942
-0.05463880997469387,0.05217000826905896,0.06661540014009731,0.07275975069890445,-0.0001613655305566647,-0.03304452652998784,-0.06749471421450313,0.015992199901329468,-0.00021345986254618643,0.062010675476250554
0.04873636907257486,0.07222618515043863,-0.08697763540288718,-0.040987166093455964,-0.07262690711485197,-0.004549277474736106,0.056350751706445816,-0.028733629931449924,-0.032594150411353495,0.047383920651044506
0.08291335622067816,-0.06683010238012621,-0.0444447436587034,0.0477900707929586,-0.028748834469214786,0.051476767627236186,0.03881500350492128,0.0024377611086343898,-0.032524952849713205,0.014516879225960719
0.09896156975798098,-0.03877565516925862,-0.014189587039657775,-0.04225369608435325,-0.06267539476945744,0.02884013855819222,0.020978497243023968,-0.05674089455617896,0.010386716483632744,-0.01384548333713775
0.038316884976137146,0.061180606007916104,-0.14359934429526255,0.025664886875342074,-0.027579944483155514,-0.05646952567440426,-0.01697057240330863,-0.007906029202324551,-0.012065580914216084,-0.023534967436304156
0.07061036214435308,0.17988689430414945,-0.05804197022117094,0.0643091472535258,0.07388931359286684,-0.15155302164135248,-0.09422856167179298,-0.1250741349232385,0.11002777374169269,0.038795954412900666
0.1577062631717157,0.20672536723315996,-0.015555307290484151,0.030324315820500658,0.1271407169885223,-0.12308208131334963,-0.023279646617143313,-0.117479381802746,0.16102741525811262,0.04231477406716676
0.030624980886109546,0.17727562517328854,0.026294799961839622,0.1088176433489367,0.11406233911332672,-0.1737992791224069,-0.037072721126045365,-0.20588584601808943,0.2405771388833862,0.025263952419855816
0.07090377433583737,0.1640425730774852,0.07257485397267091,0.12436668730059443,0.1754007584503657,-0.03677126425459091,-0.03332311028556129,-0.14081555504698787,0.07284201832701345,0.043309572261692915
0.0033211451429111536,0.2403666613191846,0.04751408754907414,0.16791758859973127,0.05093199729304949,-0.18134496146941326,-0.0875246209018393,-0.0709949990932752,0.12025622194624824,-0.007943771475814772
-0.03162702990549295,0.18811546682659608,0.22820755212238839,0.02026579862249237,0.14209503979146829,-0.10163673606894219,-0.12887563670408533,-0.10527836150075669,0.16824442197210288,0.03940323798062205
0.04880463495520216,0.22685612236548283,0.3061070476610249,0.22219901202483994,0.16210145508338442,-0.08909173540535521,0.05638099860423222,-0.05171870723034792,0.16210992620578127,-0.024269089084384105
0.00808781018034735,0.07361125835897386,0.26929939040279127,0.19340161698395159,0.06540323100423656,-0.09129822329546555,0.031492443697155544,0.06468107285617042,0.21770734661849517,-0.17690292803273344
-0.048791112973071836,-0.021533797331038166,-0.04437073306528847,0.07931569365627357,0.0132461736146827,-0.07407761125000421,0.21118350568103944,0.14081473305546613,0.19005519089634254,-0.2581059617185403
0.026517415672980306,0.09723867980264986,-0.11303609256752639,0.0006004423667473601,-0.0477946890998369,0.020591752845640875,0.20842230685252924,0.23895450366724652,0.13852987392259739,-0.16936208783654474
0.1906341403283685,0.2086910169306083,-0.07133045052388497,-0.035774813882732924,-0.13861658159446652,0.02787259371234736,0.22638440455630393,0.10610543890396384,0.08040673283332214,-0.19647200126796616
0.30488269297505255,0.24098981441877473,-0.060173115283436746,-0.18115565059622568,-0.17561880268066885,-0.026789847976557115,0.04857911688047264,0.1246388269195196,0.11833411414847374,-0.07040962638844606
0.15256029239732508,0.18453711824197921,-0.041765300601291445,-0.09263412493806303,-0.15128731037325138,0.021005507001219597,-0.040054496791060525,0.14757837538688132,0.04663368438198681,0.02542639725786508
0.10272520503112889,0.11438758656862195,-0.004234001267256084,-0.008759220114572162,-0.004406521341464599,-0.05529586660099671,-0.09204830667389272,0.08314612988912962,0.06473851846862894,0.022141031877878477
0.06079834698128052,0.12929529361151498,-0.011017813564840044,-0.05929204073272144,-0.162512430998024,-0.02347187507016938,0.05388936879318306,-0.004206448229643815,0.07680050398475427,0.026172362351781484
0.05978707414332785,0.022036268431487108,-0.0970824953616623,-0.16390263371299651,-0.08487595525517148,-0.026021979865350472,0.021012063358907027,-0.11847416670181324,0.06543296628610475,-0.009577736573082654
0.14709863493117756,-0.007710880227185956,0.027822278539422107,-0.06076263124125772,-0.006402257164148501,0.015839713518194996,0.05106735696392746,-0.20490641166402782,0.05521939797203329,0.1288545008096146
0.09687845790486092,-0.05843130926530883,0.029468501899858987,-0.0753452554869251,0.05081606969647172,-0.018841343790561463,-0.018420698366618186,-0.1755615578000586,0.06790097688045182,0.030561589911613837
-0.02534344153345684,-0.03660468140493584,0.0009447404186048959,-0.03581402939583305,-0.00805433498235272,-0.042586197998847934,-0.07341919221663644,-0.23172732161903675,0.02972778117454424,0.1468061755251201
0.09199619177700104,0.04617325110813994,0.03375517635700918,0.011267230978982619,0.0009130965963317403,0.025880183979687926,-0.05665771564839003,-0.13094347188371672,0.03917418918978208,0.09591192553997308
-0.02544600824162166,0.00718806998621677,0.08413875234614746,-0.09954523075789944,-0.004641367689521993,-0.054292232586899004,-0.00940493770514098,-0.04908619166074424,0.012609451878578854,0.08506764021061286
-0.03615224591453388,-0.00373894333749504,0.0829412827998847,0.04851980590116231,0.08136314418279765,-0.07856758268100109,0.04547056308479757,0.0664004443733543,0.06505069472482676,0.07711535861219652
0.028596468547189155,-0.07103243959184602,-0.041814895607226205,-0.023146756336717204,-0.08105657993141345,-0.013437656403046267,-0.05121172856106494,0.07121237432543855,-0.07203219421844463,-0.031125853524674372
-0.015067320138581475,0.003015828398277423,0.06551645863674108,-0.04759555773610205,0.012049349844773696,-0.08303195205378651,-0.06834047764177241,-0.024007842230179308,-0.014628409323106176,0.06410639061972989
0.02485787873938791,-0.05839154472020989,-0.023924400425755707,-0.008187369140819219,0.07065332609979753,0.006885955339767756,-0.08650747077279414,0.018947431346973388,0.03026864486022766,0.03717322454129544
0.02894987362148983,-0.045479790630618896,-0.05438206862195676,0.052334253921630124,0.05109422384561099,-0.025144297954723473,-0.030453665137477645,-0.06346958306004215,0.04298159780155796,0.03352009176745044
0.07447063659143073,0.08424552192186634,0.06092599795761934,-0.0487195960497036,0.05768546411752898,0.027846178083131022,-0.07977579420939158,-0.025793219825073117,-0.0542142887526653,-0.06145324391006565
-0.007620769020326751,0.03840912458245042,-0.10845261585835572,0.030059956933651294,-0.02779509915275515,-0.16067283536576912,0.04678736111015808,-0.032947213635489296,0.07800559707569901,0.006267662682936596
0.033803627985472644,0.15121291504813292,-0.045436025940921644,-0.0030949232902035668,0.03935098678884431,-0.1256867190299038,-0.11636613771721825,-0.02614609872910408,0.14828482201085957,-0.0014580531108727085
0.01814299539197889,0.05822490451684636,-0.029966932723710323,-0.0469187572289964,0.03877401694743769,-0.17621755075909318,-0.03776871027024704,-0.04306331681076359,0.041400970798322265,0.10892396586499606
0.13312900182821505,0.21023738287290272,0.04149486257432056,-0.032801729522573056,0.1450906411756839,-0.024491173532901648,-0.10210803082449578,-0.17457647969173576,0.06568206549577926,0.0346210571423032
0.0707404836866963,0.25191873579552493,0.20578249854388897,0.07363390489388989,0.08527438977050113,-0.009864487928288458,-0.16883403026769994,-0.07403042093654753,0.050711475795064465,-0.01360037701904216
0.00754755885199231,0.06584993644048132,0.22050894208472788,0.05869857117847162,0.2541130901735775,-0.01762790235540125,-0.09923735184434385,-0.04142712067694029,0.025282924960744312,0.05379918505623823
-0.09379410133406516,0.06494316623613962,0.20712482156714318,0.12616152507495845,0.14268101908027245,0.009613550140591055,-0.08912724879860005,0.005655262665739904,0.13751858051034843,0.03165401670667769
0.029838479426600818,0.08468257486727263,0.31238198573538634,0.18741367404709672,-0.04492967522508149,0.04865654630401032,-0.08924947161430935,-0.03603820005905571,0.10605777606496665,-0.023120007550483466
-0.08815376646042263,0.0878608593577507,0.17226579946042503,0.06493471444864644,-0.09408096389857419,-0.017000812422831163,0.07885299758537083,0.029721047483390113,0.039389929039560914,-0.04158396670973619
-0.11738338644904489,0.1596639122572446,0.013008697155806706,0.0009434425141789124,-0.11809986251963772,0.026034272220708643,0.14792052039219056,0.23616961331692699,0.08558309464392107,-0.15895879942038904
-0.043769889770203754,0.15068403188942897,-0.02477834556942028,0.015828783403363203,-0.12254605454572798,0.1982848304397941,0.3430632765668792,0.2945383010318544,0.037775932471613656,-0.17861777861991607
0.18709388312159314,0.16518735344457403,-0.10104069168664356,-0.05206608693881078,-0.1997651872250911,0.16604276769865695,0.22961620860441337,0.13579746547319171,0.04575897598274768,-0.18578209331859763
0.11420351203211056,0.16578030607797978,0.05930602311296038,-0.08740717509407259,-0.25040190255464034,-0.01489851182526368,0.01473921843820159,0.113834140926283,0.04461563831458175,0.0198712165801915
0.13252690869715478,0.20249940336708747,0.04111587249485538,0.006943317313678557,-0.0603660182156306,-0.048073508907745734,-0.1334316371354856,0.026012303330600575,-0.014695573445683372,0.19004235080190907
0.10143446331443672,0.14648686796583385,0.030307588189620083,0.03101663872679227,-0.07183924294967839,-0.030558273271007203,-0.07390992378215461,-0.019427813438448942,-0.009216646703891666,0.13606450360498054
0.2098244048641635,0.13778574707331637,0.011061807506016723,-0.007699262091672257,-0.0884432080753504,-0.04984311110806093,-0.12691703852619654,-0.018242972179568644,-0.01177093790756548,0.043001357224332626
0.10564239397677613,0.06865256344162418,0.08542711622764469,-0.04628440940885043,-0.012038421751111462,-0.03342064974318647,-0.07726875747503235,0.041589443026651934,0.030832672136113046,0.027560723138673242
0.16299198453865646,-0.036564043998543294,0.11071877746512818,0.014622727824248914,0.09176381798741358,0.01477386240979945,-0.02241725994619414,-0.013338597000194172,0.06706987955084523,0.10057232640590903
0.19750494780282773,-0.06746490939496462,0.1381669359627298,-0.11333410053503151,-0.024988545566998446,0.07774518283931,-0.09037347490893387,-0.07163837680055166,-0.007677412177216478,-0.010110324009726704
0.04114215775018861,-0.10664319635559276,0.10169479563701013,-0.04593220087445343,0.01756648836389733,0.04664191067046629,0.00999144299320698,-0.22039671582170073,0.00424471371227374,0.17088020420705344
-0.024069723612596246,-0.08706245087871183,0.020424768476850524,0.033079795163073,0.07669683252923604,0.036421809826639236,-0.01839388688454659,-0.14238557274015812,-0.015307061148329667,0.09730371082906904
-0.01992695271716473,0.057248075612258656,-0.04394930338734657,-0.07529074778300358,-0.041188641662628506,0.07801910811080738,0.024241697489291017,-0.0722261421187259,-0.10156960508847208,0.07369749754203307
-0.03611879979274714,0.042535772926503575,-0.05302767068154833,0.0689076083178785,-0.022113373566724517,-0.08084573465013559,0.024472453040581633,-0.048057837205676954,-0.06269497341943048,0.08852826872458378
-0.023718885666297013,0.054093930824062164,0.007159255386722296,0.047244322446420184,-0.04000545692845419,0.014936324277625687,0.08563118245776338,0.04065228355853648,-0.07030881400957825,0.03903032379382115
0.005570111204984907,-0.08231221535542577,-0.03965894244409191,0.05541899436880418,-0.002582153780132393,0.06800662091586859,-0.05655559783432644,-0.05543632515468167,0.0586516709382304,0.0672720682453159
-0.03980312289320996,-0.055886705503690015,-0.04718398601834393,0.028062511568566692,-0.0841020615313645,0.08090928457029095,-0.051690796206857,0.04448587378702046,-0.08539424907747346,0.0828153290855024
0.0771070229703658,0.00030632023971487534,0.04805996125408277,0.06771622709972147,-0.07624321255686797,0.047306582318004706,-0.03861572906316709,0.0152442184093386,-0.04605155004734611,-0.0395563422736227
-0.029266801088634588,-0.07378671772713341,-0.030470666323515902,-0.06967241751140829,0.06191250030819192,-0.043854667781789036,0.026002150073354102,0.006750615940209053,0.04898529314583013,0.004781572991289242
0.04698053760803545,-0.005229129593810015,0.07458971172882461,-0.1018050036305978,0.044494835480234286,-0.022182761962143433,-0.04220662499245662,-0.0736598659963792,0.062319156995640605,-0.02226295172985503
-0.08783249434922376,0.09631791079595643,0.10062562108191798,0.02697274512341854,0.11351212637245343,-0.01627203036349185,-0.06351326972246835,-0.13239957887679152,0.11371542435644635,0.07426930971836385
0.03945582144754568,0.13253441570384777,0.09965728036119262,0.08105785550157457,0.13606266811790205,-0.05406451252965728,-0.03293668612306057,-0.10839851904776629,-0.04252518347505041,0.03993253695286673
0.06429213887064639,0.0821739021504082,0.22199755548322322,-0.02237089630558719,0.13653678095086422,0.09503922012332308,-0.0768491058178105,-0.15818092098843958,0.05313150086257837,-0.02377992634808089
-0.02849432338302005,0.21344688262403094,0.14826869976381088,0.11090392609341561,0.10231461706427757,0.09639030832216952,-0.11190729410956789,-0.1239576005536919,0.08431954698108365,0.1100113898378836
0.07428418223708577,0.09208450770260354,0.15489121610118775,0.12374880092071144,0.008560365301952023,0.02393101767099752,-0.13530799153792386,0.006003127060119558,0.0840317016768755,0.13276181957498376
0.009552342547354337,0.0505917120738127,0.1791823111243151,0.07318018101392199,-0.009941320973214032,0.09417566395009265,-0.07564460169180497,-0.06674365449702699,0.08811606287664897,0.03932611434643629
0.039632844804343724,0.032478738820059985,0.16737415419633667,0.06737588410245672,-0.13713738140183068,0.027242832750352323,-0.03901409003719835,0.08327952081161379,0.011702545032747966,-0.08670046626254561
-0.06540660863399322,-0.00532514665225234,0.19794183608742522,0.09279521570905601,-0.10393259932389082,0.002125691917563375,0.04819795751146175,0.1201576743630448,0.11345058714892747,-0.15372988585972824
-0.060007981833694095,-0.011424690216213002,0.12591012779950228,-0.030528772257966352,-0.15215457026270884,0.05735656008333622,0.42137831386650004,0.28235401809730665,-0.015845946059663336,-0.16610373690080724
0.1245094887247117,0.0885039000926666,0.054033984210544575,0.06442127685186244,-0.10695711614283257,0.14441480328648523,0.4629254427249215,0.14768844888494903,0.013003440724025638,-0.176317343202507
0.06699847330433481,0.1729491207113941,0.12087556327652055,-0.005806311679166611,-0.22553399719419392,0.11866690246263768,0.17662867379975952,0.06524703354040391,-0.009795725438930682,-0.08881513286974523
0.1146663799838764,0.20730490632405205,0.04661823754711354,-0.08047307941006974,-0.1783249845646613,-0.01878798435065976,-0.05581184666401394,-0.04319534201752948,0.06015198434868041,0.07654317989219327
0.2221984299787557,0.13847015978857397,0.11598421093138774,-0.026328221165587393,-0.03525849266148786,-0.04047028341257585,-0.08741574840192659,-0.02101505245020286,0.0017572563770527393,0.21101752138111787
0.2425989490866348,0.15682649049315753,-0.06693572781311416,-0.020426648993254908,-0.07036288254214494,0.03493649836614466,-0.05726052661196874,0.10749291614379597,0.021891526224499063,0.19209945071762421
0.16615904431449047,0.131730666184087,-0.02415741603636901,-0.07615625763091739,-0.0045839759096327065,-0.004072863382778391,-0.16065107421838878,0.11393696608927313,-0.10118445323340745,0.08185699374728142
0.24494148545426958,-0.07550521750030534,0.11180737780902072,-0.07355600135258383,0.159763181798177,-0.07626828304210528,-0.08648695536359717,0.01406211985486792,-0.050856317747494204,0.03022296704738492
0.24226313141258018,-0.013522951670071087,0.10700948976255927,0.041231054485267614,0.12946696433550925,0.021920037841115417,-0.02649868178353588,0.052625056784216195,0.0031554189907285098,0.07699925085177099
0.14572135651681137,-0.0465116239468986,0.10478858299499748,-0.0722485468313686,0.0988067115747504,0.04438586312712071,-0.0758388552540298,-0.0902343684280887,-0.044299976575469774,0.03148201691090623
0.06685552291673495,-0.024027156133212883,0.08478610767839687,0.051405122609074566,0.11925868673396528,0.043362171381805,0.014303622133588535,0.012341185720617313,-0.12239524392691226,0.08677397619805728
0.032509879279443425,-0.019722830607265464,0.1291099338671337,-0.039783450695694195,0.11093764181625834,0.07845064498417566,-0.030113631202248314,-0.030571755184116735,-0.09598509411890431,0.13268945867055879
-0.07116319993551988,-0.05898236033338443,0.004168941616888174,-0.05582671791084304,0.011133354553466247,0.04966901393101965,-0.04860294989691095,-0.05140467918084967,-0.025705054586298976,-0.023637224474843215
0.020635520748887106,-0.07180158584208705,-0.021215525572561976,-0.04133324662693124,-0.013505754631489699,-0.018751183131267283,-0.0013573106630674354,-0.07802743831610866,-0.11337077054744958,-0.06069103444756158
-0.01393804037745295,0.06796911991631885,-0.06363011672768003,0.053369193034441105,-0.06844908564934042,0.04121091513711594,0.022428847679377906,-0.04488005771344061,-0.05888663334012834,0.06553537282468831
0.07008634592801982,0.018205060135247822,-0.041687121236035324,0.013092078060695789,-0.03233282023832061,-0.03882868679903935,0.02454735042189443,-0.0832237034732644,0.021735922266834073,0.05492475322016585
0.05264711530339327,-0.06928559615874265,-0.013553206221708415,0.02981721341324771,0.07605517176934111,0.01725555624818712,0.04102649979836428,-0.011630935939511757,0.06921336118111739,0.06257220131962299
0.06998811594096188,-0.04930254538247505,-0.009685151112935799,0.026051353850350713,-0.01800093028374375,-0.07908102006834009,-0.05822623340075566,-0.07383537796448437,-0.07501086014726156,-0.019177188289238957
0.019420557585075174,-0.09216714589343812,0.0067448089052205345,-0.07357635592641079,-0.025019661901492626,0.05826468428019982,0.06957417441856956,-0.0070430992350762915,-0.043454113215002525,0.026156941689683973
-0.1258914956797409,0.08826299923839952,-0.019915966816285702,-0.005438879147922397,-0.03594693477954433,-0.026906554813376362,0.06899094837308085,0.03159261836552987,-0.08115120723661114,-0.043668375113970745
-0.00877002032021182,0.0063977622227381035,0.01494932123285382,-0.06465473359460044,0.04109734181299933,0.07796349809744016,-0.09630033630556141,-0.08645167149248476,-0.06395956814458119,-0.010682849838182828
-0.022693331000135986,-0.011443629378525695,0.09667100006006066,-0.080196817916561,-0.010469160718216162,-0.04286600984553524,-0.07612233076535181,-0.07567523608842718,0.07197932883634373,0.11049039728800544
0.08356960432114999,0.020003688238473014,0.11164333431627987,-0.002793283565473581,0.005286043986136204,0.1068151510365479,-0.05527387864129916,-0.17481722081995324,-0.01510934953635247,0.0021530994415619054
0.11869440241976789,0.1533595915975991,0.14591762072480718,-0.052541248145100986,-0.0283958595288034,-0.12444002087706281,-0.06120445514824918,-0.2225133784712181,0.0742506094602754,0.015173393804820664
-0.029006752017938644,-0.01743033106719599,0.21886091146936684,0.03386704651132206,-0.11329396457740216,0.0499484310322262,0.0053846364948154915,-0.1919490765374078,0.09796953207156973,0.09034892584973105
0.032526020745759755,-0.06623761138443536,0.05884478861894857,0.001611908599695184,-0.007867657324907526,0.06321619293905927,0.06661575145456847,-0.10748456131769422,0.13173520070679776,0.07668283162532835
-0.04190517540483002,-0.007904958404062856,0.1464515073758848,-0.07961018681152465,-0.09862776329993214,0.17460758048326297,-0.007304772359843233,-0.08391354988117974,0.17356569817966,-0.10809787271193408
-0.00507046858994541,0.03914080817750559,0.1760402438218826,0.10080457320436952,-0.13905996762090642,0.0982047946785551,0.184781042007495,0.03822962789853437,0.12267178384367086,-0.0678584073030913
0.02654286227475026,0.11800069039497393,-0.004284776700414489,-0.015192021236104566,-0.2154821361960815,0.1532661130810719,0.3315124936139915,0.1574066304382565,-0.0354922780818755,-0.14356250790217953
0.15286420909030446,0.19190923444511251,0.008186206149700595,0.08961702539696852,-0.15315188744090155,0.13532617801849653,0.45664982998554643,0.03139547157952445,-0.03931565642580068,-0.11529427615548077
0.2065466271870082,0.2393524031177957,0.08480547606214399,-0.0016605270612373947,-0.08348211686024437,0.11929112836836427,0.04653931372646948,0.011442285730368217,-0.059884956788809146,-0.06312299415738577
0.021872267082849287,0.2669913702582919,0.07423698535938579,-0.06764325685117853,-0.11814482946367612,-0.06322037535698338,-0.041883334293104944,-0.046415656501663315,-0.06740393994995655,0.147565510984433
0.15106492415663722,0.18709025814558458,0.1323088851715711,-0.023625227006588975,-0.14126010038811365,0.04025084142859055,-0.09026086628593066,0.06013928578257758,-0.044630303784719445,0.11798674106627838
0.19642578641134092,0.034673980911807185,0.08535927603094932,-0.01807524462249414,0.06461478724054973,-0.03766433597547629,-0.1447030111805525,0.06012460536355632,-0.005865554900522407,0.09264045035935846
0.10963338619662029,-0.029272044089740396,0.14265628621127757,0.06466609407181483,0.07208319117296573,0.1518427842255009,-0.08345511944869104,0.07280629998969675,-0.07776116630738175,0.12158402844586823
0.123989895641209,-0.05329713933667017,0.1258696676633172,-0.0011495748687667547,0.1376458069370845,0.06998559591099578,-0.1327449733884236,0.08024510087892638,-0.006123610624725957,0.09209242731435761
0.1714491245529118,-0.06326990492626626,0.08206824550046807,0.05209820669771391,-0.010259466628649698,-0.006941956435630891,0.05010913087335766,0.05898203970337202,-0.1349964151783946,-0.00027780168706640094
0.022817026621923076,0.025120826277239248,0.07144208175551707,0.04032734862136124,0.0691834063304554,0.010345138301193442,-0.07580425041876919,-0.001787221733086183,-0.04639849879553767,0.02943219675005153
0.054373318889395825,-0.14573267898092052,0.0949230252321472,-0.0074084569493335405,0.026726549058192068,0.07371286301902212,-0.06792534849529452,0.07342530491299673,-0.07137386953728428,0.10053563859965374
-0.10804477715771676,-0.006556662451965414,0.13211705677917415,0.017205083299238026,-0.020204937714820834,0.0944169307878029,0.031744214184282804,0.07445122262129626,-0.02583962002976251,0.08142092584543802
0.005335887532521,0.06309010737884291,0.12473238878107135,0.02124487537579977,0.04485691161145865,0.066957003341505,0.021498094397145055,0.08853770518923694,0.02390614773863394,0.10862401915056624
0.018370684824519857,-0.010252644657562255,0.09574015501405317,0.014672818567453522,0.030692409805164952,0.04882078192358708,0.060872364829658514,0.0008998625589844344,-0.004915136942996125,0.005461688910370995
0.02585494118895749,-0.06824533954983965,-0.05406720901232128,-0.003660928008770155,0.07065631018572643,-0.07875756279249833,-0.00419967488138391,0.06529792557510997,0.0032261432626679303,0.03226582819832603
-0.010543326189313182,0.04860806863797365,-0.07146310129421019,-0.050656463332193695,0.05313050607622413,-0.057556304828762395,0.018249269379398414,-0.06649617109452866,0.0062178368213528235,-0.06252258058591245
-0.03221267129500615,0.08132830240878489,0.020831970091272738,-0.01141641905215313,0.08035009789443903,0.014997200408478257,0.046943347490580184,-0.06086981856991048,-0.02194681457840074,0.07434556380739607
-0.05658575672872114,0.02403409794592003,-0.008204009243507416,-0.05215822213347719,-0.06182658376623568,-0.05606549503124973,0.0057757741165305,0.04645766137279162,0.07829625893929414,-0.034837453569991655
-0.0196117508351609,-0.08756612995127583,-0.012389556335864669,-0.06811348864566814,0.058032529770668466,0.026406671347676363,0.04149205188612564,0.10804623652239975,-0.011470688218929647,-0.09737598090505342
-0.047109213878502136,0.01900720883013617,0.004240606883393027,-0.06303073042155746,0.0031160908931496586,0.022819416154939192,-0.022967257616390933,0.0012764087552974875,-0.0714879966343952,-0.01155001531340087
-0.048888563399064,0.008186010258061526,0.12061829062608181,-0.05029987552196526,0.060612473007181186,0.0006175504461186251,-0.03077634024827291,0.0972760499648061,-0.11811905019554515,0.12339181593632252
-0.07355268582461215,0.03955870702056236,0.18010920695627922,0.02833405119349668,0.05213435366954423,0.054369159332560354,-0.08043135686787878,-0.12266357317164024,-0.021596572567112872,-0.006273454933620529
