-0.08496797279104097,-0.022378683972125626,-0.048125927798558565,0.008743444233078324,-0.06069341524463903,0.005570702396129779,-0.03164619558150168,-0.011703954017735899,-0.008533679383284962,-0.023995526582667237
0.028606876116363297,-0.020700357629316823,-0.002219390787214226,0.04647372943137795,0.05840992728887398,-0.015101094732217643,-0.012824512836061591,0.02489626583087956,-0.07376787709981067,-0.08552411208806343
-0.01173916035292423,0.02531055279169539,0.07107778783654786,0.014460188495708307,0.04099257481852822,0.07948068851751935,0.041535288845438445,-0.08273273587344232,0.030822421837810435,-0.07071454668596941
0.07018626353799406,-0.06908786378257545,0.05573966150563173,0.08543802915123011,-0.029987941582116456,-0.048025829477274885,0.05486754973808283,-0.0025846384392335386,-0.06802806845559789,-0.07171888263423401
-0.0352660119087895,0.03404340517656336,-0.06959441626271884,0.06442365896893465,0.04069145125648155,0.05745917798789241,0.018038677770064973,0.059729569296926854,-0.01137073253142655,-0.012714805448452451
0.03056487910347122,0.08261338780210403,-0.022842485936866358,0.007044151421858408,-0.023047605794818224,-0.01735604582428389,0.04903141616836584,0.02677734684092091,0.01625751681084045,-0.000626960511862687
0.079252585416759,-0.026245382311190946,0.05421587536650921,-0.04192946794617837,-0.015693153665361656,0.03137795305159641,0.0594375675905483,0.032191695247706195,-0.0313766250297789,0.007592716157016427
0.07451947820065455,-0.004729889329560602,-0.0030501116350349494,-0.04431556673508031,-0.0828780591649538,-0.050640617618404035,-0.045488286161728904,-0.053107953569902465,-0.05232981471727115,-0.0636510244290348
0.0013019500649085886,-0.01394825256606766,-0.02286493245404811,0.06652934302173139,-0.05295667774160962,0.07741512508784637,-0.001230435858368642,0.07763550582517192,0.06522900798352435,0.06152014941767964
4.374546525542922e-05,-0.06741329399924816,0.05835144718669008,-0.01925329199857219,0.08359648491786639,-0.053742093061640635,-0.08093905239432024,0.06072915590976369,0.009254741588197987,0.07155933638150258
-0.006164277362995366,0.08151833815000878,0.05760535029105787,-0.05772616738516509,0.04246884509491736,-0.04090231131242728,0.07364576296262876,0.020243190192640287,-0.08415740112004934,-0.05925682389291316
0.042688958285030276,0.07306884054307297,-0.06182795102236559,0.05237882816501821,-0.08338304292322701,0.012148762545768785,0.06211228191693938,-0.017100386974351525,0.07178420013451106,0.0695931517430016
0.02653227651310358,-0.05285779549747742,0.043944647604274134,-0.08345870819615361,-0.04657681232951081,-0.06482055047159986,0.008251141113877578,0.08106438560809631,-0.047723224442088284,-0.028577836781555684
-0.025550694201482566,0.06872810610570201,0.048253961355560454,-0.0016191836435440476,0.07045812670210475,-0.029748321286216857,-0.027964563167419916,-0.05545930565487244,-0.0013285819460065462,0.0638215257076272
-0.003359374813452609,-0.03335129549187433,-0.023878799157705202,-0.03596214871523071,0.00448579595529458,0.02072078978104608,0.02924990748361793,-0.018121276979208734,-0.07533525801517763,0.0859649039074126
0.018130577775385126,-0.012112943847717009,-0.032739950685942674,0.03251329671534953,-0.022448590113716554,0.04354371149969122,-0.07440630448440608,0.07702316126808195,0.06197394044841928,0.0790493967807962
-0.05230331807477265,-0.04897446541282851,-0.0041263829673887364,-0.010755615488295123,-0.04580544481636025,-0.020396426963384576,0.06890596101108917,0.06208884679568638,0.0508290004026081,0.07035573371115139
-0.08604481029035091,0.08640882419899037,0.07709714650658,0.050452687331155543,0.05204372117433856,0.0495058592431645,-0.05406456613627128,0.015036421036225253,-0.061074973316262354,0.08654694151856593
-0.06985401769009075,-0.01082004878783209,0.03833767309464925,0.016332961204125335,-0.050105712704888485,0.025918502138244412,-0.004434000118743439,0.0325864498004112,0.0553771705024122,-0.02594120804126772
-0.06753379460547064,0.07446076711391633,0.05258008538088721,0.01932595555768775,0.042932142505687554,-0.028627328408193216,0.06961350690963689,0.0841665164188696,-0.0323417202990862,-0.05041445675090318
0.06000197451518757,0.03209814808669299,-0.04099513866384322,0.08320886397360955,0.06690389804921776,0.056818892377981156,-0.03531393546287469,-0.013015606103417884,0.025355365318589368,-0.01966135799573039
0.015908002828326426,-0.005021260246738893,0.042904121601508444,0.038532188053640476,-0.013468973601365924,0.05243118759806742,-0.019184613713005588,0.032045722340587,0.06962928355735287,-0.08225372727511007
0.05682753322778514,-0.013537329678779048,0.05456095219086324,-0.03161479774432089,0.0013785848007333429,-0.07858207934324875,0.031164321585252244,0.013326217648197483,-0.05400289498382906,-0.0516742796563324
-0.06303884120647596,-0.007259050920889215,0.021365553950108238,0.08078947735532518,-0.022429815839834402,0.08591600669477259,-0.06860815104270135,-0.08312944895095409,0.04811701514837266,-0.03192462299872723
0.02791961330899269,0.03267391981398228,-0.06520098401499665,-0.06227567225865928,-0.08084894256939194,0.06606362383588993,-0.04231956922840367,-0.07914122359996598,0.0032177601062993305,-0.07226038784016209
0.007287996383911102,-0.008791474313969122,-0.04563320786534744,0.08030805782103545,-0.013281017277813945,-0.07372516008469077,0.08119096744034643,-0.007710868949287311,-0.0346417552103892,-0.023813449071337173
-0.08521408904991554,-0.06379033496074524,-0.013156222927691252,-0.035125768141144494,0.025470731683999714,-0.016266104004548324,0.004767567426814015,0.012686203212434619,0.0752924947964326,0.04961477925887131
0.07826303524965875,0.06424210916961098,-0.01571943980995906,-0.03779190576041208,-0.038256602374213765,-0.05064829293181044,-0.08647520470039302,0.01774809258295036,0.06340170843391066,0.012739317673501435
0.04725513933498923,0.03617140145355527,-0.04250197756146321,0.04160740946775068,-0.06282467491750472,0.029873761629446105,0.039070022775991003,-0.03331793319133332,0.04221940676099126,0.021628135823078
-0.0073104011747748415,-0.016816315923495556,0.06461482367805149,0.05077745671718642,-0.004870885846409503,0.013712018908640045,-0.03401990189932716,-0.06439444169564652,-0.051116277662566406,-0.014745419293902884
-0.08010174911123963,-0.07332965856877875,-0.0730431835634596,0.05036950280886135,-0.06494278867884923,-0.03327161040462644,0.07285309168628185,0.084591582122513,0.023265400710896486,0.025027112163285167
0.009262068319232458,-0.037246928348855055,-0.08052234357697052,0.06064150045862657,0.07161198919228629,-0.031559906843448476,-0.08333530064281043,0.025453300034751478,0.0641433530263284,-0.061093748811877735
-0.006190128947001092,-0.07447061999728309,0.026815999750946146,-0.021317013534379578,-0.055766770161642304,0.030837997641640455,-0.005694017317622771,-0.04898087607536127,-0.04336398260040482,0.0660365674119058
0.003605491681108172,0.0010655528669482744,0.02121319461258056,0.05536814212006394,-0.08422545389999404,-0.028311542741720437,0.07588109222269812,-0.05670511474012224,-0.06268972234798763,-0.05263367374289666
0.06986882027127087,-0.06269482947995562,-0.06008100572368194,-0.04381629759149166,-0.046017958129132765,0.026520945548755837,-0.07098047603541145,-0.03576841371021516,-0.015727782979859842,0.04973372544962892
0.0415772362715092,0.048495138565773276,-0.04328583718148811,0.07493483889438443,-0.01020027181904564,0.08026596074573986,0.04470943904822612,-0.0785984517141688,0.07904762475690896,-0.038776927381825754
0.005340725078752174,0.07824783245305034,0.05063845545036416,-0.06385987085125792,-0.07330792647796368,-0.04609902732895928,0.07740713589148669,-0.05136096701978664,-0.02290040714528633,-0.051177807853453626
-0.039624512193733,0.0012549929457882226,0.011306792326120125,-0.017968646058275306,0.018015216902065263,-0.014235772363116813,0.047510674543132576,0.0663749367930819,0.017142092752441992,-0.026247950601998173
0.05136883038918276,-0.03781153953087911,0.05643057128575114,-0.01347587896052072,0.007460045147432899,0.08694313026615043,-0.08283749677671216,-0.05600554014270589,-0.06370743222693878,0.07551137881244106
0.05265969255427744,-0.07320754829557041,0.08774256767197539,-0.014628551162184828,0.05743253680547728,0.04626719485441787,-0.08183836724343713,-0.03697649409327958,-0.03839866539555198,0.027117613629233994
0.07132326541678305,0.057564816374092664,-0.0779854126586898,-0.05687751230566404,0.0567662745719794,-0.04022846588258104,-0.0383264522900859,-0.056317161534451494,0.050726995233688156,0.04782606765604188
0.06559664654792823,-0.07047293801363053,0.035275727971659676,0.025145265195074512,0.0512310012142266,-0.049409117398725805,-0.03545266207059322,-0.07676293706868259,0.08377684648103749,-0.03084495879032999
-0.06746876232880719,0.013315318137238257,-0.05260286846933974,-0.007390103956553422,0.016790409381341312,-0.008586778170951818,-0.07882661576045369,-0.07782079698932827,0.010641401770688027,-0.023569476406832376
-0.004365612711832592,-0.044279765835618566,-0.028349439186918693,-0.021907667590445754,-0.06125735249330012,0.034705652157502605,0.00790035723986099,-0.012923811206390096,-0.07932193281656738,-0.009722248321125847
-0.0706055444003003,0.0464343816376295,-0.015626301265146803,-0.05041060553483879,0.08630697812499594,-0.01714080174158238,0.07805474480285658,0.08546341677212003,-0.04102301640126056,-0.05691819442366363
0.033069537023828977,0.06745995770102134,0.08344973640831953,-0.03723679695088367,0.07551528649346775,0.011556167849795965,0.04759809215365383,-0.05307605883240254,-0.03661012578547265,-0.008967058968652717
0.08067593158133042,-0.0804500563934517,0.05565861782606563,0.06604828645977553,0.04186628863989131,-0.0025455563130385482,0.009166992593755485,0.0031435270318674853,-0.050767105863664626,0.07919016908961699
-0.08365464020566266,-0.03656215563734405,0.030758618114194627,-0.020082931914327962,-0.08076191030513422,0.03323376949885419,0.009913537056459667,0.06323318125220571,-0.048155589681809136,-0.04822309196746406
0.05051718177981195,0.04283676085296658,0.08192769991450718,0.07729394146120049,-0.04922866966714757,0.05120497847591596,-0.08512172696073991,0.07092425684493357,0.07069646607053612,0.03708694002843772
-0.08633861704978538,-0.01974008473725138,0.02088547002561713,0.06688468022152765,0.06180278414268361,0.03254482009838878,-0.07020914107459604,-0.03056499144428033,-0.019419902036040243,0.02576031270021735
-0.06936683367009333,0.07297176865630009,0.019048106555669672,0.03284972517238485,-0.026566486712184527,-0.01656630949834835,-0.05363564576507889,0.07526543364128221,-0.0638245939812971,0.04164421465492896
0.04925975213780573,-0.02367701879263015,0.04298598947555837,-0.014747213724477376,0.0180953657524459,0.0809937251772396,0.0020125799485511686,0.01993114352479365,-0.021825390857107302,0.07367326490899545
0.03458741633288871,-0.007468487570458565,0.021494826960436544,-0.07617598902004241,0.013107644746825298,0.08275152359280155,-0.014516304166111701,-0.0534963158542402,-0.008816124210531393,0.05004073306084453
-0.06047308710227767,0.06353266740257013,-0.002128424918234756,0.025141311605312244,-0.046640626437743124,-0.033426175405096355,-0.023828831837627087,0.023719077303644878,-0.039044308666544056,0.06594404232880632
-0.03750564024141867,0.012277119238775808,0.07959916666813718,0.06822157076817165,-0.04077755208797853,0.001031356941343875,0.044951218255938175,-0.07487692749710073,0.016766260593783944,-0.07907585844737802
0.045167166465334585,0.06364471824056928,0.05716782464841036,0.0819964355435854,0.08536278667672323,-0.05345178610493382,0.022359312192256273,0.06169042461205532,0.06557974664018168,-0.03230063699688963
-0.01562351693473038,0.05554000221075023,-0.07360879289977582,-0.043998347843411,0.03058256286958691,0.03637486580053202,-0.04347163446640073,-0.0721208178844383,0.08622041272179279,0.0678703756744822
-0.07335160053071621,-0.06958968145092001,-0.023774378287578085,0.006773601591150882,-0.06942672521984118,-0.032682459973351015,0.033564145978634524,0.012397442041620785,0.01040698356708604,0.07440460317836461
-0.04125324967218301,-0.033304426660287524,-0.021224369261772555,0.05363137478593297,-0.04123739495088201,-0.04273372108479015,-0.03108911673573063,0.008143203197604199,0.04995568676957135,0.06136385694135377
-0.084379745104476,0.01598347387576696,0.05586777564642812,0.04937549815490016,0.05498258637304166,-0.008337285455456051,-0.08545525914166922,0.08348239701839716,0.07360507067617604,-0.038491910584079886
-0.017589332499307487,-0.07326108731562,0.006361036500925019,0.032674905091675206,-0.051528894533304746,-0.061941434663045095,-0.0010730243630721061,-0.08657119459487016,0.04837720042065738,0.03817377922865192
0.01952751105919043,0.005633821724347201,0.03062654207093354,0.033873137394947406,0.055459547937925284,0.0753037833451248,0.01932776594605516,-0.05769400271162177,0.08279814924599223,0.01939882181000567
-0.004246595872743215,-0.0022599938107156995,0.014715939728568894,0.034611510195990874,-0.0065704410431750935,0.005999449206463364,-0.060979082903712616,-0.057628849988727436,-0.02343994000792212,-0.004503466371592833
0.018531144097877546,0.021724100300130854,-0.037438768109522805,-0.049502156966221136,-0.02960183634569945,-0.01285198367172421,0.017764401367068503,0.06476671667974283,0.03863350996350992,0.07546802355909824
0.04505548360031871,-0.06303757966946769,0.03759270296160396,-0.02682363999839533,-0.08511008606032545,0.013859274214853102,-0.059541755750744725,-0.06231735800039907,0.04648257916431663,0.06341101757291755
0.026501367061388195,0.004934926189019492,-0.02166764535896559,0.019588423032719033,-0.0346185318869635,0.039301768733785394,-0.01669652622190432,-0.061186183415012016,0.026227725578758007,0.0705024475946815
0.044944760103767495,0.025116765439841583,0.02255545751532359,0.014859676847758917,-0.06304113831028488,-0.012349236511153393,-0.04784267177784702,0.0007447923082439265,-0.06744636296338995,-0.08479261360368356
0.0001347879850919174,0.0078025407684150245,0.020999616561838637,0.05122720110178412,-0.08478424991527889,0.11261288108453392,-0.06461171801910907,0.02892861102650075,0.0781286596317201,0.04984563357616937
-0.06674287980947603,-0.06942685009039132,0.04659829855742187,-0.056214660587112344,0.010925115951151324,0.07624723295501214,-0.012588813815864191,-0.002003218690932542,-0.06859796748839311,-0.08134746451665952
-0.03779696372349372,0.004571215816157024,0.07934489011162986,-0.056218766084549794,-0.006869769863413799,-0.00025025190612029116,0.08074903229657512,-0.05509402206145813,0.03662245150360719,-0.025108308208486543
-0.06273638434173127,-0.03496883416397314,0.015033592892139324,0.020507350219580823,-0.06412586637200442,0.07554911458535396,0.05662982166101286,-0.06266042119384,-0.05172609226092248,0.04907099654934739
0.05261735724569769,0.02846524090318598,0.01011187108731631,-0.07865103485216951,0.04063963648349508,0.07913293543621186,0.05160317867882446,-0.054894551729447405,0.09551401098252237,-0.06455011297457065
0.11043366777733638,-0.08128645955003476,0.055681228101100905,0.08812197248840449,0.03612502757048672,0.027805804755890968,0.08146816449652192,-0.09160095034845617,0.005559965777411253,0.031748340809380424
0.02915397900969952,-0.07309678988124427,0.05390128761224788,-0.04727332929854864,0.011840133530684893,0.11503727090026217,-0.07969787741306647,-0.023345649047117445,-0.008688794325100878,0.006264676039884643
0.06780925836160866,-0.07752305002351069,0.08672027723426745,-0.03387152582664711,0.05012037136188209,-0.0046629870558572255,-0.009297221551942235,0.05925000074809145,0.013400569507252403,-0.013528029664856589
-0.011879965236890123,-0.07480295262814862,0.07776613876350168,-0.004452887334584904,0.00884117090941802,0.09853520735840694,-0.08390260246433497,-0.02662061305218997,0.09268720882781732,0.048578237927303994
0.11808320228283219,0.02981450330839388,0.04705227710411035,0.05992359682210808,0.07279753743855379,0.0446199021964543,-0.04080033017338718,0.010863420781628406,0.02621782863438292,-0.020165728952077952
0.06400861837203238,-0.09032864880104703,-0.036836314637744075,0.0762683732273807,-0.03545778093081905,-0.02024566600488572,0.06073506455531417,0.04734881176237091,0.07130901799720935,0.06126077323706696
-0.021512143173834028,0.02389438261500348,-0.03729098684036239,-0.08323339153197543,0.07748245499721929,0.06891812829650366,0.037470298067264554,-0.07355231395713027,0.0795550137415415,-0.07299095073180377
0.046676063234522676,-0.08307918572009802,0.08693684700160637,0.04331043193625447,-0.08452261188942777,0.05584019228712646,-0.044963663568510566,0.03599360322867568,-0.04041362866521267,-0.014056692209669642
0.05456889451618063,0.048133923479820165,0.07474038977399661,0.06119489461585036,0.015334663513464691,0.009793150235460759,-0.028525354607962617,0.08792732399523298,0.08297506740665032,-0.042209171341146094
0.005146798130108627,0.013440973335936808,0.019076644603975464,0.04330269161405409,-0.030359706511426977,0.046447778944964685,0.02321119862280036,-0.060041881355954695,-0.015369457296029489,-0.010181024651398125
-0.06853186444233644,-0.03901266043781048,-0.006737620713314463,-0.00089967810133737,-0.010957338339141962,0.06928298366410235,-0.03068944188213555,0.006024889379124709,0.031511998189820575,-0.022051920089997235
-0.05795675194705996,0.017084451114808663,-0.07734855934945274,0.0406797613807586,-0.060195747157555005,-0.01109311152106636,0.058063063281403926,0.08154610129088849,-0.0713585185502264,0.009437022447217364
-0.01284845036870387,-0.048069665416892435,-0.050969985114705234,-0.006790629795245293,-0.08159530438361237,0.0738354093698654,0.07676997041759487,0.05854883742967065,0.04513666929556914,-0.05797881939533362
0.029078228771958328,0.04397285973634843,0.003139346852203642,0.055494094133086896,0.024515218162826674,0.03146967204521031,0.022612782327392847,-0.0674703285828101,0.0844724340578194,-0.028705532686685242
-0.012969325900286197,-0.029270977952441636,0.06634545443858011,0.06672820301805155,-0.040742683437240454,-0.01926806284991596,-0.04295278930918611,0.04828991354084003,-0.026045086798261202,0.06318422163713622
-0.014794873386954338,-0.02839298946943184,0.010082042647369428,-0.045370435304380875,-0.06611618986093128,0.011642893702658082,0.07262761071599755,0.0720791737756198,-0.04920226664983818,0.057110771331285004
-0.0003292913387698852,0.024036368171719596,-0.04148712350274435,0.08514524679802746,-0.07072888531359206,0.08559193942982975,0.030041224576628046,-0.05939401824735899,-0.057934352983724055,-0.08641563156900156
0.0652229306404442,0.02560076250204078,-0.058333179323951476,-0.035553114298442,-0.0023802374805415465,-0.08050565075119394,-0.03964050331592607,-0.06696079802397956,-0.054899538885078286,0.046960208382232325
0.0618273023011342,-0.010103398229335748,0.005145753378113461,-0.059152858331804045,-0.021293329120530707,-0.06143147590090211,0.07611928415185186,-0.06804799151022524,0.07787032634225637,0.003290673620680216
-0.07534769042269007,-0.03168051596138793,0.08095191413247116,0.031352437860047044,0.039146808949968505,0.014211731299052687,-0.077707732123858,0.04327317342774871,-0.044423470497132724,-0.07754107366592658
0.0717275670396093,-0.021465860283024815,0.019622270256646545,-0.002257830842747531,-0.0639001253300165,0.0033504489845434466,0.03188254057011144,0.06636207557376858,-0.03633949342190698,-0.06489854305052921
-0.08750936526074517,0.054550706156455374,-0.00048527237471298153,-0.09062794277001436,0.015679923733950878,0.058911099694650346,0.0036142659478416196,0.05547526717463668,-0.03134665567922852,-0.0983578680743485
-0.01958514831823643,0.0321814079490531,0.03404873460189849,0.046547400626029696,-0.06229970753478943,0.10167205860563823,-0.025588094638795602,0.025406729065379125,0.04529580064618431,0.06314658229440072
-0.02915380139969861,-0.010344711432892506,0.07221796320648938,-0.04004923973344272,-0.039083622029689916,0.1035292643317406,0.07299199223279905,0.025960786554696108,-0.02534470502927635,-0.017417077731538333
0.02266528501388576,-0.06430326397310622,0.052028511836795306,-0.05319766692388343,0.10698781202805342,0.025301853238404535,-0.06416276548714568,0.007773588890131832,-0.016326250089496695,0.020801560073822917
-0.007934992215216218,0.01541400578602795,0.0362633066634162,0.04983159539491589,0.018272265618842223,0.08452831508362806,0.07284017124196339,0.021466004934958073,-0.09271329558906141,0.024598284208870475
0.028729828856054438,-0.11865328282208439,0.0257901991295792,-0.06497271909868116,-0.043165895156496034,0.1351269632652271,-0.02166401809574154,0.016832774913368983,-0.022937654174364865,-0.020818895902405044
-0.008893159317987205,-0.0721687555962483,-0.015148954734820617,0.014280148736777992,0.07215712264233116,0.18336901574928566,-0.05677240284675454,0.09227556137733643,0.018718012976948587,-0.0985351128281666
0.03969526410089039,0.016415079586557132,0.07550821953172791,-0.010333999830143235,0.018423637327243492,0.1811907571136415,0.039851332428822675,0.10569742847309245,0.08793441327104395,-0.030298441029369724
0.017794100358419974,0.016183629042334023,-0.03724988153930505,0.07593618623756596,-0.030297590404622477,0.0744757721979799,-0.019694051254498763,0.08938450552289612,0.0005616214868616412,-0.02429455148481591
0.09387826436528318,0.0037154771358233266,0.01569855153463903,-0.00919409095802572,-0.03962101427486166,0.11950889574853064,-0.017434293813654425,-0.09048567425222556,0.08073099496386281,-0.06511295160268878
0.028882774268024033,0.015017768652649699,0.09362332509637541,0.10347828913120004,-0.1017711721613583,0.07786397519947034,-0.07735891136529029,-0.024813052199993597,0.012846887918484045,-0.1072910890318986
0.05993842306065679,-0.06447938606499827,0.03485473721122047,0.016186535411605436,0.0008348237359051513,-0.018932647274400645,-0.06421803713705129,0.05376377734146179,0.02562892103801369,-0.020752046852466892
-0.03496700435764491,-0.05364660832308431,-0.019873698649930115,0.0676042854736905,0.08193875118099282,-0.03414200433345948,0.05568160654661745,-0.06710386541712283,0.06325084863672155,-0.06826790740238302
0.0030492425867850964,0.08423800801204298,-0.03675499437239648,0.07734861792552063,-0.07242654999048136,0.020550440873024475,-0.044315067332091354,0.030301102137583778,0.0757916398918049,-0.023973678024883035
-0.009838235601772353,-0.07915537482889769,-0.050420495259216686,-0.03289417407050429,-0.03928433322118853,-0.05323654191085657,0.009173601011616253,0.06959738179624028,-0.0406265399265649,-0.055430627589698134
-0.056062760322417624,0.05953590029548806,0.07779324577218104,0.07992596691000652,-0.0762430988942309,-0.07145603230895468,-0.038739844164742666,-0.009113214406246049,-0.023207920710558577,-0.09324478731682383
0.0610638268066373,0.04579698773401731,-0.038331465904864935,0.03739424595851732,0.05135310401993637,-0.02976264224292562,0.008524736623237241,-0.03278639264962906,0.06920012328220292,-0.05583280537064052
-0.06263550248940332,-0.03234026662166519,0.016824327020816616,0.07601611307980825,-0.028096826998771793,0.048910557849382585,-0.07444603056825086,0.0868459362579602,-0.04026785551768074,-0.04531453325696706
0.07366341128837961,0.002023174808083103,-0.07204605112342263,-0.08305419120470185,-0.055853570122574345,0.007077370613137693,0.02326818995295034,-0.05194417960915367,0.04801727472228298,-0.07348418126297895
-0.044194214954504846,0.0008799705436585287,0.05058698513197343,0.06457299261374652,0.07630924904064271,0.060324155374684635,-0.04942279131538752,0.06049811379704992,-0.005533973482247392,0.06759339239025072
0.05344707306683671,0.021067985291288373,0.027695517977454395,0.07608496855487168,-0.029510662621803962,0.03340629321270613,0.07544544508278767,-0.05703756767538499,-0.08233434409863269,-0.044386744843091
-0.08646245129804048,-0.0016381645256639274,-0.06098644842671352,0.07037748806179815,-0.0670064478899009,0.03979523126681695,-0.03365612545862921,-0.041530317496926976,0.03345333213823984,0.06347718797324522
0.08096841731969581,0.07325545071672641,0.04870255491032185,0.0403727691312258,-0.04238073471381852,0.03521345647969471,-0.004435801163819954,0.0072380387088220805,-0.08336917664737223,-0.01649400937464277
-0.03037179399101697,-0.022834162344830197,-0.05966267160980379,-0.05987757290861153,-0.04590742735132191,0.009237289713879418,0.03585884577355887,0.027325580038207984,-0.015852978569174166,-0.06976894318468156
0.07622419554627581,0.058815217982728436,0.03951106554060832,-0.04890407327257665,-0.011926929772654677,0.07097941060876187,0.02794336235274287,-0.06398879838603391,-0.04861240017006838,-0.03435644005193514
0.07724479002729305,-0.08529032443199537,-0.057509997848355865,0.031032291765274524,0.019304044968878657,0.06920176613326284,-0.009392215524386932,0.0937982433884739,-0.0010294153484611164,0.04989639403200556
0.03921106403351625,-0.03210217130834915,0.1118322526647982,-0.0064998748397956515,-0.015851390332036495,-0.029764395546866003,-0.0292568026161966,0.11495927026696588,0.01856870114579936,-0.03484760347937007
-0.0642451956549462,-0.057298770200837824,0.048481065502205455,-0.11444195117811837,0.0364705928148128,0.07791568131042309,-0.008686014747177057,0.09363861895064494,0.013751568895573331,-0.0015306626418232687
0.020097823004835723,0.012951829536746775,0.13694075525513139,0.029002726218845858,-0.04837383450009331,0.08609448787099103,0.02507128809929211,0.06259031292973165,0.009886558567825367,0.02384666356793438
0.03543351861645796,-0.01760409622438282,0.055868842029686595,0.0018796096746556401,-0.02426265269238687,0.17054464715943787,-0.003983282499773064,0.07031729606991029,-0.07280106037594623,-0.06642735985867104
-0.04497181464191289,-0.114992050562248,0.13873517235990762,-0.037237118180658675,0.06383427555012179,0.1603463163476407,0.023848433597389126,0.09736252843939797,-0.02702180215240768,-0.06325101966264587
-0.07062303582596638,-0.07435577755322034,0.05231746025966289,-0.06239502530003277,0.060851206612704226,0.03616565107456469,0.153987760468521,0.1946205983769563,-0.026965480539590185,-0.08199049004470807
-0.0818274935735698,-0.15540836275800785,0.026127032877688427,-0.028108138803580582,0.10685925302668786,0.07553082688882164,0.07549158955849646,0.22073384609794625,-0.013299154442174315,-0.11280076028993423
-0.04909477245916197,-0.17278303341283244,0.02999279360010415,0.0022466239130108237,0.041177365243762414,-0.006233372008984333,0.08954371392363186,0.18615681136876058,-0.014942653644793183,-0.026547162614333764
-0.04384669627597256,-0.06416333766932601,0.07738311114847221,0.022062852966228536,0.08337528841805898,0.011077322644868963,0.12599511298577445,-0.023381931333889962,-0.01817264509448835,-0.04047503939428219
0.02024366026354873,-0.11598837745988784,0.04385596578558595,0.01266163643931132,0.07263161879435032,0.10557090824155668,0.045441926245239864,0.09536893348894528,0.026260377747299352,-0.05348184586203992
0.07028676346486984,-0.09724223055960768,0.08388498194435115,0.11542038842093282,0.12884861244275714,-0.024189994802318194,0.10793015274784379,-0.0849294348759871,0.02950231244047407,0.04286628922011769
0.03245256028892442,-0.05405910263365311,0.00018675135857748872,0.05770868624594849,0.07010199271733729,0.030745865908012864,0.06734379078792666,0.05420343793424724,-0.035755396426513784,-0.05223418638060875
0.11148113964443966,-0.07237091341430696,0.0605856214881408,0.11926054973186387,0.014079930758719337,0.043483343747748725,-0.041603918050969024,0.009199539318737623,0.037897649399798464,-0.11015383847301372
0.08671962933595703,0.018137793671710294,0.013381686670686933,0.04495055915565893,-0.05930048587552541,0.02992798954977365,-0.038674022464548236,-0.1056211634310393,0.1131420391620557,-0.037342675914920874
-0.009859152575819609,0.03350994065717512,0.03422001968755035,0.13708902844876278,0.0188421232514641,0.11744710016999162,-0.04826960815410436,-0.03543418533301629,0.0002774064183503513,-0.08816494517515251
0.022358256071998706,-0.029024904576541243,0.033919640821940135,0.05371874640391717,-0.08057645397449822,-0.001244983723738934,0.005611041424929845,-0.12393894334183635,0.1198107733758559,-0.005777805037569632
0.015645640274839504,-0.052741089695011026,0.06821088342039558,0.018420454055980605,-0.019216517655542883,0.02005821672214893,-0.02524337965136213,-0.004617149561506742,0.03749814230684967,0.026050554982829887
0.023586952863065197,0.017901785824467047,0.05088069845121871,-0.026093136336087605,0.08467977771157158,-0.04790741117550426,0.026056888063556962,0.015658079031250775,-0.04649403896768693,0.005852501244447422
0.034144274969511355,0.02473819657161779,-0.03219889959167071,-0.07175953671677981,-0.07460130346320314,-0.059090255680464956,0.049444321654492425,0.004382893015459056,0.03352754427778959,0.00032035684581916074
0.06540601443902043,-0.0663717090351624,0.025510204421946247,-0.05453721904113147,-0.06819519733832625,0.015233297048726351,0.06293669832924029,0.041036406163434395,-0.008947579176899855,0.07542520911665393
-0.07820508024364071,0.07939979729323118,0.07594841560043379,0.07661381802044948,-0.00754521690283447,-0.07619075983134778,0.005140220205184033,0.0797933930170682,-0.030796162497175258,-0.06433249052256804
-0.07147946523131754,0.06661114924410405,-0.010800917925604656,-0.07545822811223506,-0.04323068168440925,0.010624373632938472,0.028916636207360485,-0.03954536715975524,-0.05050602750308075,0.0842198281485273
-0.06139225682984117,0.050315593114230645,-0.056259771442969286,-0.06335266514865423,0.016099969326431512,-0.07632398442415576,-0.035433956237036844,0.049241895905504596,0.0861777273833883,-0.027867996190208494
0.009476340379147413,0.06441167927938764,-0.06392602036908616,0.07359598247673403,-0.05990236111830788,-0.016186495880625037,0.023023851356719364,-0.008684648182873672,-0.017758450752805785,0.06022395512522425
-0.006518890344057981,-0.07306276668955032,0.07909205376246466,0.020762424212327407,0.018580744849728353,-0.009725553566724016,-0.05096901576270595,-0.0514108302933822,-0.06063721872303593,-0.05032046894908248
0.044156307661802445,0.0809849028041942,0.07815598816255048,-0.05179379664308202,0.06856924499611389,-0.08974642581920682,-0.08653394794311633,0.06560005797153423,0.032650582605084556,0.04337200479118582
0.05495949208396628,-0.006551212792409423,-0.012332078097443602,-0.0050589251572664895,0.05134761382289573,0.07542386248542972,-0.0168218580635975,0.04052908169408835,-0.07111101244342749,-0.0774003292739411
0.09759795419782961,-0.05038613981393708,-0.03273196651829126,0.0029156206323592334,0.10859138565881017,0.05017446472316357,-0.04315104653575938,0.008758274488298011,-0.09889764951984953,0.012169376416857027
0.05161509277454777,0.05923604646195412,0.09825109843748568,0.046123448389318006,0.060723687407475545,-0.008398184552083746,0.026492227873976825,0.09638241202884146,0.004816629192563365,-0.035156313191388344
0.13123325169765074,0.029128465330830446,0.06022906421571633,0.027757438336772224,-0.012699830373023139,0.09649970439955913,0.006055113533774724,-0.007598896124556218,-0.09452302243715542,0.05809897077580371
-0.05326132662640426,0.013926484867197204,0.13447688935855565,-0.00041382328416514775,0.05537255261413746,0.11708818696320275,-0.08277104195136574,0.15621136376976186,-0.04408037697037621,-0.01896268800383885
0.06261271705337176,-0.05643808272652306,0.18711246568043077,0.02390463361581043,0.08679648050244648,0.0001590063013625144,0.01125509139767395,0.040549184391341066,-0.026297564570929913,-0.0481603108677483
-0.019089355105718363,-0.06662956460952318,0.05677393464266989,0.025722048773714035,0.07714815093848851,-0.0909461416515208,0.06583737160581943,0.11846957219719954,-0.005617586995612121,0.09281179756163145
0.04786462081360959,-0.037327759940394174,0.11566500463224347,-0.11974779470963058,0.06383379836639394,0.014037009624681612,0.06117440949755214,0.029521897857036402,0.048946488255912024,0.0768630205202038
-0.129257940185442,0.028678149327693178,0.15806982657082402,0.0012436434129392193,0.002039917047025881,0.006130881105336349,0.1061182392991638,0.09867740618011937,-0.03817591184895588,-0.004557843286532421
-0.10584305148571428,-0.04703728434352344,0.25730845065568125,0.014264129755654534,0.09739979585012197,-0.04483548491771584,0.2734141989179842,-0.021726390896669487,-0.004110187512824721,0.0038100800113200044
-0.03432013984574271,-0.055682676576233665,0.209357389573694,-0.08016740451409458,0.14569000830946935,-0.09060503980853708,0.22272137430149255,0.11722889702976413,0.07383910101004709,-0.051760062223874005
-0.07293703711488762,-0.10121229642991716,0.19625213166415334,0.057893969787371984,0.058010534136545916,-0.02187139582219389,0.15696897694818188,-0.015256348866806917,-0.06030799509060176,0.030725245162388275
-0.004816014556590082,-0.03350773170663145,0.22021706126384688,0.09891316159038838,0.06903128369271168,-0.0633609777324002,0.04264080144617875,-0.0023515731371265346,-0.023464111500007625,0.05711551039037521
0.08274477103681262,-0.027694603936342318,0.17529781045461507,0.15609029363728777,0.07451465118875357,-0.02715064993215882,0.07128288390560747,-0.028863026326450332,0.01014098831051952,-0.0502289700363117
0.026576925268082432,0.05261386137299776,0.10999601922818834,-0.0016551986697413534,-0.03013904563968165,0.0168186383061579,0.1258164637176658,-0.11729240852131477,-0.06264133195727349,-0.08761602907277538
-0.017264414411769673,-0.07658122645483087,0.06597673205987206,0.09155333612868147,0.011310457121904791,0.06253309895784291,0.14106158966271376,-0.031438610085198014,0.05364600032730938,-0.022248839020677636
0.09155660823313594,0.0065571326363584965,0.09527857406362637,0.21959469990726962,0.04214338093005092,0.06007372222089219,0.06369442546124598,-0.13788418426955804,0.05285160730451836,-0.06822223809722028
0.009303615994144355,0.008896493682572245,-0.02920571624333591,0.16708048209350113,0.07304698701158799,-0.018004909831193804,0.03441456548632578,-0.12505995636920803,0.026009103459241654,-0.017621626136429678
-0.022911243973784575,0.05219872379442844,0.08900432742938297,0.060045718393527736,-0.058832615642015085,-0.0056160773469078355,0.0053565360838153265,-9.049889548971644e-08,0.0691706898705832,-0.0822022938471575
0.051713736575474435,0.07195707284111813,-0.05039646382899424,0.07716868714325419,-0.01912952354531514,-0.05461487579540244,-0.07627684550328687,0.03751885094085886,-0.04376633451395873,-0.09671322977802049
0.07213435890641223,0.025541302172500127,-0.02156213376238028,0.023154236946778945,0.07644053762737231,-0.09846894344111819,-0.08852768135775688,0.07231682003318061,0.08070385509451537,-0.008021153886943517
0.07726096315500992,0.047686147548264064,-0.0462701931506643,-0.03513641801943613,-0.002766791842295598,-0.0826169198289687,0.059814070697922425,0.005877804313252791,0.07101916196735457,-0.07386838726483877
-0.05428055368047086,-0.07174477765622624,0.01647262921435,-0.006403228283969636,-0.003182083063639346,0.05237309637894691,-0.005366122124359107,-0.04061636258297076,-0.005370704659842379,-0.0016660753576476228
0.028591066611972,-0.08493663079486949,0.011838009938336252,-0.04778666937345209,-0.02384276234678051,0.05948471904652222,-0.06599937008439236,-0.001963615861229978,0.08334453561001787,0.034324431873209965
0.06448340633349911,0.004884594549729157,0.07655666097542319,0.07086095137087503,0.04333643550433208,-0.03372192436339195,0.05478169133787039,0.038940965659886695,-0.056793073563978544,-0.055931863026648945
0.0400965270575637,-0.011517068849231293,0.008202095075068049,0.029975880971055795,-0.020507988121873835,-0.07330774952201821,0.05956741381927592,-0.004609665081551563,0.058489261280965175,-0.043447871574485236
-0.016872571036230192,-0.05851587665326723,0.06880711839056332,-0.02942815255078961,-0.057856258844874,-0.05759038357175844,-0.019393392601444376,0.07339069279232369,-0.07175890447462507,0.0758487775099033
0.043045928004582054,0.011337232175859437,0.03905455937690461,-0.10548347347371051,0.05928806980497866,-0.04158869572347797,0.03202637605228159,0.06716220516564698,-0.049349295620071815,-0.005400812376426723
0.05783383859799031,-0.03602479439375921,-0.06886085990778286,-0.07811311771666014,-0.0450439683756454,-0.02017642191455176,0.03152099395344542,0.05521825768340527,-0.0679411216023236,-0.035323274845036855
0.08307640124784764,0.03884785289335611,0.05022602248309317,-0.08027480416993182,-0.029007413540259434,0.0530315581836939,-0.02794560510345852,0.016369416338864698,-0.12166744108248705,0.03186321031684209
-0.03951254671558869,-0.06156047352901681,0.1583473213145471,-0.015053464101608374,0.022201409348625193,0.030840788493985985,-0.0713306211776296,0.051173505950528574,-0.09980403852108234,0.06398756484937472
0.13238357516840174,-0.12323747066437664,0.1605819487072497,-0.019018693058056334,0.003113162988652166,-0.03032733081429997,-0.018929302897566346,-0.002085638060627351,-0.013323629204595549,-0.06631812954254858
0.07635349083871396,-0.0936208062160369,0.07414672234111389,0.023002134535109194,-0.04227788650101655,0.01925883284889521,-0.028298613522205526,0.0656429416961109,-0.11599212772937947,0.10332356674235148
-0.03121378770276403,-0.08462646948373319,0.09687450594410646,0.027658850267820972,0.06312756145712176,0.07890571710090143,0.07825656673138223,0.1749987229316765,-0.0582515006461441,0.1766945262724752
-0.09795407802756331,-0.0778560263403417,-0.008243296233535731,0.07580839308236069,-0.03589458131648006,0.00030965066360293944,0.020950742902333484,0.0873755476282432,0.02100885135887179,0.15991189208493947
0.01713552950651592,-0.09136914739090687,0.08308834984867458,-0.035839525585473424,-0.05130398006537899,-0.009042444875624934,-0.0165763691787726,0.19359199799326607,0.023932341924299487,0.1495601776022113
-0.08786764927586621,0.0544465162927078,-0.0068912222353964955,-0.14323332529994287,0.08811688645676431,-0.06744601575554893,0.016917705403591665,0.16037581839332277,0.1149680791063738,0.08210054987626185
-0.1359290017779594,-0.06717747562249085,-0.027088450348574645,-0.03303477938529901,0.12500906816071755,0.00027734614451449313,0.06044265387247466,0.12136568145803929,0.1325885468542541,0.10340207231801402
-0.06095069231795888,-0.06429641985956731,0.05000133366929936,-0.09178320000001414,-0.0028635301845602846,0.04334620752097708,-0.02743816845870704,0.15206280031221897,0.1277265418964958,0.11679985929744824
-0.08849573661968485,-0.04607340642022491,0.09606575375142744,-0.1346961275160911,0.07253178636067764,-0.10332586981061326,0.04151194673271026,0.08450736904444635,0.1276617292289387,0.019334177065989305
-0.05093365041868326,-0.16066066711725166,0.06918239887190149,-0.11085946613540457,0.09783332983116802,-0.01123297616278088,-0.06091570044476735,0.074479558295173,0.14380545466492708,0.035644836768915146
-0.12404895551261093,0.03355403479202147,-0.00987292195471907,-0.021410146564787312,0.15056122818907272,0.023442221847186098,0.0803802780714741,-0.0005317685270143943,-0.07729623309651015,0.058168893520475
-0.08520011270239031,-0.017987322620712943,0.025747008189646134,-0.007514065539741352,0.011272565923885237,-7.851554689097534e-05,-0.022139396283192333,0.04507762337377156,0.025488391410920647,0.0218004415892404
-0.029275879050884353,0.021987930834003154,0.0030620785695798587,0.17111619273802073,-0.01619898137137588,0.016719826633171345,0.08183783810860559,0.04836527610421921,-0.04004403390049534,-0.07551988753720291
0.03804457233274592,0.10429769374331505,-0.03781539488435106,0.0961832757597502,0.06640733925920765,-0.06311145832355507,0.06837923420048327,-0.0368166228462423,-0.0005554152277414063,0.051028010383982844
-0.022607815939386593,0.13690078709033782,0.05188471621676887,0.10117859578475863,-0.0014565887451652767,0.012412357148496107,0.07247673194536942,-0.08963694838784886,0.022521462614539082,0.028232127735788766
-0.007687794441779512,0.035048532749303626,0.12160710537947081,0.30268092190113577,0.06971653640295317,-0.13717570040613603,0.016395768193804814,-0.08605460171928314,-0.01144895421579887,-0.04435261757008104
-0.0038317127577024604,0.04120859010429061,0.07495330884284168,0.10438622754430098,0.015372997353808858,-0.03467529718679618,-0.0343217236437148,-0.04789024143914731,0.10676938388390801,0.014122351370252124
0.04730895088022721,0.044659631060608176,0.05635952164974937,0.054862943265181804,0.0015997823835171981,-0.01195823815825308,0.06618401343268442,0.09215686498987778,0.0043460298756263435,-0.08015071814894303
-0.07225160540668653,0.04547105949586795,0.031452763987496336,-0.005556815789407067,0.05675729880081517,0.026200446825921438,-0.01262268738543894,-0.032962836487237385,0.05777238566271656,0.06188155993206499
0.017896490892943533,0.056654945972910084,-0.04756204442889784,0.02065491404807956,0.03513840889210831,-0.01785070049566781,-0.056338097064095774,-0.04352048958261811,0.048643673540417744,-0.051062731971029875
-0.06521171074559592,-0.008980109565969733,-0.0511787527066945,-0.028508343140155504,-0.08044748559098518,0.015981274423789105,-0.015723983563279417,0.036596677703918105,0.03247608293562826,0.08605123507955516
-0.04377358044969414,-0.015707761189834135,-0.027001079314140062,-0.021741631987896057,-0.08293106693801129,0.08200059077470086,-0.017020362257533474,-0.05572665830760047,-0.030361669311052664,0.014045885435747288
-0.03186882701717061,0.011427095892911385,-0.001464131144756909,-0.05641418321230916,0.07489283661664324,0.049149050630878335,-0.04038191391834009,0.019037021258648486,0.049616515892967686,-0.07644294177217052
0.04367453476996205,-0.07778476328747982,0.05813982185623115,0.060365788473691104,-0.03892788652742712,0.09208752239743953,0.045526451479658094,0.053888668985833846,0.03931401648294437,-0.02212996561330567
0.1093114922310093,-0.08954311562777709,-0.012122169833198138,-0.007026549413076688,0.024494380264152918,0.021343887479204057,0.007430128130790095,0.09286194725879361,-0.13163825932550727,0.06498537819806173
0.10856600672910453,-0.06148894485972716,0.08658602289067113,0.011537150865804221,0.055749876844532115,0.07071400038180622,0.01144266380311924,0.14227625396117577,-0.08770506238381262,0.08665098650793658
0.10300080938172416,-0.037584204393068005,0.11369267637286007,0.01866256435972781,-0.05512982079272833,0.07486637671285877,0.055045706338733146,0.014995178528589947,-0.0708271048937392,0.01588128736978197
0.05004788680508305,-0.12608792767264604,0.03998018663509749,-0.03650261956277641,0.02393120270680819,-0.009051633003175238,0.0880239267569416,-0.020495630096938094,-0.11852610017240452,0.0834976665784056
0.0441659105175894,-0.10913688471089761,0.02190901212037954,0.07159042618644836,-0.04585797396073333,-0.05235609729391814,0.017041752673212323,0.07793999739285064,0.027688133963965668,0.13611811839761886
-0.007260449102645333,-0.10678488950546389,0.10551530528743545,0.12071169252244478,-0.08306677858898735,0.06703418181861195,0.02197199634839888,0.12602002832196832,-0.003965581084081832,0.18069288546921322
0.0899283140226236,0.04366811622233229,-0.04438953328984831,0.13991131913889782,-0.012298202609990382,-0.03438520480112714,-0.06287395674879322,0.13223837212963804,0.04441782110443652,0.25219740451776707
-0.03195538418050165,-0.00837540269039395,-0.042148723939827944,0.08127872543368438,0.04885033098093771,0.13944001042342005,-0.006779875312743877,0.0006519303625904377,0.0018977368059232079,0.20718032967408687
-0.11004359582487484,-0.07924453251235017,-0.12786808960542703,-0.009356429001128643,-0.010269537525388957,0.07800611848043791,0.028513759057602863,0.1285321734119569,0.06262439197122205,0.23621211899512037
-0.06874673571723179,-0.005247733589978574,-0.07664512778248557,-0.058336975015709086,0.01575532636530872,0.085071012048322,-0.10471524898372438,0.15409938388169375,0.1725932164353208,0.12006691940401605
-0.11613538499082066,0.012428654648720915,-0.11414058113462013,-0.18968602187854985,0.16538215654093819,0.14668393709925545,-0.18044915293446145,0.14736971079388775,0.2086713071975882,0.12322935334058172
-0.09190932768562504,-0.0435295863792391,-0.17464767199778367,-0.15693679578209904,0.07093489936835576,0.1210091960994887,-0.05817145702625775,0.12413584676857307,0.19807734152159973,0.17099502509009418
-0.0814163388982863,-0.11180894264543834,-0.11674490589208021,-0.23994148273421526,-0.008557153436255282,-0.019193946851826633,-0.0680447203880919,0.17565189255033653,0.25971205283840654,0.08479542934453206
-0.040828946145817224,0.019009685933239963,-0.08224151777386175,-0.09971518375772515,0.08117415584798517,-0.07189866011917383,-0.05684146443331744,0.018284657424531767,0.038626929494724495,0.19139629667336108
-0.08387921546768967,0.05921191022889755,-0.047825644958490204,0.0039681801646177925,0.005396911975386881,-0.12214436270074219,-0.09521146765071002,0.03159596971240287,0.005360024892303637,0.1682708422383309
-0.053525658932253216,-0.01600365962300203,-0.134928739441214,-0.005490614269267629,-0.03859046284833062,-0.051554468912896535,-0.024555825639702697,0.025960194943811406,-0.015816220369716836,0.07905094986604438
0.011597890907065292,-0.0024945969103653733,-0.040936379231861435,0.04605382363777398,0.04770371858240575,-0.1026341718512504,-0.02467106216777306,0.015392815510253536,-0.11347334158883896,0.12546938062964338
-0.015843962268959493,0.08723073037970845,0.08955359369086628,0.10593363902473268,-0.028469968004642052,-0.026449144734235288,0.04873787217933174,0.08247691898751985,-0.09844753276265475,0.11956849767817782
0.08381357884815538,0.06187661756132675,0.0019495419632802793,0.11110065741986001,0.0570308295153688,-0.09574129105259727,-0.037536015937685255,-0.036876661295587206,-0.12199265941881872,0.11156935370899314
-0.07103125809856857,0.09026782539653888,-0.05250244330106269,0.296290616267384,0.023345676476625613,-0.10327845384983737,-0.03185803312221316,0.07216171949327857,0.05733363267880717,0.04445378515710772
-0.06338517818526199,0.00037244589160684023,0.025734485204972294,0.2404632350021753,0.09498097776218863,0.015293259802893672,-0.03678086043925457,0.08111839890415393,0.06242008375424535,-0.10777076999333171
0.04261430594824968,-0.053942170809265035,0.010884252263007455,0.1032786647533055,0.08116855194833411,-0.0860336232069989,-0.0049438713376949205,0.06694248760060909,0.0071498713082272436,-0.09450251296755877
0.0702201057471124,0.05225464914073725,-0.08290178643610613,0.044181284380877144,-0.043045435359502254,-0.016618172892080892,-0.04722061249374682,-0.04944913247939221,-0.038882469640639364,-0.03435876519559724
-0.06218729265986751,-0.024936121147046162,0.048259221215410056,-0.045669478980678586,0.039813291201303586,0.05920847446189915,0.08247163588262904,-0.04944290717297282,-0.07098958615290583,0.005745203321442821
-0.08172608950286667,-0.0392062145097376,-0.0742431435331855,0.04506280090788181,-0.05843701894471243,-0.07543601951901555,-0.048121118137086645,0.021573902438773836,-0.06511643906176413,-0.0413620193630617
0.04966382141799893,0.06457485634636125,0.043434616777992575,0.029231692338174818,0.06972151276849725,0.05531036899799532,0.06989212842852292,0.05802430922794668,-0.04747368497859656,0.006004002257560345
-0.07409901675567458,-0.0005616988820849996,-0.049725271207323465,0.0012502459673222385,-0.07135463213753378,-0.017496994102605048,-0.014807294755614755,-0.07382395209650663,0.025229600865746153,0.06461728750031036
0.009820431461500434,-0.07578101782052751,-0.06697023642125857,0.059477525455236664,-0.026636520832225605,0.012751245041565969,-0.014457543337761312,0.09070730399239695,-0.006130092725223015,-0.048622208489838226
0.08213083269147689,-0.0814096709036419,-0.08183026350422493,-0.12442581304431326,0.021832497339886233,0.06386960456312965,0.04126027634659895,0.08752564347325689,-0.09669504273735569,0.006194953635443848
0.04057363181835101,-0.06645670197883106,0.02989429503870132,-0.10349373318365188,0.059881856449493065,0.019232448761186446,0.030713447795480124,0.1352245730055948,-0.060566014374928506,0.050875035641086815
0.022193175636389527,-0.13948936297342918,0.059735140391082533,0.03334891474593369,0.011315793042791903,-0.11228961724734764,0.0843555480126606,-0.021838315686197384,-0.07189218306279735,0.14073228359058743
0.03486845301147308,0.01971193942432925,0.055850065066658815,-0.006939869918378985,-0.17144365007280624,0.06917821829722429,0.10952960261326827,0.07034995334069939,-0.12151473263089832,0.0724589083271562
0.0775110320049314,-0.09562963790806439,0.021296717811959416,0.13784084054589904,-0.10034520195392443,0.013915432521071715,0.04491907765436574,0.11460339564505839,-0.007038634401982548,0.1250387826748716
-0.013293285835050368,-0.035148309734375285,0.029427289995167274,0.07666517755903321,-0.08056654641582817,0.045508873548033034,-0.05141340568613275,-0.007553480536106163,-0.002487208448550873,0.23322840307085882
0.0006474898542785678,0.0094561733141177,-0.02210134290863721,0.08168031144296152,-0.0636006311364375,0.04965702431827751,0.016341078053404224,0.028375858674349167,-0.0011756594004616772,0.16287962468538691
-0.04841768273710102,-0.13137882537544734,0.033991008393191816,0.04277399785696101,-0.04353784510266688,0.1152736492375001,0.04454151310889244,0.11097813728405798,-0.01498417012222638,0.21143100386466962
-0.12791723000385496,-0.13434949450348502,-0.018427009155113937,0.01055526880969644,-0.028114973643236278,0.13340510626373137,-0.036067502832503255,0.05860554220954172,0.011035484532519322,0.19042047124240985
0.017773467237036614,0.05434529770777107,-0.11734622384429454,-0.029655870622797526,0.03487671261443054,-0.039540867990807346,-0.029893352823163074,0.0823707125639243,0.028822964618295765,0.20080064267580305
-0.06794663790614702,0.011341674481566658,-0.02885781663482274,-0.12487726433847424,0.1253362972578719,0.10140789766707238,-0.045328397322003194,0.17314046773303518,0.09378311056721945,0.19748413068916285
-0.10624897616360687,-0.0583988561230602,-0.04636670985415793,-0.10806286786090258,0.20023658664507077,0.07241196331856148,-0.11688019358850804,0.13350613652933377,0.1940154669269808,0.13116442339807774
-0.10279373592373912,-0.037369078466465054,-0.06418423837352971,-0.053256166855295474,0.01717492551036513,0.043769580739816134,-0.07098293210052943,0.11950139751920372,0.03679033046672343,0.2343659570833653
-0.07830354260944403,-0.10584895750479083,-0.07535859095236133,-0.0422112107547724,0.041442268231813004,-0.032075205971431965,-0.044717958347840696,0.07143046393283464,0.013272684023427192,0.16055266832264417
0.01248137080573843,-0.05992588523340425,-0.15504299989139678,-0.07516604720962863,0.05780136182319052,-0.13914278229932162,-0.000930691869738673,0.04952348421964964,-0.05177108523512201,0.21614225647457352
-0.10539741063691481,0.04593271432487635,-0.007627003319169611,-0.04866615141713754,-0.07751246794398602,-0.1955718639759659,-0.02846276352659349,0.13020167139786962,-0.13965368166033235,0.13162959791136916
-0.04582104782858201,0.02084792747539707,-0.037719596796609786,0.08972021159451257,0.03771165088837665,-0.07684884017765832,-0.032633018703871634,0.08789009668187711,-0.022635768633422263,0.17808250109540116
-0.10020215289526728,0.04146021717040736,0.035039836421661294,0.06484337967658334,-0.0438017676133576,-0.1312238914615285,0.030413878726390776,0.06010810792647706,-0.04717302538818219,0.10525944060996545
0.02933637336020426,-0.01818672824537499,0.0954566051830748,0.1753083641640833,-0.004142123427147634,-0.036311147306508765,0.034407019668920506,0.05083129485188566,-0.11358412065056825,0.1623218162955983
-0.04785002423786481,-0.059810946418209866,0.010099462606963393,0.27015767389644835,0.1470091427527272,-0.11552926234103882,-0.04119266802553509,-0.04180150023186637,-0.06364623623815911,0.14335224500591048
-0.09705727828018809,0.0156924983907953,0.039202930459394894,0.39185613842602984,0.008963441955411823,-0.02333839154078025,-0.12207787017331914,0.08271513980741799,0.008410150120727428,-0.04801635611012543
0.013295470080931293,-0.05138492202055873,0.03251368287094095,0.2262116877654844,0.029750321320093195,0.016588659382646982,-0.04987471110918364,0.021990241201011135,0.10876802195169065,-0.012545688618330744
0.008333932303538094,-0.01719813261891531,-0.020660183988266783,0.0712963981502421,-0.05375533980864351,-0.014782150076625877,0.005860952170678785,0.09490631008365709,0.05605314997599872,-0.061519806284310335
0.025561457063516004,-0.03244683809139491,-0.06631544206287747,0.036982812415149974,0.010477531425861254,0.0627230625723124,-0.07761769308117025,-0.03191235207135231,0.018279392294268722,-0.08528197228912468
-0.005620106635365697,0.07616569649372405,-0.043751071256062986,0.047891811896476594,0.045950685335563596,0.08100717164822155,0.06266549041405166,-0.049941505110015674,-0.052128191719209946,0.023565042271244833
0.00027044394889249614,0.040280655203707084,-0.03223204551578703,0.011676811657937223,0.004160613473179048,0.053942081386264995,-0.0862815280617036,-0.08223056615823929,0.060020006891253454,0.012008368412777142
0.06802677968720858,0.03340119518756573,-0.057048344671096166,-0.07703119574753742,-0.030841946129790184,0.046790253792838514,0.04033481271728898,-0.0724304756214873,0.03927389474898476,0.004282765327310935
-0.03403332790312259,-0.018584523567685765,-0.08298969965799584,0.007415077828341447,-0.002296329031445627,-0.07725691875060524,-0.05358312547784111,0.07671458623725005,-0.0009868337076016686,-0.0030070212805787043
0.03155332920707788,0.007192310028441843,-0.08393050830853838,-0.08965080581434622,-0.04965184507076508,0.017555630972074108,-0.0047817422100658894,0.07048269375228795,-0.11421491327726742,0.051986764171825746
0.014672987023550693,0.008681555363059836,-0.0961863744462073,-0.024059415377011673,0.013600265446011226,-0.014437578962396133,-0.008297782766486716,0.08595559811111816,-0.037824705702097366,0.03353044299352571
0.04825702404382221,-0.045946154794916844,-0.12459614040271759,0.014310723226195865,-0.04853605075522125,-0.010306370186438233,0.015612205742137494,0.013250677729712371,-0.04076968363770277,0.046695388510916216
0.06635787637600099,-0.03295091595109293,0.010243307426585505,0.06018033363469478,-0.03710578892633995,0.006281496095584877,0.028764730592654074,0.008461266496508253,0.034786932781512625,0.09970350634141022
-0.05019818452056453,-0.03033126654786166,0.009220512765288614,0.11637162214748568,-0.025393650409657683,0.07409834975537236,-0.02498611141525872,0.09216888233791251,0.14235517888092733,0.1078969038502992
-0.05667720471972909,-0.0819201730993569,-0.0024200113026805283,0.17125660306015564,-0.04464601827124901,0.08346031424304466,-0.028344172252573394,0.07564197795567401,0.11256761265755418,0.14314927541212324
0.009910856092716702,0.026612684216677427,0.06640734460536417,0.16768438756583395,-0.06420273576353276,0.022047115616108257,0.031137247139676857,0.04815110350394137,-0.03718813373528393,0.19196565427554885
-0.04214625168247265,-0.07347309131991958,-0.08801902385380259,0.1851411624653638,-0.02542057176521794,-0.00733944826124231,-0.024269057536198003,0.08586826403762796,0.02541837458989125,0.12044037301617334
-0.10860111782562062,-0.08017917111945921,-0.010117121568026811,0.14607689428644613,0.025033771188324255,0.024189952072375332,0.07017593969445005,-0.03639208306634733,0.09563014669077899,0.17596960667562284
-0.004192252870521359,-0.115672543947373,-0.05737689003918317,-0.014099087136881162,0.09842054672091265,0.013554138323815003,0.07194506707226021,-0.025162096128885855,-0.004191400023771792,0.17039305177267616
-0.07950034955305586,-0.06360986925324344,-0.1044708119830576,-0.27076460188314294,0.15270503338836788,0.0977096359638821,0.021716581119509932,0.13994477909377892,0.05828876642566599,0.13495825119413696
0.07174822992316184,-0.026565059758572814,-0.20433148327112455,-0.24632816393901957,0.1465511578938258,0.1422449551518109,0.025211163835906877,0.04384374590654729,0.027542244406025967,0.0918587567591071
0.1400864667661246,-0.04841022886669998,-0.06213249080977945,-0.047571569230821176,0.01227097335709097,-0.05127707477818334,-0.052839995302130814,0.037280539025646146,-0.13654481613160416,0.11311950641703937
-0.05940616588133673,0.014809642050342254,-0.05391096841438391,-0.11317215574307658,-0.058074619757522344,-0.1964238194103368,-0.06018007967379407,0.014743094439971408,-0.21513641515801504,0.1942191887512729
-0.07888852434106182,0.047531808343780416,-0.04275775091123294,0.038420850960233184,-0.03462445498980073,-0.17186195976731358,0.018715058855390574,0.10913523992333074,-0.10119573605667977,0.1853983208201345
0.03168661743594983,-0.049406932632629345,0.004739382422557091,0.09275777751758066,0.0006708956393609832,-0.1495320351643817,0.016900090532727573,0.11760757917620515,-0.15772058695411598,0.12611498444074085
0.041510763746340856,-0.018817020283500217,0.05848419333397695,0.020082089923681774,0.059741919157100455,-0.1940382645088966,-0.12069998708512483,0.10698101053370962,-0.07348484870503831,0.20475245628427272
0.0483146613435457,-0.038635972467782234,0.057584985272024165,0.013397539226164067,0.014373542320392814,-0.07839252103874013,0.07067242080248774,0.13475927124266485,-0.03056086995119782,0.028698937019233827
-0.13256237021536957,-0.062470619510153966,0.06522993685610508,0.1361920180446048,0.006735662258504999,-0.2267107440581298,0.07981800232105417,0.09860806353238635,0.005046408979512392,0.08832494288779943
-0.005909689017855817,0.017508937714919955,-0.06952813660815503,0.2996595242454189,0.08198692877499672,-0.10290271553019148,-0.08060549666535972,-0.05142484583195903,0.03924542824242261,0.20657806541672222
-0.11334544823128152,-0.02587010630433435,-0.07556997699885444,0.2679156466220278,0.028906123323994382,-0.18197624056910594,0.010924010049720738,-0.005182488490239691,0.07532133799026998,0.028550942670802142
-0.010642383291562033,-0.017949888297170445,-0.02719268379741366,0.16619196258559438,0.06702250080334733,-0.008836022387461031,0.008628807404218066,0.05484403939681123,0.05363964702620613,-0.07994954051178119
-0.034407338245594284,0.061791765090416215,-0.040845901886007736,0.009450254767137463,0.0097265160892581,-0.06262464672626382,0.07210184533339095,0.05429595856580102,-0.03372959680089111,-0.05489240286250014
-0.05561943471516008,-0.06204638754175599,0.054617078185607314,0.022303278835748813,-0.05514026451983251,-0.03807043491572134,-0.07451352843991235,0.0826276704697187,0.07252290066312826,-0.06207524497186572
-0.017517804763593738,0.02368276965381423,0.06709658786578472,-0.08468378246809705,0.049794267716479726,-0.02183953240299982,-0.02874878316180647,-0.04831308779212791,-0.05066083678607644,-0.05309418906841427
-0.023047491645920647,0.00026808617002562445,0.012989532045549139,-0.02884329127509078,0.04808309929833209,-0.011682074234808925,-0.08291648553374378,-0.03330867310571792,-0.0342120000643489,-0.03277326323895258
0.022388344433141617,-0.005518015630253186,-0.03811403465291432,-0.05005191745742499,-0.006315993367711264,-0.04802436271287421,0.010057239001278456,-0.07350393291291957,-0.022004996597190057,0.04012091401703612
-0.031587475584661934,-0.002954493755584091,0.06725690259250307,-0.013718973542445946,0.08669010236976206,-0.06121696620158506,-0.009662001525849858,0.09434898368916811,-0.11805649568552737,0.06604950581792303
-0.00919084233287883,0.01469786777603723,0.0022287381660667325,0.03356691666564012,0.06454402663460533,-0.023586339656955745,0.08955976115698266,-0.034792970662185896,-0.10263342256488789,0.04370394541499611
0.10859483063256552,-0.10338469703814589,-0.0806137005340663,-0.03302089914592553,-0.03914146431882249,-0.030067513658232306,0.030002222657467176,0.024931874373915544,-0.13446703246145159,0.13895167773801922
0.005748134960250907,0.016859170346939917,-0.014000942063722658,0.026609238169505882,-0.04271449003709528,-0.048994033388387974,0.031702353356126436,0.00499430427256297,0.06282410504898527,0.06784974903324063
0.13204434853886418,-0.0515071864509877,-0.06150451363297779,0.10910164520923644,-0.14186457414593912,-0.08954550891833796,0.02046485781390196,-0.05138219660211127,0.06650228879888803,0.08659018844080649
-0.0026423888451471743,-0.022411273109516957,0.02803721337295891,0.16141756146929995,-0.08890304800629817,-0.1008241326269276,0.12005948754186033,-0.15652805890441376,0.06357395794746308,0.12670322769479356
0.003079210226227006,0.12316638522573607,-0.02122269871450729,0.08921418408545888,-0.09895819162663413,-0.07631492770225719,-0.004272041723765075,-0.09919911914736375,0.10356250320387647,0.0923519241338266
0.0660363699570821,0.05946035197395298,-0.105240237075958,0.14189479135193445,-0.03398344199764937,-0.11445779485996115,0.0010858112837225035,-0.146052485810554,0.15687546977818445,0.12387185167612948
0.047616122315086655,0.13635547636002118,-0.10080231608128273,0.11138886301281445,0.015165189646051836,-0.030581702994658233,0.044085786295668644,-0.10311045760704321,0.10687166070235495,0.1702683540421296
-0.06741365315745677,0.10008474911993456,-0.0462278864900106,0.16563767858556325,0.031853790556818334,-0.13781513650253802,-0.03651872320983405,-0.1410780787628922,0.13312730374471232,0.06417813252596669
0.019689870427354716,-0.06326249504636206,-0.1245651674698038,0.0734026067556925,0.19779730644361257,-0.07425903338883401,-0.007362527182038385,-0.09258250899183174,0.0019331816909396295,0.12226239632832592
0.044881541512489145,-0.05929612858815578,-0.2274009632793817,-0.08373180698642421,0.23071936821752034,-0.03635039859137744,0.11491297739417643,0.11161379742258552,0.02155713671262801,-0.057272878447565796
0.041423723493456896,-0.052118988947040326,-0.10213122180217549,-0.12366522973570361,0.18924728601705476,-0.049150615779910305,0.14634494649573418,0.04114732781435032,-0.1640750378668299,0.08522089931738834
0.1532055159476549,-0.005162006130972967,-0.10567333100319799,-0.12630207450503095,0.07141041812766004,-0.10889887418871072,-0.03292194590899855,0.06245171350335703,-0.1380920098005733,0.03624977786189062
0.016949986683181893,0.0585492345163482,0.05190001286354648,-0.05366983449124379,0.010219439303753467,-0.05346396856945526,-0.046000269141443145,0.11708765074808052,-0.2071160386946693,0.091017401624656
0.06779343725608589,-0.0071652175666407835,0.06495254857394646,-0.16742072757518003,0.012424231240549978,-0.113846265501629,-0.10210345775047364,0.07807937808792667,-0.09513004386367735,0.2213213370551936
0.017026512993842707,-0.08379589424996885,-0.05902184895220083,-0.08913355092318206,-0.0013291169162327838,-0.18341504692061444,-0.03395819054981194,0.04419605346168971,-0.11288180970958428,0.18847987204638783
-0.05471594238304749,-0.09068347894280093,-0.06551757200126014,-0.014568270128003252,-0.049011962060739225,-0.0626986420647547,-0.08407700752314748,0.1386803172373137,-0.09346161900643866,0.12022924975384866
-0.00837418873056551,-0.1500897999326312,0.04471499232386406,-0.0670514716146636,0.04447216679242885,-0.17589510144855347,0.021306425715293772,0.052574716071892715,-0.07653824002793037,0.06564171778738777
0.009313810546117905,-0.020280345014789952,-0.04849179873318775,0.004624224346990556,0.08765684617776458,-0.1372573953790854,0.004475629785471894,-0.11646821532649909,-0.005906340044533824,0.17481522318338474
-0.1660676423551689,-0.17206840041266944,-0.0651395473360165,0.0325881006029828,0.04753024821618347,-0.06460178385251292,-0.017336100870889173,0.018930697974785905,0.021836878327136006,0.14895037381154977
-0.0930731077371225,-0.10161064949641002,-0.12167569488615583,0.18251781282167168,0.05387581895731283,-0.015242013821008996,0.05095802141114626,-0.05648975293331958,0.09902041122405177,0.05526648282968692
-0.11768007085002065,-0.02884138113305291,0.025624838437899783,0.10359652925675188,0.12375314669654196,0.03018832730329775,-0.06001202292175786,0.11145343381467546,0.13515865217326478,-0.04350475867007542
-0.036772606954680855,-0.08065019250329608,-0.06717824255168497,-0.029092187616557547,-0.0009391202953898149,-0.005939794324235733,-0.06953792207279799,0.08656884715780758,-0.06620576034980442,-0.06312281101079652
-0.033029111523901644,-0.027565997796493883,-0.002517244593018516,-0.02598369623025939,0.06467634507936512,-0.06370266408130164,0.028116847526799483,0.03786349097105552,-0.0546001824120678,-0.0028012465044085404
-0.0035988542783613295,-0.039722456542854716,0.04805556197795316,-0.004569476537153284,0.00474853428142124,0.009255485742882463,-0.01398866135251646,-0.06745990933161844,0.06305088648892412,-0.0633854348058062
0.013444884860959965,0.006448406681176869,-0.06643802507396498,-0.06554820277029838,0.07404562683134135,-0.0386653169038026,-0.028364964657093098,0.08280851914742382,-0.01784852946184597,0.03982556967864456
-0.012429099248619119,0.02873191318273552,-0.033280164672523045,0.044294037176112695,0.027916059684604727,-0.03420212276462746,-0.0316105300993636,0.08904092145539172,-0.09220234363173928,0.06367290249791198
0.04795295418034929,-0.08491528512179691,0.03448489686518602,0.022236535795825015,0.05099330895741895,-0.05918146008253368,-0.048730175403437444,0.0783653112141625,-0.09008904619825152,0.09616280609949303
0.07406494552312004,-0.10135267235779508,-0.03282774062826446,0.0407882537045498,0.058228279524141086,-0.13510964374723056,0.06417612397741461,0.09589801668142811,-0.07569557538573073,0.12772598388689843
-0.008488009810504581,-0.040828714914009856,-0.1360113378081094,-0.002300932782187233,-0.12012105950753516,-0.1642377556659189,-0.03951219420538998,0.006641596227091064,0.026122776597570244,-0.01355223113720448
0.03323866957887944,0.07220378415335323,-0.08560351326414418,0.07645666765726351,0.03401499418219665,-0.06681425142773854,-0.08549821957899968,0.00949043842649414,0.22342419624137072,-0.020365312811299534
0.1484475209600727,-0.024375573674871347,-0.01580289295375149,-0.004848545807328994,0.03442943618891648,-0.10407183036536662,-0.004296279782780249,-0.086502112750183,0.21450333341041822,0.0516071655193747
-0.0016452182251906877,0.1595384721579953,-0.061498312598397956,0.0003859940708868285,-0.0470647080718492,-0.02741941853649238,0.02574905240945281,-0.10756452952098963,0.2008376699704947,0.1511066821373984
0.12676571525016186,0.1665403609700938,-0.05269416501816715,0.1627643443287025,0.05508212866039569,-0.06966751612343249,0.08809770899368338,-0.17283921977780708,0.1676958007311134,0.11362994165516445
0.0894150427069908,0.17708476926683764,-0.05064013096751041,0.12952837617040436,0.025310083378714456,-0.13918407352574716,-0.07957738089777235,-0.17822879541507822,0.23693474120294114,0.02804242905775393
0.18280221028522275,0.16961362371894909,-0.04402680209400145,0.16112968032680394,0.07090980021848846,-0.11983090596160756,-0.019467921103159418,-0.16602559247471294,0.12609456986085457,0.00873725275249927
0.04771872128209257,0.16707184799070965,-0.09015041058493292,0.23288406922206487,0.022886773521372434,-0.28200565063912386,-0.011638196408623892,-0.12979796043707362,0.13347062497861403,-0.005056396749960043
0.10856415405439486,-0.06599275665479665,-0.2210798915381768,0.19911915401558042,0.16297403887123574,-0.1602140097971058,0.13573263586806786,0.034338173320158503,0.14642673772782147,0.018755153126452446
0.05369101900358078,-0.034891914583451054,-0.2678532758625269,0.05200817893891044,0.17062237582298803,-0.10418317559159596,0.20533665854971211,0.22629566692950218,0.06994793333785101,-0.02623073752231513
0.10291719079506409,0.044674451476684904,-0.15722780376654388,-0.030641000183314154,-0.011462241414118966,-0.07582364347683343,0.09074411095087534,0.11672166619695773,-0.11183117737378055,-0.13980401123366776
0.10027540278672424,0.1993175737136956,-0.04287698957175176,-0.07550625690071083,-0.14946713332633998,-0.05779565814422962,0.05698834533504869,0.09479935553007146,-0.16767174251418548,0.06841570504124263
0.17682109841387725,0.035820217821092785,-0.10451129138171203,-0.15598000913944632,-0.13460684730064637,-0.09969326201037201,-0.04077928319917376,0.14138527170949727,-0.07195830611369254,0.11656971276289603
0.15405840718570146,0.005200861557895104,0.05465397985396407,-0.10082657974240536,-0.03610818696078881,-0.08322440635955351,-0.05797860934590919,0.14279117319206316,-0.06358425286253201,0.0709842562378794
0.027860921236542813,-0.06645536440786694,0.030230801475878106,-0.23959177943503618,-0.06054568078491698,-0.21066199308983713,-0.018194905900730227,0.03363600759970396,0.06486641736683475,0.12374771821596148
0.11100774935436507,-0.059397388996709544,-0.029571455613307304,-0.19989610774429864,-0.10756312595351417,-0.1537845319341654,-0.02766064863602523,-0.025405770444719873,0.0899186555461591,0.11131403080562703
-0.021246423967922666,-0.03940928823587972,0.05569611668955062,-0.13922162678314629,-0.025547870742688352,-0.06475861378475843,0.07126122420602231,-0.13557232447070552,-0.0106540895852084,0.09653166386977692
0.08458166586295914,-0.04840870904084257,-0.00962877393981007,-0.10485605896427057,-0.10406979306804429,-0.08898673531931359,0.015510256383221453,-0.06927688836725973,-0.02003081727832311,0.11936453690949245
-0.025922837156471375,-0.08953643771011256,0.0051496436034199535,-0.043723736546016904,0.04452901956826135,-0.09337395390352371,0.0023415569651522783,-0.10545563039400452,-0.010248995907701926,0.04759972871989342
0.0010755293524464184,-0.050025330523775446,0.042998081834786574,-0.01647156555030337,0.06417735283850647,-0.054772880834350106,0.07257328966066877,-0.09186095308145914,0.11820666204555946,-0.0030681291875557285
-0.0952934055620236,0.029398413150234618,-0.08745384140249553,0.0029092281831661314,-0.0254977650623091,-0.017097920321935602,0.03447037973613707,-0.06663289006834365,-0.042819347931461145,-0.002799851609721734
0.056069638514321965,-0.08699239461929333,0.002689557060796672,-0.037480217916145,-0.05555137611178411,0.009334165749657624,-0.007252455493481412,0.08929768403992555,-0.08055405570163363,0.011030730633573238
0.07218968292613197,0.07579961931434318,0.07158042730202019,0.022773368762247132,-0.06419546685420457,0.056587585013749345,0.0017076884285803682,-0.04889429523287662,0.06364845952678087,0.06928223219196465
0.06774753898705854,0.055623754100607964,-0.0775291589592367,0.0011717944178333828,-0.05844798639511187,-0.03646041230255928,0.028569111067378597,-0.013465717260279009,0.025157771132569243,-0.030732736630281962
0.08092056259873069,0.00160104769233548,-0.06549946473053317,-0.06501105926285221,0.08460586451409435,0.07536267441099277,-0.043329826043479236,-0.043924639325334226,-0.08487523651336837,-0.06197964223696051
0.07650160850939311,0.06722071304224225,-0.07931871497786357,-0.08865914128399752,0.009213557711649552,0.015325083248577703,0.014223604499933451,-0.07893342748947547,0.006961805702473767,-0.007992403325669424
0.07051306392207518,0.025794296197907178,0.010377448395502406,0.06254586736845869,-0.05882030235677634,0.016209403068843765,0.06794752399081645,-0.03248730663398846,0.06372099463988877,0.04841658081876615
-0.0009988510096348936,-0.024683629282589728,0.005066126883025268,0.04625872770327344,-0.04516108050576366,-0.12545174036224774,-0.043453818985975924,-0.04971688705818185,0.07345538092894649,-0.03856001072247686
-0.01957974810043466,0.12288437524645966,-0.08802816522215785,0.09385575024790838,-0.015205567000203328,-0.235226937355826,-0.03509430609486555,-0.031164667398166052,0.041504396562455276,-0.025540687051504182
0.0584228225460454,0.13855753212421124,-0.03447662738940706,0.026115697782167123,-0.057946282489860924,-0.21917704475583488,-0.06112362709741965,-0.0792738146083692,0.20071472390414424,-0.016242013047815463
0.11014511985733119,0.17864708344317842,-0.08950879502859467,0.13008248840165718,-0.03295615936675533,-0.1353805862631716,-0.0018899717827499927,-0.11395827327215591,0.2267027092908667,-0.0032200461257013324
0.2211651218430169,0.14475249400240867,0.02559095595970039,0.14783173348933848,0.09074712729260599,-0.1672360815314753,-0.06619169359090815,-0.069700977212746,0.07189930570362965,0.03207238132478538
0.11237877304615362,0.2645053774284215,-0.03466321848133566,0.10479113633357597,0.07894222633573833,-0.2433142081446861,-0.020395304645022056,-0.03659701339988923,0.16328003060203097,0.07229506308429232
0.08073251525764344,0.19917268277696015,0.06346672679853278,0.20618022656584595,0.12021435270963016,-0.1992709411032171,-0.08643133272189554,-0.05349505316605057,0.08416739140012637,0.013949443770924112
0.1278937682284462,0.13056842971568416,0.08543718940759915,0.24325261786597932,0.13524694364567458,-0.248800734093273,-0.08565839419640975,-0.027078492475562935,0.04718855212869255,-0.05566887352950995
0.051690398128419156,0.05480022926633079,0.07526012428202139,0.1788617791838993,0.19290660108583949,-0.21597021696890378,0.05357303482755653,-0.05726689003990819,0.16068038032662446,-0.09958815924575333
-0.03718626092036645,-0.03826587551435131,-0.05357407090952679,0.12586286790307433,0.07727181020882394,-0.20435031595735925,0.14408617558276723,0.14331236973331604,0.1883580304327546,-0.16722377997819807
-0.021123950652907703,0.1226664046919224,-0.21871298214181922,0.021620907165177315,-0.014752913235675992,-0.13568465554865616,0.21548615147973582,0.23643023259216814,0.003745822105606861,-0.12872142197871358
0.17513994175007197,0.20237350919541214,-0.2053863388383119,-0.16845615149490614,-0.14913366739865117,-0.05439106253708471,0.19018242189202428,0.1900117415889076,0.09716397009417731,-0.16301991177767242
0.32093442818554724,0.16884320569553724,-0.04799670503021974,-0.144381194460384,-0.1550893747466877,-0.03971006441273502,-0.06447923745644725,0.12464034937210439,-0.055850961773122015,-0.03401062143604904
0.1121738249057834,0.14017989144941428,-0.050991409224434944,-0.06562844078021875,-0.13437584258730895,-0.10671297076193996,-0.07497053516363414,0.008973324262482716,0.028065455679443137,0.10526902996939401
0.07981220201234471,0.010412732792415773,-0.033720409398684544,-0.22887734190893858,-0.12323231233192228,-0.08870325242605794,-0.11300431406972813,0.08596261609218399,0.06341911117807206,0.09155927017443052
-0.09047561900097946,0.017117079062682353,-0.0328251579418258,-0.2677162018764959,-0.047462963743019886,-0.14916906277802905,-0.004841166335430595,0.01768376902426355,0.03889634512924377,0.10110530091266755
-0.048485209090297646,0.022940643503464097,-0.08336112025474628,-0.26152648985606924,-0.060743005759544,-0.006153013086860706,0.09762615765600649,-0.14324656661709076,0.20583365998225137,0.0715048315203458
0.037328100306453574,0.01438861090466755,-0.007921915871261856,-0.22714614822721102,-0.08911417377703107,-0.04102855005898924,0.010980732404811124,-0.13847284884421196,0.18455101994505066,0.1108237788350103
0.014554004183071859,0.009601624112644262,-0.036030878428995904,-0.03357518713348391,-0.054699441853879247,-0.09960790374267693,0.022472158811471573,-0.24139932260065908,0.10150597152831696,0.15788370253125497
0.04329573722858242,0.012272478094055064,-0.03140550670239069,-0.028185555671788716,0.024585424695503524,-0.05220645675415034,-0.02649025996848062,-0.1954115722738051,0.1478574347475578,0.14020618193981582
0.0035777480691102175,-0.07027746258461082,0.04674176058735997,0.03453392055694733,-0.041734975968743995,-0.001188886465693528,0.028303549549758014,-0.06511910600435543,-0.07270618795823802,-0.01808200672125829
0.054326816278542626,-0.09313737642802877,-0.07410170092727324,-0.05399650466562873,-0.017561032172289267,-0.011300986417069907,0.07333679624769385,0.02545897971230868,-0.06011335199783275,-0.03471452266453332
-0.0144639077353326,0.08070020079841872,-0.0742339907952875,-0.07674317552598141,0.06681876668930904,0.0215739205559763,0.04822517998588597,-0.07899960616014044,-0.06001930465866028,0.025007006954925384
-0.03511428506856691,0.07801735082111483,0.06488110714634181,-0.06804743077555299,-0.02284770505271337,0.07879473490809956,0.05043090704095305,-0.0001832161381606428,-0.02904892041282653,-0.0010660121209665001
-0.05463880997469387,0.05217000826905896,0.06661540014009731,0.07275975069890445,-0.0001613655305566647,-0.03304452652998784,-0.06749471421450313,0.015992199901329468,-0.00021345986254618643,0.062010675476250554
0.04873588593255941,0.07222663464403119,-0.08697763540288718,-0.04098686798930985,-0.07262714370023718,-0.004549277474736106,0.05635056638290863,-0.028733576924592653,-0.032593704377799876,0.0473833136786659
0.08291134664744229,-0.06682884305899202,-0.04444474264936699,0.04779060519990141,-0.02874975647990421,0.051476767627236186,0.038814609256596876,0.002438259726857378,-0.03252287434352988,0.014515096226205934
0.09894240239666592,-0.03876374148040269,-0.014170371115077669,-0.042245278978620536,-0.06267563015681486,0.028856895053617777,0.020973961775100042,-0.05673071273777261,0.01039339873623477,-0.013864189997730668
0.03829690707514174,0.06115401604064859,-0.14355742742619138,0.025689697519268136,-0.027575827099749897,-0.05640552375567134,-0.016959822093164306,-0.007875601300363959,-0.01209395249366088,-0.023564666763362555
0.07057636683295189,0.17984776865353683,-0.058014424608114686,0.06429617995804107,0.07384688939989258,-0.15145129072565738,-0.09420182052811782,-0.1250173645373477,0.10995895680070575,0.03880480870148781
0.15765378420983334,0.20670739377172614,-0.015554599267592745,0.030300909572748173,0.1270949773783827,-0.12300793840521158,-0.023262964939016157,-0.1173886044886631,0.16097130412779234,0.04233161065781397
0.030611782776088847,0.17726813545423006,0.026288686954010418,0.10885076594383206,0.11403650130119009,-0.1737508088061562,-0.037077009837775364,-0.20584459654827017,0.24054988944764952,0.02526071809874283
0.07092216421015961,0.1640047950167543,0.07255097503399262,0.12440056831513102,0.17538691948741988,-0.03673166921024488,-0.033333332411193954,-0.14080083776099306,0.07284044734569033,0.04333046862409936
0.003354444305423425,0.24033093486772672,0.04751163344575354,0.16791713549855902,0.05090957343677521,-0.1813042208548402,-0.08756076072965083,-0.07099064740088824,0.12027231574396348,-0.007925688288644322
-0.03162601265909449,0.18814086054338258,0.2281993829215388,0.02029612704761819,0.1420441578408712,-0.10165365742198881,-0.12889660217344573,-0.10526660226043216,0.1682225508157431,0.03939109123698083
0.04884607388225183,0.22682546034397477,0.30605198003413603,0.22219804745069527,0.1620873479501278,-0.08905306497064512,0.056331067008088834,-0.05170391841333993,0.16211052262934472,-0.02427753041375089
0.008143079795601386,0.07362207017137247,0.2691869313140861,0.19340154981925542,0.06538841333472575,-0.09127644221809628,0.03144177768943547,0.06473261416268387,0.21770724894961735,-0.17689139917688657
-0.048752502607418126,-0.021483259218058447,-0.044440003653390674,0.07931105990786318,0.013256338357414042,-0.07409729846883939,0.21117826859713557,0.1408005762079023,0.19003517406968942,-0.25810296373870983
0.02649924040336262,0.09725986471735426,-0.11301919778108363,0.0006244596453850799,-0.04778577664372973,0.020558779100198276,0.20844558863290752,0.23891680722140068,0.1385373903331293,-0.16941231516674157
0.19060254316539543,0.20867412500619797,-0.07131735467783597,-0.03578940822507551,-0.1385678867038446,0.02784649114223883,0.2263773487216506,0.10609804546542657,0.08040982852175316,-0.19644352144752492
0.3048875427503578,0.24098186439186725,-0.06014543790545495,-0.18110748188553275,-0.1756163860404284,-0.026826979455646417,0.04853057813656768,0.1246244854621554,0.11835665436285474,-0.07038760144119753
0.1525608441191873,0.18455677512313692,-0.04176451221819205,-0.09261125011216882,-0.151323373062027,0.020995637863674293,-0.04005773880664161,0.14755923446304756,0.046671026529981126,0.025430123857987656
0.1027279437034318,0.11439945220106705,-0.004242956378520792,-0.00879763983406833,-0.0044077457168014535,-0.05527591327027305,-0.0920371776995317,0.08316641480795502,0.064775906726762,0.022112168214296738
0.060821152094836496,0.12928308992368004,-0.010982345604108603,-0.05933503125131662,-0.16247247850765298,-0.02347920482103221,0.05389362319221717,-0.004195331771035673,0.07678728774390696,0.026136224767071222
0.05977727469061898,0.021991272808809817,-0.09706009056433429,-0.16393838136495378,-0.08486708401672056,-0.026002596973971212,0.021013296615738274,-0.11844094547262622,0.06544348543355873,-0.009581345390705404
0.14709582663661291,-0.007740009027680341,0.027799003052918096,-0.060737581439361844,-0.00641409077911279,0.015851488575303378,0.05106095196336709,-0.20485056618421751,0.055214314585698615,0.12884835629687794
0.0968556396790568,-0.058436820299337985,0.029429653574869045,-0.07530959701008609,0.050828116026816056,-0.018830728735345154,-0.018457760997961415,-0.17549606169622942,0.06787855544700691,0.03056098560882538
-0.0253607874179588,-0.036615459045101065,0.0008872955545057095,-0.03576285096092138,-0.008026303086174793,-0.04255845624060775,-0.07345523740373483,-0.23165838235876826,0.029688822942769394,0.14681326280777898
0.0920004155991917,0.04618693997824048,0.03369955367790164,0.01132550155847257,0.0009126440531140866,0.025887960171706328,-0.05669027446500073,-0.13090224601883468,0.039198787024226675,0.09588793304998842
-0.025436584820254085,0.007183429290805418,0.08411145835929686,-0.09952937748015761,-0.0046405364357307586,-0.05429804216132117,-0.009420453063465081,-0.049081823957802806,0.012653224182625879,0.08505532399415303
-0.036143414847698806,-0.0037447026166889117,0.08292621640253625,0.04851945674055341,0.08136215224410648,-0.0785704309745413,0.0454688049918681,0.06639979570597143,0.06506814735275407,0.07711831273171525
0.028596493865098847,-0.07103238508655395,-0.04181488827667616,-0.023146835205044847,-0.08105657993141345,-0.013437570965050657,-0.051211818174475496,0.07121235972753205,-0.07203220630129359,-0.031125865397787056
-0.015067320138581475,0.003015828398277423,0.06551645863674108,-0.04759555773610205,0.012049349844773696,-0.08303195205378651,-0.06834047764177241,-0.024007842230179308,-0.014628409323106176,0.06410639061972989
0.024857754627500676,-0.05839154472020989,-0.023924400425755707,-0.008187369923140063,0.07065327409475698,0.006885955339767756,-0.08650747077279414,0.01894747932432948,0.030268780450727808,0.037173153702978017
0.02894891690164294,-0.04547976597043509,-0.05438206241883119,0.05233424411596613,0.05109381857650572,-0.025144285316373065,-0.030453670986705886,-0.06346923554520716,0.04298263196515627,0.03351956061921157
0.07446139465005489,0.08424842317857674,0.060943166420429226,-0.04871199447294609,0.05768058697090238,0.027858542958419507,-0.07977349739350659,-0.025786175027642282,-0.05421421591025222,-0.0614667062132556
-0.0076241706772889675,0.03837103428640799,-0.10843820912189193,0.030071313296643642,-0.027801168857572698,-0.1606277019391431,0.046804611977299834,-0.03292796257116004,0.07798617229533913,0.006266530494251361
0.03378386141992795,0.15120304079001268,-0.04543774171440122,-0.003105964138173122,0.03929074943147687,-0.12564071306954033,-0.11633508532976304,-0.02607940402899093,0.14825630582920715,-0.001458826245737127
0.01812806898386757,0.05824628075872905,-0.029960589310853367,-0.046917446920972265,0.038739513743030134,-0.17618243422035823,-0.03778019244576743,-0.04302623480685001,0.041361236383325214,0.1089269100794321
0.13314567637134894,0.21023982159183316,0.04147991553472954,-0.03277542448860883,0.14503613463756213,-0.024512677194449262,-0.10209959978198897,-0.17454874635651474,0.06569754687285552,0.03460695859907674
0.07077836946441071,0.25187417843090915,0.2057796948252946,0.07363069497734759,0.08523209089594688,-0.00987920446088785,-0.1687995718443281,-0.07402048299786046,0.05072146394798608,-0.01357423733343604
0.007547740047292556,0.06587336923755988,0.22052763455316157,0.05868026020760753,0.25407869451048243,-0.017640651908435768,-0.0992250399324994,-0.041440867045352485,0.0252838146599148,0.05382118196481583
-0.09380079917665732,0.06498770694674906,0.20713991308331073,0.12618448771692994,0.14268972832817528,0.009591682381396785,-0.08914881397202647,0.005656400493410542,0.13748645872523566,0.031627274927950574
0.02977346859437544,0.0846836414404541,0.31237754237896687,0.18740299012465653,-0.04491417081523509,0.048671271330797586,-0.089282433872292,-0.03599636326011507,0.10604813715536807,-0.02311716267720787
-0.08818591463794768,0.08787465203259455,0.17222487872294567,0.06495280023274715,-0.09405230023598343,-0.01702784425395863,0.0788462448973218,0.029786545827683315,0.03938485340938938,-0.04159050612166019
-0.11738027376800333,0.15969419488592473,0.012968469031275192,0.0009842782092512816,-0.11807683929010825,0.02598315255558478,0.14795858611977952,0.23615694992711259,0.08558028169292393,-0.15903503873583946
-0.04379233660794966,0.15066726364947064,-0.024779938901511856,0.015812022296295764,-0.12250176642443274,0.19822770875126133,0.3430942068196645,0.2945058279476636,0.03773916840859824,-0.178659550316652
0.1870893699252521,0.16517321751623248,-0.10105729449598164,-0.05208894851028798,-0.19971224079905006,0.16600895163802967,0.22959919183453584,0.13578633828929454,0.04574058298919587,-0.1857550879994237
0.11422352357240748,0.1657634027043876,0.05930539179534708,-0.0873923218346313,-0.2504034128877833,-0.01493345140973989,0.014718423230962785,0.11380059083597581,0.04462000029359935,0.019932881059180535
0.13251286693738984,0.20248352219721702,0.04110116886060371,0.006943391391233777,-0.0603657910855102,-0.04802941943688663,-0.1334154642575364,0.026018896433666724,-0.014707482413121514,0.19002820215144348
0.10142217719667715,0.14648553723627256,0.030325861081704097,0.031005323877482113,-0.07181038984981347,-0.030558505507644156,-0.07391322485693029,-0.01942212313199673,-0.00920660893765445,0.13602198116863198
0.20979380549871834,0.13775844976386697,0.011108213346395118,-0.007751714529447113,-0.08841200738802857,-0.04986033892328685,-0.12691626442424833,-0.01820580640633155,-0.011757537725926581,0.042973691354730593
0.10561861542674356,0.06861087416073962,0.08544847025287339,-0.046336931276280205,-0.012071457361109634,-0.03343157843942597,-0.07722875358436539,0.041604726441020236,0.030864669481092715,0.027576797818544465
0.1629814163564761,-0.03660373236067174,0.11070987783485788,0.014590125306418704,0.09173512501574152,0.014789817374671022,-0.022410161770684636,-0.013341097359548292,0.06707319722872543,0.10060327518273643
0.19744660293251695,-0.06748083085015946,0.1381485694899726,-0.11332002963066247,-0.024982376426754042,0.07776625420579207,-0.09039909100236218,-0.07163007989015666,-0.007665791654469156,-0.010087420733079689
0.04111395914145423,-0.10662688828464541,0.10165603599419232,-0.04589128317758834,0.01754169608478869,0.046645149695940406,0.00997945426551594,-0.22035475815014074,0.0042577631194555534,0.17086844721692446
-0.024055992262532713,-0.08704688912713923,0.02038212443077442,0.03312389035362428,0.07666758127559194,0.03640814867609461,-0.01841160908335376,-0.14235615176330366,-0.015269114536252647,0.09727355687844906
-0.01990283613112576,0.05725042284842199,-0.043978549940547666,-0.07527261838086868,-0.04119309769766965,0.07800271048354149,0.024225196250541883,-0.07222812335163692,-0.10153650036535544,0.0736814824455039
-0.03610739154107172,0.04253478608553233,-0.05303356074907271,0.06891336938178326,-0.022115552530853868,-0.08084966878059516,0.02446743340623978,-0.048063807645765615,-0.06268266279946844,0.08852147201536133
-0.023718885666297013,0.054093930824062164,0.007159255386722296,0.047244322446420184,-0.04000545692845419,0.014936324277625687,0.08563118245776338,0.04065228355853648,-0.07030881400957825,0.03903032379382115
0.005570111204984907,-0.08231221535542577,-0.03965894244409191,0.05541899436880418,-0.002582153780132393,0.06800662091586859,-0.05655559783432644,-0.05543632515468167,0.0586516709382304,0.0672720682453159
-0.03980312289320996,-0.055886705503690015,-0.04718398601834393,0.028062511568566692,-0.0841020615313645,0.08090928457029095,-0.051690796206857,0.04448587378702046,-0.08539424907747346,0.0828153290855024
0.07710849440737358,0.0003073226158637301,0.04805877524737384,0.06771626339134462,-0.07624343830661179,0.04730515556075756,-0.038616157892815556,0.015243150124023845,-0.04605099409101895,-0.03955620531830575
-0.02926236158411205,-0.07379061705221401,-0.03046400218389058,-0.0696645317684513,0.06191131620922463,-0.043848714212311464,0.026006065745426677,0.006753621670689272,0.048983654181287604,0.004771537567448846
0.04702014382034617,-0.005262598824348156,0.07456453325349682,-0.10178874736952266,0.04448057407599853,-0.022162743871025563,-0.04219186455728593,-0.07364835261786959,0.06231771813913975,-0.022269771779975182
-0.08781151395088296,0.09631907748295022,0.10060727143692104,0.026978825530173903,0.11348582125785579,-0.016293974647341957,-0.06348740280216714,-0.13234686702755313,0.11368834525602951,0.07426543955504944
0.039459745121051,0.13257828979133982,0.09968354356271775,0.08104187645463345,0.13604925605726462,-0.054091704576137156,-0.03295230210712331,-0.10840046402144797,-0.04254541173097974,0.03992231805096769
0.06429997183081407,0.08219562679542593,0.2219912101634148,-0.022383378229127057,0.13651297379543684,0.09500143756257526,-0.07685476362678995,-0.15815991405410135,0.05314585577368659,-0.023788268311485557
-0.028509672801531993,0.21344331642508677,0.14828983631238693,0.11089490265251079,0.1022969121878327,0.09638907943417803,-0.11190627785196851,-0.1239447971323019,0.08434128382257274,0.11002834441458016
0.07426775640629418,0.0921371757508611,0.1549140970466247,0.1236864540957078,0.008562119420637584,0.0239424632921929,-0.1353117502187189,0.005996814514304226,0.08401753641795848,0.13279593876836063
0.009527026211380922,0.05065711372266669,0.17921950933514152,0.07316371553697809,-0.009935676004338178,0.09415636453057892,-0.0756297837874426,-0.06678438839619026,0.08807851476503485,0.03934102620698699
0.039550394355660844,0.03249233748553431,0.16740838767637903,0.06739776033049674,-0.1371311606849927,0.027215383413545707,-0.038998153956679334,0.0832958319637023,0.011700823857751761,-0.08664139498815865
-0.06543091134269066,-0.005274420217866916,0.19792917989832093,0.09279092966838495,-0.10392310876056714,0.0021512470215789095,0.048192052518480966,0.12019644927943866,0.11340988456832653,-0.15371034819635054
-0.06003004091750889,-0.011352729863705977,0.1258569991468216,-0.030547613899405274,-0.15213580184722358,0.05732822153662166,0.4213585081550223,0.28233279765893954,-0.01586028546744567,-0.1661162239317732
0.12447019298898042,0.08850547056650239,0.054006762987065235,0.06442032950694986,-0.10692542780889767,0.14437483864464354,0.4628935906778403,0.14763542206421468,0.012963757132495904,-0.17629791203819678
0.06700879732507418,0.17294469861423215,0.12084424683210487,-0.005804187234052408,-0.2254988765070813,0.11864365817823756,0.1766018027088662,0.06523385926346274,-0.009815908079626729,-0.08881453048963549
0.1146969025197784,0.20728102790798575,0.04661677359845399,-0.08046919022651511,-0.17834360400043237,-0.01880345660767078,-0.05582124605985718,-0.04320232859956804,0.060142442187979185,0.07659991349193908
0.2221697531139675,0.13842172862043806,0.11600116464927193,-0.02631085930796831,-0.03527275934918408,-0.04046561042910025,-0.0873911228922888,-0.02095924574885368,0.001763118749544704,0.21099286962888683
0.2425202172773446,0.15681148171059991,-0.06690588106994003,-0.02041925467072761,-0.07032485197385528,0.034945246577699485,-0.05724214699401936,0.10750896264432919,0.02187602275255607,0.19208863244241742
0.1661438018644043,0.13171444848462058,-0.02415714193839707,-0.07615774435766715,-0.004549644314733443,-0.0040862806260618815,-0.1606339498394801,0.11391670397926221,-0.10119266113419854,0.08184676721966176
0.2449181440716059,-0.07550610048234178,0.11182024763770242,-0.0735561166466727,0.1597230686246116,-0.07629788347446623,-0.08643860786432178,0.014050338130587084,-0.05084544823357248,0.030223892934122473
0.24222650109007743,-0.013528788469119672,0.10703574859038295,0.04120693908470193,0.1294565602180202,0.02192464420868084,-0.02648713967399473,0.052590668693044205,0.003182920604013572,0.07701447776791452
0.1456525393431088,-0.04652027614550284,0.10481239425836941,-0.07224004285688003,0.0987952531529595,0.044441713674393125,-0.07583712687982674,-0.09024891067068248,-0.04428701622155632,0.03148724306395583
0.06682636445222963,-0.023992746234687518,0.08477796725982387,0.0514222155299128,0.11921692489874071,0.04338025153206954,0.014302637400264403,0.012353011813480195,-0.12237143952077749,0.08675058062804185
0.032530739648262696,-0.01968157922759574,0.1290739387833845,-0.039767901107947534,0.11089363900677983,0.0784055654903039,-0.030115495606872215,-0.030563107972124994,-0.09594315529627818,0.1326601517395649
-0.07113617966211778,-0.058972548110873116,0.004140891585692318,-0.05581447936208139,0.011122791361252863,0.049640246127568934,-0.04861158589160302,-0.051408089285701855,-0.02567104521333376,-0.023654637051374838
0.020644882243345618,-0.0718070353567972,-0.021230145227359765,-0.04132710812825524,-0.013509918137928326,-0.018756186201338225,-0.0013593626420331135,-0.0780287599695068,-0.11334924311209575,-0.06069643466198365
-0.01393725361839296,0.06796911212725643,-0.06363212258518608,0.05337275509177767,-0.06844846980478313,0.041208622450181975,0.022427727678720807,-0.04487969349662067,-0.05888463356732298,0.06553417629722207
0.07008634592801982,0.018205060135247822,-0.041687121236035324,0.013092078060695789,-0.03233282023832061,-0.03882868679903935,0.02454735042189443,-0.0832237034732644,0.021735922266834073,0.05492475322016585
0.05264712789834028,-0.06928559842179238,-0.013553299561816006,0.02981721512777926,0.07605507753938398,0.017255603794072993,0.041026514735720984,-0.011631139011402555,0.06921339351850174,0.06257234946413229
0.06999235714350306,-0.049300526801821384,-0.00968916102509824,0.02605147659880161,-0.018000816001474247,-0.07908607860716226,-0.05822740879876578,-0.07383655094184134,-0.07500846839388103,-0.01917740467587636
0.01944137665129786,-0.09216075892708782,0.006734950794145452,-0.07357857702466149,-0.025025214209284087,0.05826243138398486,0.06956926887862074,-0.00704966767649296,-0.04344512627404076,0.02615039422606542
-0.12584967312629627,0.08825078568676198,-0.019931682873420432,-0.005410797425306017,-0.03596261091465161,-0.02690644134046896,0.06899989846897771,0.03158798675260453,-0.08114078661293536,-0.04369409929397781
-0.008762459671754127,0.006394732956528031,0.014943764506432613,-0.06462507455420166,0.04110170721631263,0.0779358100435054,-0.09628564347931604,-0.08643135726785789,-0.06399179666879976,-0.010677620138315497
-0.022705759639635073,-0.011409096446973606,0.09668908565635985,-0.08020607102511798,-0.010466006350763918,-0.042912592017166976,-0.0760999850639372,-0.07569529557631458,0.0719674346502242,0.11049030389994435
0.08355427855919573,0.02001482187346242,0.11162512952105799,-0.0027826946240180356,0.005309352183554841,0.10679184121974321,-0.05526395251961252,-0.17480639561600275,-0.015117654386726145,0.002157508762546725
0.11866916175496936,0.15336396472611755,0.14591512886953595,-0.05253294563527813,-0.02836915726592288,-0.12439011438771702,-0.06120724634024254,-0.22246409359778824,0.07424645607487207,0.015157093134807889
-0.029026016063007833,-0.01737595181756882,0.2188514445348354,0.03381702980607911,-0.11327976573313134,0.049956264620100194,0.005376538659618248,-0.19193051664454364,0.09797826447466046,0.09036684756765395
0.03254855336085117,-0.06617717772698033,0.058875996549271184,0.0015676955908857852,-0.007904031535313152,0.06319822714836108,0.06663475205383441,-0.10750919432171933,0.1317373018821923,0.07672464079853208
-0.04188869541421003,-0.007878640537972404,0.146440481548946,-0.07957399991817729,-0.09866933054139422,0.17456803513111674,-0.007290004162930351,-0.08388360539691556,0.173559209384548,-0.10803453625400093
-0.005063724678255647,0.03919082225615458,0.1760155989697817,0.10081751434292201,-0.13904741368952772,0.09823601432489198,0.18478557060884485,0.0382249415422678,0.12264411923293134,-0.06785944130589906
0.026518470783513597,0.11804545154740088,-0.0043023522255554066,-0.015186245963882058,-0.21542977062989305,0.15329141733259577,0.3314781616961828,0.15732499563041802,-0.03553779690790073,-0.14355271296221547
0.1528203327710473,0.19189990719503225,0.008175380074914713,0.08961888587126898,-0.15309133358243243,0.1353189872821888,0.4565904622996857,0.03136418466449119,-0.039348618356658205,-0.1152627318471831
0.20649679837345217,0.23933396782038294,0.08480727727052337,-0.0017010211002862422,-0.08344902032937564,0.1193095571361162,0.046556727092203355,0.011460220887337991,-0.05993559343264884,-0.06311527356430476
0.021860464599196605,0.2669839530997814,0.07427218218813868,-0.06761618362759172,-0.11815159864971357,-0.06325916155943244,-0.04187839869688063,-0.04638675662406216,-0.06741657953049747,0.14755573426304974
0.15104696748001778,0.18709000206264625,0.1323373538419193,-0.023634772262782353,-0.1412596832174421,0.04022969566422084,-0.09024028216646215,0.06016194312600837,-0.04462150112301556,0.11794301143100076
0.19640115733152472,0.034708605806018776,0.08533369562122972,-0.01810629036556847,0.06463903819753522,-0.037702866812909776,-0.14468500548352917,0.06010994665429871,-0.0058468091640519184,0.09263078733333874
0.10959521498715745,-0.029245722033452545,0.1426340052491524,0.06467245451155047,0.07208093073823088,0.15178606933054364,-0.08341591043779324,0.07279701618429231,-0.07777104081539613,0.12159962713603241
0.12396457887341521,-0.05329804379294669,0.1258875038564309,-0.0011165661892294577,0.13763343032253694,0.0699760148829821,-0.13272028414859965,0.08023933206307335,-0.006118014457391673,0.09208280368604775
0.17141886341088372,-0.06330672193040263,0.08207389766624985,0.052100716383705836,-0.010239453563053858,-0.006907442237440495,0.050117525805955694,0.05895322664264489,-0.13494595306816423,-0.0002687600370671363
0.02276424330235445,0.025097040261184183,0.07146404783474741,0.04029036428118758,0.06916688208496839,0.010406311607981545,-0.07577887318369521,-0.0018137044553634745,-0.04638842401206175,0.029457260401446864
0.05433284145020858,-0.14570455877946842,0.09491957514838346,-0.0074264837520860464,0.026700877300075143,0.07373903803113259,-0.06792242515059846,0.07341324244732828,-0.07136782549189691,0.10054541995190194
-0.10802821794531312,-0.006536869890569161,0.13208418098023667,0.017200124014717214,-0.020238151119511227,0.09439807012616523,0.03175049280673092,0.07444888027549638,-0.025809464015066154,0.08140514288651983
0.005363502607482935,0.06308617607137992,0.1247011505929782,0.021261588429475498,0.04485209008159867,0.06693541035768366,0.021490774787215047,0.08853000461946935,0.02394383860396018,0.10860714553169908
0.018376995716151253,-0.010257903688275796,0.09572682238125849,0.014685072854708912,0.03069184625700234,0.048811640127598185,0.06087010000596692,0.000902685293076884,-0.0048994810622142665,0.005455728940402684
0.02585713366565149,-0.0682448662223622,-0.05407137120155935,-0.003653391585724911,0.07065719424342948,-0.07876237870143431,-0.004202071030493005,0.06529868766879518,0.003230438557096071,0.032262779954747425
-0.010543326189313182,0.04860806863797365,-0.07146310129421019,-0.050656463332193695,0.05313050607622413,-0.057556304828762395,0.018249269379398414,-0.06649617109452866,0.0062178368213528235,-0.06252258058591245
-0.03221267976180919,0.08132826813974593,0.020832027392320217,-0.01141639308924684,0.08035009277324569,0.014997167924603087,0.046943301340138625,-0.06086982988812943,-0.02194676686189482,0.07434563157630514
-0.05658195619217027,0.024036467404123622,-0.008207994128808268,-0.05215786231034071,-0.061826154783073795,-0.05607211530662465,0.005774297371863258,0.04645797129313523,0.07830040328128338,-0.034838941635096876
-0.019576126091158337,-0.08754310320907442,-0.012409786812783924,-0.06812281367731148,0.0580225295210658,0.026392047116726713,0.041482483308969746,0.10802412726880652,-0.01145701592196515,-0.09737750349118406
-0.0470611341432425,0.019016352442046427,0.004232526261781889,-0.06304836181567948,0.0030871127107042337,0.022820184390227868,-0.022953681105128524,0.0012373978422200588,-0.07145346980269004,-0.011569787004335055
-0.04887203035731208,0.008176345636355633,0.12062216566627502,-0.050293142667711524,0.06064450287686005,0.000610549942989599,-0.030774463589616132,0.09724699249421578,-0.11812846716878031,0.12338751593453921
